3, 3, 12, 24

 3.49562241e-02 -1.10664602e-02 -9.30425976e-04 ...  1.68321560e-02

     3.22236583e-03  1.25532113e-02

   -1.33021007e-03 -1.25700257e-02  2.65034023e-02 ... -2.07642401e-02

     9.33539665e-03 -8.33015378e-03

    2.84299877e-03  2.88385607e-03  1.64817571e-02 ... -6.21697993e-03

    -1.14529709e-02 -9.70999198e-04

   ...

   -1.62860241e-02  1.33951784e-02  1.08156494e-02 ...  6.03984826e-04

     1.13962474e-02 -6.08188564e-03

   -4.11427384e-03  3.29615053e-03  1.39961418e-02 ... -4.80222461e-05

    -1.92848181e-02  2.27764651e-03

    2.77092802e-02 -1.90413942e-02 -1.18658710e-02 ... -6.02650292e-03

    -2.11497897e-02 -6.70861008e-03



   2.16404817e-02 -1.33232120e-02  9.16090960e-04 ... -1.18614413e-03

    -7.75388634e-03 -5.13180767e-03

   -1.04137046e-02 -9.41999753e-03  7.65965234e-03 ... -9.08060395e-03

    -5.17995228e-03  1.16090952e-03

   -2.63981123e-02 -2.34011943e-03 -1.35052546e-03 ...  7.13488614e-03

     7.06963370e-03  3.56498391e-03

   ...

   -1.68144955e-02 -1.02731263e-02 -1.33391124e-03 ...  1.39688727e-03

    -9.19574533e-03 -1.54934784e-02

   -1.72946723e-02 -6.42201094e-03 -7.03317833e-03 ... -1.41738081e-02

    -6.30744151e-03 -4.17122090e-03

    1.51790608e-02 -1.46378796e-03 -5.84192361e-03 ... -2.77033481e-02

     4.81322174e-03 -6.16860424e-03



   7.85618290e-03 -2.75839078e-03  4.47127254e-03 ...  5.73038489e-03

    -4.51331034e-03 -2.34498962e-02

    1.63122989e-03  1.97866186e-03 -6.78081208e-03 ...  7.98504135e-03

     3.41529967e-03  1.29327319e-02

    1.02023787e-02  1.96508536e-02 -2.41134986e-03 ...  7.20606974e-03

     5.93183808e-03 -2.11017363e-02

   ...

   -2.83386848e-02 -1.04318813e-02  7.66291492e-04 ... -6.58904138e-03

    -6.59057377e-03  1.71369723e-02

   -1.93708245e-02  1.38613463e-03  3.41233954e-03 ... -6.02336729e-04

     1.42977351e-02 -1.51317599e-02

    4.16798695e-03  3.88813520e-03 -1.18883650e-02 ...  1.85991349e-02

    -1.54977357e-02 -9.59014942e-05





  1.79083298e-02 -1.18856884e-02 -8.46195709e-03 ... -2.35219912e-02

    -4.46814377e-03 -5.05491440e-03

   -1.15641148e-02  1.41341369e-02  9.07987788e-03 ...  1.10047399e-02

    -3.86061377e-03 -2.64613423e-03

    6.87248881e-03  1.94685362e-02 -1.72438173e-03 ...  3.74605633e-03

    -3.43104610e-03  1.48167758e-03

   ...

   -8.99470767e-03 -2.24710623e-02 -1.28850257e-02 ... -6.11240007e-03

    -5.72318188e-03 -7.76494937e-03

   -1.91456561e-03 -1.06839040e-02 -4.50877823e-03 ... -8.33933101e-03

     1.51270147e-02  6.57016700e-05

   -1.63198937e-02 -8.00618928e-03 -4.34369649e-02 ... -4.29745763e-03

    -7.24010179e-03  7.92913799e-03



   5.52529145e-03 -1.39002948e-02  9.99826241e-03 ...  7.87031624e-03

    -1.58605295e-02 -1.35924474e-02

   -3.18622968e-03 -3.97694117e-03 -2.24520406e-04 ... -7.57870610e-03

     2.95735124e-03 -1.05596500e-02

   -1.14603512e-02  1.00801024e-02 -3.76487428e-03 ... -8.99729239e-03

    -2.53181988e-03 -2.27642691e-03

   ...

   -6.22059049e-03 -4.17261927e-03 -3.63878276e-04 ...  1.33186266e-02

     1.24456261e-02  9.69379499e-03

   -1.80603096e-02 -3.31323391e-03  1.06518754e-02 ... -5.44738157e-03

    -1.80785401e-03 -2.50349041e-03

   -2.63249921e-02 -4.38765196e-03 -2.71171282e-03 ...  2.51635670e-02

     2.67244692e-03 -7.11083329e-03



  -1.01039809e-02 -1.01935926e-02 -1.38223737e-02 ...  2.42051040e-02

     4.40466231e-03 -1.08967085e-02

    1.26615595e-02  7.88646956e-03 -1.11174273e-02 ...  1.90005601e-02

     2.13093341e-03 -9.10943285e-03

   -1.66065866e-03 -1.17639277e-02 -1.56984199e-02 ...  1.22461418e-02

     1.75725368e-02  2.51196309e-03

   ...

    8.74215462e-03 -1.10765595e-02 -1.74200290e-02 ...  8.20749015e-03

     4.44929120e-03  5.52307293e-02

    4.65067654e-03 -3.51419242e-03 -4.40318070e-03 ...  1.76317687e-02

     4.51801031e-03  1.02821250e-02

   -1.00792224e-02  3.98840460e-03 -1.39423924e-02 ... -2.11186415e-02

    -1.04246523e-02 -3.83934099e-03





 -5.77647921e-03 -1.07858258e-02 -1.84144366e-03 ...  9.92865999e-03

     1.70617724e-02 -2.47968648e-02

   -3.58091359e-03 -2.06814157e-02 -7.31916201e-03 ... -9.39701310e-04

    -6.00369746e-03  1.06139420e-02

    1.68733584e-02  1.58821142e-02  4.10301233e-03 ...  6.26657052e-03

    -1.56662178e-02  4.70013845e-03

   ...

   -3.86017220e-03  2.11190340e-03 -2.75763625e-02 ... -7.16033684e-03

     2.41768225e-03  2.06447462e-02

   -2.03739659e-02  7.12054634e-03  2.51912744e-03 ...  1.38748369e-02

     1.85306004e-03 -8.68182138e-03

    6.26168706e-03  1.63744202e-02 -2.56215163e-02 ... -6.67033268e-03

    -9.95729918e-03 -7.19008430e-03



  -1.47687956e-02 -8.31189067e-03 -6.96114159e-03 ...  5.86242176e-03

     1.48292811e-02 -2.33703855e-02

   -1.15544918e-02 -1.18864895e-02 -2.15091865e-02 ...  8.72584667e-03

    -8.63189887e-03  1.72230747e-02

   -8.18549910e-03 -8.27971249e-03  8.36451532e-03 ... -5.46778574e-03

    -2.16856464e-02  6.40603282e-03

   ...

    1.64747956e-02 -2.22349411e-03  1.53939986e-05 ... -3.05567017e-02

    -6.36745842e-03  5.37009793e-03

    3.68399516e-03 -1.16818377e-02 -9.38705649e-03 ...  5.97390842e-03

    -5.03711449e-03  7.87783192e-03

   -1.16936673e-02 -1.14765266e-02 -1.53103510e-02 ... -9.78890317e-03

    -7.90862999e-03 -1.87596737e-02



  -2.17406914e-02 -1.28928715e-02 -1.19020407e-02 ...  7.77785876e-03

    -7.37252472e-03 -1.90704628e-02

   -6.95892244e-03 -1.89685315e-02 -3.18884369e-03 ...  1.91187458e-02

    -1.73501460e-02  6.03909682e-03

   -6.62984240e-03  8.65669773e-03  4.19277506e-03 ...  1.53043764e-03

    -2.62546323e-03  5.46304518e-03

   ...

    3.95687541e-04  3.08273267e-03 -6.83248329e-04 ... -8.95340579e-03

    -1.45664197e-02  4.03024402e-02

    5.56889003e-03  1.19276592e-02 -6.48649814e-04 ... -1.65102953e-02

     7.56928547e-03 -2.60644163e-03

   -2.48566062e-02 -4.50781023e-03  1.34532252e-03 ... -1.12599321e-02

    -2.08509661e-03  1.12656259e-02
