-0.103415 0.100667 -0.132393 -0.000602 -0.007647
-0.017361 -0.032556 0.099314 -0.004135 -0.004707
0.055789 -0.045812 -0.116780 0.040312 -0.134442
-0.010239 -0.018863 -0.012977 -0.018030 0.075597
0.005462 0.010104 0.082197 -0.036919 -0.081458
-0.080280 -0.150189 -0.004696 -0.084227 -0.007066
-0.016222 0.032556 0.000632 0.051977 0.109246
-0.024188 -0.059831 -0.088694 -0.171363 -0.018782
-0.085101 0.038418 -0.041635 0.022974 -0.003855
0.107941 0.127747 -0.044077 -0.029601 -0.060655
-0.173416 -0.012370 -0.083192 0.107267 -0.052603
-0.001968 -0.023726 0.125326 0.231706 -0.043826
-0.113396 0.139033 -0.144236 -0.022361 0.020138
0.000923 -0.034584 0.090176 -0.008093 -0.008535
-0.005121 -0.042210 -0.108452 0.028866 -0.138113
-0.000561 -0.044571 -0.028089 -0.046331 0.037410
-0.023742 -0.000861 0.022140 -0.035284 -0.110177
-0.072287 -0.142013 0.004063 -0.104964 -0.038901
-0.027132 -0.025164 -0.002420 0.024619 0.048763
-0.044459 0.002163 -0.060695 -0.175216 -0.000283
-0.176763 0.002621 -0.073838 -0.052089 -0.011946
0.090370 0.089653 -0.024563 0.080916 -0.035240
-0.172235 0.001540 -0.183799 0.039389 -0.080160
-0.019528 -0.010221 0.107502 0.173594 -0.033017
-0.085713 0.117091 -0.104362 0.022234 0.021307
-0.066201 -0.048225 0.008566 -0.031234 -0.022367
-0.103825 -0.053188 -0.130418 0.025705 -0.119150
-0.021588 0.014619 -0.048377 -0.042943 -0.040504
-0.012166 -0.060863 -0.107422 -0.037214 -0.093908
-0.074877 -0.142830 -0.002587 -0.076483 -0.048512
-0.046103 -0.067254 -0.022890 -0.075022 -0.092894
-0.071171 0.113049 -0.059581 -0.155119 0.014813
-0.124666 -0.046925 -0.008490 -0.088956 -0.018900
-0.023616 -0.082183 -0.042346 0.198404 -0.041173
-0.179146 -0.012530 -0.119836 0.012503 0.024511
-0.018129 -0.012207 0.034588 -0.067143 -0.039497
-0.071500 0.076513 -0.102933 -0.019861 0.090062
-0.028744 -0.048029 -0.054415 -0.002691 -0.037949
-0.086499 -0.045427 -0.110593 0.015811 -0.116631
-0.007121 0.091776 -0.056234 -0.035061 -0.053558
-0.013148 -0.080635 -0.086599 -0.050324 -0.010207
-0.051356 -0.106865 -0.002013 0.062262 -0.034452
0.014505 -0.038365 0.000750 -0.067805 -0.067621
-0.065849 0.145602 -0.068732 -0.110821 0.011908
0.038179 -0.026443 0.015916 -0.051782 -0.011777
-0.065403 -0.115206 -0.025558 0.234342 -0.062631
-0.154688 -0.019486 0.048927 0.016991 0.076195
0.022883 -0.030183 -0.051971 -0.173935 -0.033058
-0.081981 0.027558 -0.148682 -0.009001 0.141428
-0.032498 0.020431 -0.044751 -0.023836 -0.051982
-0.035276 -0.075486 -0.075060 -0.014041 -0.106753
0.007566 0.148660 -0.045514 0.035868 -0.049822
-0.044040 -0.057076 -0.054624 -0.069552 -0.011619
-0.064035 -0.096149 -0.001598 0.126002 -0.059414
0.046582 -0.017279 0.012486 -0.038289 -0.042159
-0.048942 0.096478 -0.076164 -0.094264 -0.013023
0.150719 -0.023784 0.079215 -0.045235 -0.021027
-0.062152 -0.094897 -0.037498 0.108277 -0.062306
-0.113512 -0.007763 0.185466 0.003661 0.105064
0.094979 0.003374 -0.045737 -0.082635 -0.018591
