-0.024775 -0.017102 0.019908
0.019857 0.009152 -0.006162
0.018754 -0.002134 0.017205
-0.010817 -0.001511 0.000635
-0.040674 -0.007844 0.018604
-0.023672 -0.000225 -0.005453
-0.011686 0.005393 -0.011253
-0.028355 -0.003917 0.003021
-0.008230 -0.001305 0.015845
-0.019664 0.002677 -0.024764
-0.018225 -0.013373 -0.010931
0.000462 0.018932 -0.010880
-0.036591 0.000123 -0.021238
0.010064 -0.017887 0.004828
-0.014471 -0.060340 -0.000715
-0.013432 -0.049846 -0.001901
-0.043305 -0.005717 -0.026255
0.050838 0.032041 -0.006598
-0.040275 -0.020882 0.008238
-0.050263 0.020009 -0.008528
-0.000061 -0.135934 -0.048632
-0.013817 -0.017499 0.027390
0.019245 -0.024646 0.001725
-0.031016 0.008079 0.007628
-0.013773 -0.005429 0.006186
0.013611 -0.002778 0.001532
0.010637 0.012240 -0.017956
-0.022140 -0.005102 -0.003450
-0.004988 -0.035364 -0.024626
-0.001587 0.013808 0.012448
-0.006254 -0.010821 -0.004198
-0.007910 0.029671 0.000639
-0.007080 -0.028691 -0.016994
-0.010173 -0.000846 0.030718
-0.020709 0.004475 -0.007609
-0.021705 0.001850 0.010111
-0.000745 -0.037590 -0.039305
-0.015980 -0.008743 -0.006689
0.009871 0.005913 -0.004966
-0.003785 0.015393 0.007511
-0.003481 0.009975 -0.008940
0.000591 0.020089 -0.004228
0.011299 0.007721 -0.000004
-0.005190 0.017777 0.012565
0.001885 0.004470 0.021625
0.011054 0.009678 -0.008826
0.011078 0.009856 -0.002218
-0.024634 -0.014175 -0.002605
-0.005783 0.000679 -0.000130
-0.014029 -0.023755 -0.083833
0.029655 0.003777 0.000699
-0.004637 -0.022734 -0.083226
0.000005 -0.020359 -0.007367
0.015902 0.008379 -0.013279
0.001607 -0.037397 -0.019991
0.001537 -0.002284 -0.010087
-0.013504 -0.012467 0.012405
0.006881 -0.000634 0.000740
-0.009050 0.008589 0.014140
-0.030876 -0.021955 -0.010490
-0.048826 -0.005004 -0.015198
0.012875 -0.015617 0.010038
0.027997 0.010196 -0.000576
0.000547 0.004610 -0.002614
-0.021650 0.004972 -0.016323
-0.011684 -0.018313 0.000268
-0.002530 -0.016369 -0.008833
-0.022617 -0.002105 0.019300
0.007220 -0.001986 -0.022818
-0.009465 -0.002771 0.007480
0.001660 -0.017069 -0.025539
-0.011162 0.036655 0.026003
-0.001604 -0.000575 -0.033772
-0.097199 -0.026607 -0.014460
0.041712 -0.034147 -0.003777
0.003256 -0.083081 -0.004402
0.003576 -0.009450 -0.002241
-0.008464 0.002310 -0.021329
0.021378 -0.019263 -0.009486
-0.028998 -0.016618 0.023683
0.024010 -0.013692 0.020488
-0.001714 -0.010516 0.000282
0.012039 0.014321 -0.035774
-0.018495 -0.019288 -0.008623
-0.000874 -0.010270 -0.017674
-0.010942 -0.017338 -0.014904
-0.007461 -0.003355 0.007747
-0.008075 0.033211 0.037174
-0.012161 -0.023581 -0.003457
-0.008544 -0.039891 -0.022388
-0.008665 -0.008821 -0.012373
-0.026822 -0.016232 -0.012355
-0.038658 -0.057522 -0.114104
0.012687 0.014515 -0.031666
-0.009402 -0.033701 -0.011019
-0.031439 -0.009144 0.006909
-0.020162 -0.022040 -0.005174
0.005333 -0.008677 0.002244
-0.027148 -0.007052 0.017601
-0.002445 0.005741 0.009026
-0.044827 -0.021226 0.003882
-0.011002 -0.006194 -0.014331
-0.008148 0.005102 0.019090
0.036213 -0.000363 -0.027620
0.001618 -0.002635 -0.017226
-0.001678 -0.029271 -0.011637
0.022348 -0.015712 -0.011804
-0.022921 -0.035757 -0.019766
-0.024560 -0.013069 -0.006910
-0.005071 -0.010276 -0.022979
0.015540 -0.010206 0.022470
-0.015880 -0.040728 0.014331
-0.051699 -0.008252 -0.008047
0.017934 -0.004601 -0.017393
-0.017798 -0.004388 -0.014157
-0.040375 0.005680 -0.010842
-0.029135 -0.120923 -0.036325
-0.008341 -0.000681 0.018480
-0.008989 -0.032259 -0.026125
-0.040218 0.004001 -0.028755
-0.006506 0.000539 -0.006478
-0.010249 -0.016221 0.014564
-0.022556 0.000848 0.000592
0.004629 -0.000172 0.030761
-0.000017 -0.026604 -0.000247
-0.014983 0.002219 -0.014910
0.019131 -0.000240 0.000857
-0.032168 0.035554 0.007461
0.000640 -0.016656 -0.010480
-0.001888 -0.010727 0.056816
-0.022867 0.005917 -0.001738
-0.010404 0.002112 -0.006735
0.000963 -0.035903 -0.047808
-0.014830 -0.009033 -0.019826
0.009485 -0.023002 -0.001989
0.030734 0.010455 0.022481
-0.001917 0.014509 -0.007139
0.006815 0.000344 -0.005082
0.010018 0.006333 0.024826
-0.008146 -0.019731 -0.020949
0.001287 -0.013428 -0.002948
-0.000479 -0.023736 -0.010303
-0.008646 0.015093 0.021003
0.007128 -0.016681 -0.002982
0.000092 -0.026547 -0.007350
-0.012713 -0.027839 -0.101054
-0.028878 -0.013502 0.003197
-0.018124 0.004304 -0.063524
0.002749 -0.012853 -0.002301
-0.010200 0.010699 0.001030
0.036955 -0.046384 -0.013251
0.018804 0.002739 0.007780
-0.006416 -0.014470 0.004516
0.041737 -0.011735 -0.016879
-0.025543 -0.016926 0.023835
-0.028120 0.012283 -0.029361
-0.043849 0.039545 0.016849
-0.002268 -0.010513 0.009280
-0.015597 -0.023202 -0.022321
0.014135 -0.000331 0.020823
-0.004311 -0.000622 0.012590
0.004613 -0.001252 0.000019
-0.014665 0.003666 -0.005145
-0.015313 0.007010 0.016274
0.014829 -0.019347 -0.010710
-0.001260 -0.003884 0.008199
0.007207 -0.018391 -0.020504
0.000849 0.034677 0.010512
-0.007257 0.066367 -0.022266
-0.104391 -0.020559 -0.018025
0.061985 0.001498 -0.009661
0.024702 -0.099952 -0.001639
-0.023761 -0.012661 0.051737
-0.005343 -0.003932 -0.008183
0.019859 0.001229 -0.009840
-0.046579 -0.010650 0.019622
-0.003914 -0.019164 0.002264
-0.004018 -0.003175 -0.004010
-0.008511 0.003491 -0.015585
-0.016131 0.010392 -0.004551
-0.037100 -0.017458 -0.009310
-0.005334 -0.014552 -0.039718
-0.010746 -0.009860 -0.012750
-0.001931 0.014800 0.003135
-0.025769 -0.001740 -0.011021
0.007787 -0.044631 -0.037272
-0.014206 -0.035508 -0.003908
-0.041332 -0.018091 -0.027864
-0.047102 -0.084666 -0.143860
-0.012703 -0.021506 -0.048100
-0.004887 -0.024810 -0.001259
-0.047124 0.000958 0.009012
-0.027850 -0.033453 0.007845
-0.007449 -0.015860 -0.016577
-0.020742 -0.016197 -0.008915
-0.004125 0.007690 0.024073
-0.034743 0.007783 -0.008689
0.023401 -0.007816 -0.009033
-0.022803 -0.009398 0.007495
0.010525 -0.006377 0.004739
-0.020880 0.017254 -0.018136
-0.009029 -0.008264 -0.032675
-0.018550 -0.006688 0.005734
-0.005366 -0.011095 -0.022394
-0.048632 -0.005484 -0.014659
-0.004933 -0.021439 -0.025137
-0.008506 -0.013421 -0.023723
0.035994 -0.028540 0.038922
-0.055525 -0.000257 -0.010716
0.001006 -0.003256 0.003859
-0.017199 0.003932 0.018642
-0.036997 -0.013954 -0.000281
-0.007039 -0.121948 -0.029234
0.014032 -0.022325 -0.006827
-0.024034 -0.020093 0.001511
-0.044098 0.006865 -0.000905
-0.015581 -0.008077 -0.024385
0.012634 0.013944 0.018158
-0.019462 -0.001048 -0.006917
-0.010130 -0.021274 -0.003546
0.012250 -0.013419 -0.005185
-0.013149 -0.017806 -0.020624
-0.022730 -0.022286 -0.007678
-0.024698 0.006648 0.010911
-0.011105 -0.006776 -0.010133
0.020089 0.004323 0.020004
-0.004378 -0.014227 0.004649
0.004816 -0.004628 -0.024033
0.001190 -0.018914 -0.017125
0.004226 0.006415 0.034548
0.028009 -0.028551 -0.018341
-0.005091 0.018704 0.024257
-0.008113 -0.001900 -0.006785
-0.000057 -0.008914 0.003596
-0.008692 -0.006687 0.007751
0.008149 0.002585 0.023552
0.014239 -0.026130 -0.006474
0.003635 0.009463 -0.048560
0.017369 0.019142 -0.017012
-0.000707 -0.021548 0.011289
-0.006683 -0.016948 -0.032313
-0.005610 -0.002423 -0.113663
-0.009610 0.002891 -0.021448
-0.004599 -0.019026 -0.048222
-0.006891 -0.027157 -0.006527
0.006919 -0.014848 0.014252
-0.012958 0.000881 -0.004657
-0.039661 0.005364 -0.007366
-0.014573 -0.026689 0.019242
0.010532 -0.012581 -0.012976
-0.029361 -0.024219 -0.006683
-0.015498 0.000347 -0.018077
-0.043113 0.007165 -0.002604
0.000776 -0.014702 -0.007704
-0.013094 0.014197 -0.000863
-0.019210 0.005770 -0.007061
0.026956 -0.010286 -0.005898
-0.004749 -0.017012 0.022252
-0.048392 0.010190 -0.011598
-0.024061 -0.025895 0.027484
0.044473 0.006567 0.001952
0.015565 0.004453 -0.026280
-0.011602 0.007960 -0.006135
0.021613 0.000148 0.001467
0.019311 0.059811 -0.057464
-0.100428 0.000233 -0.027633
-0.012488 -0.027117 -0.007776
0.078025 -0.088702 -0.022070
0.010594 -0.011155 0.206171
-0.010700 -0.016439 -0.060297
0.039110 -0.012473 -0.019158
-0.032012 -0.007939 -0.002974
-0.012808 -0.013541 -0.000066
-0.003098 0.003691 -0.003422
-0.008116 -0.008942 -0.002389
-0.018979 -0.006209 0.006707
-0.023187 -0.002580 -0.022632
0.003288 -0.000116 -0.000623
-0.019838 -0.006825 -0.019831
0.002817 -0.025630 -0.024746
-0.003448 -0.018318 0.004704
-0.018984 -0.044292 -0.041657
0.009845 -0.005123 -0.017793
-0.011329 -0.003790 0.000043
-0.020042 -0.118701 -0.181647
-0.011512 -0.002277 -0.062855
-0.009556 -0.046088 0.002714
-0.060923 -0.021724 0.029177
-0.019970 -0.039068 -0.016615
-0.008378 -0.020474 -0.016626
-0.008156 0.005333 -0.002522
-0.007948 0.005852 -0.016910
-0.045680 0.021280 0.015093
-0.014833 -0.007228 -0.001402
0.011184 -0.005494 -0.001608
-0.009286 -0.001245 -0.008958
-0.006802 -0.015053 0.007918
0.012837 -0.008415 -0.018491
-0.012269 -0.031554 -0.014073
-0.002664 -0.005955 -0.028149
-0.039842 -0.020369 -0.010699
0.005482 -0.012377 -0.023779
-0.003221 -0.028968 -0.015664
-0.025807 -0.025246 -0.020383
-0.043578 -0.005845 0.001447
0.049098 0.025020 -0.007179
-0.018119 -0.016334 -0.012420
-0.041226 -0.008600 -0.008838
-0.012497 -0.119526 -0.051916
-0.010855 0.009208 0.039978
-0.014018 -0.026299 -0.017460
-0.068211 0.021027 -0.026639
-0.011299 -0.012725 0.012066
-0.011842 -0.036010 -0.001234
0.004022 -0.002024 -0.006773
0.001585 -0.010529 0.025333
-0.015570 0.012776 -0.013979
0.000734 0.025857 0.007759
-0.010119 -0.024604 0.012369
-0.014283 0.025725 0.013602
-0.018399 -0.003367 0.005545
0.011946 -0.020886 0.027696
-0.003808 0.019006 -0.005707
0.002998 -0.000327 0.002939
-0.017176 -0.013783 -0.053816
-0.002205 0.008261 -0.036065
-0.021786 -0.018356 0.005247
-0.006243 -0.021359 0.003557
-0.024454 -0.008682 0.022261
0.021797 0.013021 -0.010383
0.001093 0.001129 0.005508
0.001908 0.003428 -0.015325
-0.002948 0.007395 0.002630
0.012268 -0.011818 -0.015079
0.020926 0.000811 0.010892
-0.013458 -0.039683 0.005627
-0.015626 -0.001471 -0.034220
-0.010032 -0.010422 -0.089090
0.009782 0.012917 0.016384
-0.013126 -0.005367 -0.105590
-0.019480 -0.008720 -0.026208
-0.011682 -0.010130 -0.022974
-0.020943 -0.023487 0.010990
0.011866 -0.021625 -0.020328
-0.007333 -0.012580 0.004845
0.011374 0.003110 -0.030029
-0.018910 -0.004987 -0.008472
-0.022338 0.002125 -0.029196
-0.041685 -0.013425 -0.012314
0.010936 -0.005840 0.021852
0.003926 -0.001258 -0.000544
-0.018044 0.008387 0.001702
-0.042666 0.005101 0.011303
0.010475 -0.008571 -0.018781
-0.007200 0.016529 0.002593
-0.001486 0.008871 0.012674
0.010031 0.014193 -0.011353
-0.000607 -0.004101 -0.001160
-0.012148 -0.003256 0.000739
0.004205 0.051162 -0.021753
0.001699 0.003528 0.006970
-0.073586 -0.007550 -0.026411
0.007530 -0.002811 -0.030324
0.010824 -0.080160 -0.015392
0.003995 -0.000011 0.007693
-0.002954 -0.016638 -0.025438
0.017451 -0.022335 -0.015393
-0.050099 -0.002146 -0.023763
0.055284 0.007547 0.006985
-0.002479 0.000515 -0.001371
-0.015548 -0.007784 0.001161
-0.011686 -0.004877 -0.017365
0.006564 -0.001358 0.046618
0.017917 -0.012520 -0.000664
-0.001923 0.002436 0.000193
-0.001409 0.055403 0.008368
-0.014850 -0.008331 -0.021132
-0.010097 -0.032332 -0.026564
-0.001991 -0.025366 -0.003994
-0.021482 -0.019529 -0.039132
-0.027338 -0.060185 -0.125047
-0.017977 0.022072 -0.028342
-0.011963 -0.030125 -0.030398
-0.025971 -0.012012 -0.034025
-0.005832 -0.008872 0.007826
-0.005617 0.000241 -0.015802
-0.008012 -0.006338 0.030553
-0.002614 -0.003404 -0.010618
-0.050374 -0.015235 0.030432
0.009853 -0.010841 0.005888
-0.005734 -0.012152 -0.013781
0.015172 -0.013688 0.012116
-0.008243 -0.007409 0.007105
0.003229 0.000888 -0.023532
-0.010525 -0.006643 -0.036298
0.023543 -0.036012 -0.010166
-0.018619 0.006956 0.011619
-0.004691 0.008093 -0.015699
0.000783 -0.022706 -0.016263
0.001831 -0.041249 0.002734
-0.049438 0.006506 0.008666
0.010718 0.023609 -0.008845
0.000044 -0.012923 0.025720
-0.012943 0.010445 -0.024528
-0.022980 -0.118922 -0.031973
-0.020821 -0.011689 -0.014427
-0.003638 -0.037352 0.009779
-0.049260 0.014962 -0.009846
-0.012053 -0.020551 -0.017572
0.000147 0.013817 0.009805
-0.008488 -0.009222 -0.000154
-0.009970 -0.017246 0.003223
0.017826 -0.003644 -0.026434
0.018196 0.000800 -0.005942
-0.011232 -0.012974 0.006409
0.000296 0.007544 -0.006988
0.006275 -0.019877 0.026697
-0.007443 0.006092 0.019087
0.011863 -0.023716 -0.000130
-0.009633 -0.015783 0.021643
-0.026564 -0.017637 -0.025537
0.000364 0.005898 0.005175
-0.001791 -0.029859 -0.013650
-0.007354 -0.002600 -0.007659
0.013470 0.009467 -0.009755
0.006394 0.009588 0.007759
0.028082 0.002414 0.002687
0.002075 0.011814 0.008386
-0.007793 -0.010529 -0.006840
0.000228 -0.014760 -0.029113
0.001736 -0.000977 -0.021817
0.006007 -0.017962 0.011402
0.007737 -0.006838 -0.027394
0.021787 -0.015430 -0.084570
0.013760 -0.004011 -0.006448
-0.024140 -0.016284 -0.072560
-0.009535 -0.013239 0.006697
0.006000 0.004973 -0.011920
-0.002521 -0.014241 0.015115
-0.007641 -0.011530 -0.036818
-0.017642 0.003642 0.001556
0.013244 -0.006425 -0.021918
-0.002105 -0.006306 0.016234
-0.005711 0.007861 -0.017315
-0.060547 -0.015773 -0.019554
-0.002075 0.003966 -0.011801
0.013565 0.036519 -0.040703
-0.004445 0.007339 -0.007164
-0.032834 0.004687 -0.010362
0.001510 -0.004814 0.005346
-0.000277 0.011994 -0.016510
-0.015987 -0.032100 0.000127
0.025457 0.022816 -0.012891
0.012525 -0.005357 -0.000011
0.003477 0.001925 -0.018582
0.004786 0.005831 -0.003052
0.000059 0.017630 -0.025521
-0.085118 0.002865 -0.040727
-0.005033 -0.001760 -0.022289
0.056419 -0.069963 -0.022344
0.003830 -0.012745 0.060907
-0.030631 0.014536 -0.029804
0.006926 0.005699 -0.006119
-0.035435 -0.020695 -0.025629
0.015807 -0.008568 -0.016824
-0.001072 -0.012122 0.003777
-0.008730 -0.011166 0.001094
-0.005084 -0.001586 0.013197
-0.035390 -0.019053 0.017763
-0.010609 -0.000694 -0.002710
-0.003579 -0.011567 0.013808
-0.003221 -0.001252 0.016419
-0.020707 0.000524 -0.023144
-0.013228 -0.025825 -0.030984
-0.008468 0.015189 -0.002225
-0.037518 -0.014440 -0.035339
-0.059888 -0.065018 -0.202594
0.003784 0.002547 -0.049390
-0.006067 -0.018683 -0.000089
-0.061747 -0.022975 -0.018653
-0.008455 -0.042861 0.008300
-0.002902 0.020181 0.007686
0.002006 -0.010942 0.020393
-0.014520 0.018902 0.003054
-0.042810 0.005166 -0.004518
-0.007149 -0.015180 -0.004772
0.022074 -0.007414 -0.013491
0.003431 -0.000848 -0.019535
0.006280 -0.005176 -0.017144
-0.016982 -0.029101 -0.025361
-0.020863 -0.008698 0.014582
-0.001552 -0.017350 -0.017773
-0.039573 -0.002847 -0.000740
-0.017783 -0.000279 -0.012947
-0.026441 -0.029075 -0.006722
0.015365 -0.039336 0.004478
-0.057617 -0.014517 0.005656
0.011667 0.016570 -0.016364
-0.031049 -0.016307 0.065497
-0.032203 -0.020763 -0.010358
0.003371 -0.089028 -0.048440
0.008672 -0.017990 -0.008356
0.002829 -0.025233 0.003407
-0.018973 -0.025185 -0.023339
-0.007147 -0.006492 0.001976
0.014428 -0.004552 0.006232
-0.023327 -0.005768 0.005786
-0.012449 -0.012609 0.025789
0.013386 -0.019800 -0.011762
0.007575 0.008864 -0.019237
-0.014667 -0.014359 -0.006610
0.005832 -0.002201 -0.001177
0.001193 -0.000517 0.027904
-0.007247 -0.012883 0.004912
-0.003560 0.010308 -0.012862
0.000706 -0.010064 0.008157
-0.016674 -0.011567 -0.013709
-0.022503 0.021011 0.012854
-0.005982 -0.010604 0.018200
-0.031224 -0.009311 -0.001358
0.000549 0.024764 -0.003821
-0.033154 0.009469 0.000726
0.008309 -0.014400 0.013983
-0.002823 -0.014208 -0.013358
0.002079 -0.002123 0.011997
-0.015333 -0.013446 -0.009569
-0.002503 0.034074 -0.007530
0.033547 -0.005863 -0.020787
0.005186 -0.012465 -0.028581
-0.016618 -0.004982 -0.110198
-0.010905 -0.005707 -0.003063
0.001263 -0.007436 -0.091766
-0.005804 -0.003661 0.001208
0.001832 -0.001576 0.006124
0.001455 -0.047301 0.002826
-0.051433 -0.020398 -0.044784
-0.004537 0.006796 0.002253
0.015238 -0.009190 -0.022410
-0.007450 -0.008832 -0.006444
-0.036117 -0.019432 -0.016665
-0.038759 -0.006552 -0.005324
-0.010941 -0.018416 0.000503
-0.018713 0.013674 0.009156
-0.024144 0.001318 -0.005687
0.009422 -0.012964 -0.004258
-0.009815 -0.019703 0.007989
-0.049707 -0.022934 -0.040385
-0.007240 -0.017740 0.005412
0.015534 0.017198 -0.008122
-0.019715 -0.016180 -0.010407
-0.024632 -0.011983 -0.014917
0.016239 0.024503 -0.005651
0.015384 0.027309 -0.055811
-0.129797 -0.005984 0.031181
-0.006142 -0.004457 -0.028498
0.097580 -0.077165 -0.018677
-0.016194 -0.016897 0.230389
-0.013643 -0.010254 -0.097735
0.051663 -0.008668 0.013289
-0.032496 -0.005082 -0.010722
0.005713 -0.030980 -0.007237
0.005816 0.002362 -0.019388
0.003582 -0.004977 0.045043
-0.017966 0.002052 0.037261
-0.003726 -0.023127 -0.024391
-0.004832 -0.006984 -0.009950
-0.020400 -0.026045 0.001567
0.010296 -0.029221 -0.019751
-0.017853 -0.027993 -0.033316
-0.010971 -0.010603 -0.057616
-0.014926 0.007715 -0.005551
-0.009936 -0.022890 -0.008524
-0.033940 -0.071855 -0.194766
-0.007007 -0.011077 -0.007200
-0.004383 -0.054518 -0.018446
0.007499 -0.010079 0.008972
-0.012538 -0.021688 0.014135
0.002349 -0.019540 0.012390
-0.017870 -0.017695 0.010624
-0.003259 -0.009428 -0.004745
-0.020004 0.006972 0.016664
-0.005253 0.000833 -0.002287
-0.003325 -0.006061 -0.000928
0.006851 0.006160 0.007096
0.003729 -0.001704 0.008948
0.017527 -0.026200 0.003182
-0.024677 0.016862 -0.023506
-0.010131 0.029055 -0.021966
-0.027689 -0.002584 -0.003561
0.012765 -0.006090 -0.007542
-0.026118 -0.059798 0.008652
-0.017205 -0.022148 0.001725
-0.054974 -0.017234 0.026680
0.018677 0.025403 -0.011926
-0.042517 0.010889 -0.003516
-0.026656 0.000393 -0.002633
0.015600 -0.108905 -0.054214
-0.002962 0.004641 0.013271
0.002587 -0.025992 -0.011454
-0.039722 0.047385 -0.011568
-0.011392 -0.008979 -0.005864
-0.010339 -0.007837 -0.012197
-0.017011 -0.038815 -0.006071
0.003244 0.002848 0.008179
0.012138 0.022939 -0.008336
-0.002039 0.009581 0.021859
-0.000157 -0.018883 0.014705
-0.010705 0.001486 -0.002428
-0.003377 -0.008444 0.005640
0.015082 0.008547 0.046034
-0.003287 0.012998 -0.009053
-0.010438 -0.011715 0.007801
0.000747 0.002423 -0.026717
-0.004175 0.032451 0.012741
-0.008053 -0.027797 -0.002713
-0.024810 -0.008044 -0.010193
-0.000602 -0.017403 0.011437
0.007986 0.028473 -0.021185
0.017453 -0.008894 -0.004874
-0.005929 0.013390 0.011120
-0.003873 -0.000490 0.006944
-0.001183 0.010185 -0.012991
-0.009836 -0.009065 -0.013763
0.001205 -0.030167 0.019926
-0.025336 -0.037787 -0.000340
0.008238 -0.011886 -0.077659
-0.021489 -0.004822 0.022591
0.011590 -0.018932 -0.113780
-0.012063 -0.015406 0.001863
-0.010483 0.013344 0.022544
-0.014526 -0.045949 -0.006045
-0.007798 -0.008754 -0.071621
-0.004808 -0.000658 -0.003836
-0.009707 -0.029258 -0.016437
-0.019129 -0.022362 -0.016817
0.013424 -0.022021 -0.050225
-0.048032 -0.007053 0.006526
0.006132 -0.036182 0.011026
-0.009762 0.022204 -0.017902
-0.015806 -0.004481 -0.032163
-0.033049 -0.040242 -0.012934
0.017855 0.001560 0.011289
-0.039239 -0.006201 -0.001940
-0.036632 0.026738 -0.002169
0.005086 0.015708 -0.002309
-0.007631 -0.029012 -0.007458
-0.025811 -0.012322 -0.002993
0.007092 0.016035 -0.015432
-0.005488 -0.009547 -0.020311
-0.092089 -0.010907 -0.020408
-0.008018 -0.039608 -0.004178
-0.009184 -0.034026 -0.009735
-0.008467 -0.011357 -0.012059
-0.013708 -0.018275 -0.032557
-0.016064 0.009982 0.002446
-0.031996 -0.006367 -0.018774
0.035170 0.018400 0.030006
-0.008461 -0.003485 -0.017293
0.017421 0.006741 -0.015812
0.018620 -0.013895 -0.003733
-0.013841 -0.008597 0.006062
-0.008748 -0.009057 -0.000840
0.007941 0.005092 -0.003417
-0.013489 0.056634 0.002165
-0.027630 -0.023547 0.011483
0.000165 -0.015037 -0.024882
-0.006837 -0.012560 0.020088
-0.022754 0.034766 -0.021738
-0.030638 -0.037642 -0.152003
-0.016040 -0.014892 -0.046429
-0.007273 -0.040886 -0.012543
-0.020422 -0.025046 -0.020006
-0.019638 -0.013855 0.012225
0.017463 -0.026586 -0.008425
-0.011230 -0.004415 0.034283
-0.013391 0.006877 0.005042
-0.046402 0.000716 0.015165
-0.010046 -0.003289 -0.012249
-0.009005 -0.010324 -0.013606
-0.006380 -0.010223 -0.004573
-0.018858 -0.006445 0.005757
-0.018418 -0.023351 -0.024236
0.008629 -0.009370 0.015199
-0.009805 0.026456 -0.029582
-0.016723 -0.025106 -0.019411
0.007937 0.003689 -0.020700
-0.022505 -0.048110 0.015012
0.005557 -0.038438 -0.027104
-0.053166 -0.006333 0.005582
-0.000656 0.009469 -0.004013
-0.028066 -0.008787 0.039815
-0.037217 -0.004705 -0.010382
-0.000247 -0.107846 -0.046775
0.010590 -0.018604 0.004824
-0.008140 -0.011308 0.003939
-0.037306 -0.004896 -0.013233
-0.022254 -0.027039 -0.002476
-0.023094 -0.011707 -0.005181
-0.018003 0.002941 -0.011573
-0.031485 -0.025013 0.012012
0.008066 0.017241 -0.013707
0.012700 -0.010014 -0.000949
-0.009335 0.011608 -0.006504
-0.007083 -0.026787 -0.018938
0.000597 0.002361 0.012130
-0.023434 -0.014691 0.009486
-0.005528 0.009922 0.019588
-0.007731 -0.010034 -0.009704
-0.008209 -0.015228 -0.023983
-0.005076 0.023147 -0.024495
-0.013174 -0.015074 0.011198
-0.040324 0.007001 -0.013038
-0.017364 -0.019108 0.009587
0.011589 0.013858 -0.012661
0.000923 0.001035 0.005101
0.003006 0.030195 -0.004682
-0.004966 -0.005023 -0.000518
0.010229 -0.031660 -0.021442
-0.006019 -0.014142 -0.024481
0.016006 -0.016673 -0.007012
-0.028399 -0.001006 -0.015569
-0.015165 -0.002277 -0.097411
-0.004455 -0.010881 -0.027921
-0.006957 -0.006733 -0.107068
0.010404 -0.018492 -0.008715
-0.022019 0.022153 -0.010075
-0.013246 -0.021253 -0.010020
-0.030158 -0.016700 -0.040423
0.005340 -0.004565 0.016881
-0.010133 -0.022155 -0.028060
-0.005060 -0.010712 0.008021
-0.014999 -0.015050 -0.034037
-0.072729 -0.008220 -0.006235
0.001973 -0.007787 -0.017469
-0.010048 0.016407 -0.017675
-0.008186 -0.001165 -0.011656
-0.049118 -0.023225 0.001133
-0.008546 -0.005735 0.000815
-0.030480 -0.010629 -0.005959
-0.056083 -0.000457 0.001701
0.032620 0.005517 -0.007180
-0.006668 0.009978 -0.001857
-0.030045 -0.005032 0.030577
0.026100 0.005883 -0.010030
-0.008174 0.001910 -0.052519
-0.098106 0.031317 -0.014704
0.011126 -0.027136 -0.006390
0.040698 -0.043667 -0.017534
-0.002745 -0.008056 0.055509
-0.002682 -0.028733 -0.086110
-0.003990 -0.004207 0.000782
-0.021579 -0.016192 -0.014201
0.007524 0.033313 -0.004282
-0.001327 -0.010564 -0.013216
-0.025255 -0.015030 -0.003288
-0.013509 0.000489 0.020701
0.002358 -0.013908 0.006400
-0.007298 -0.003573 -0.003906
-0.007359 0.003724 -0.006274
0.001769 0.017548 -0.006945
-0.029283 -0.014233 0.011275
-0.014442 -0.052063 -0.044998
0.001993 -0.015198 0.000484
-0.006082 -0.003132 -0.010536
-0.025131 -0.016506 -0.167669
0.010370 -0.039623 -0.055752
-0.019168 -0.027118 -0.004909
-0.025159 -0.043007 -0.025635
-0.017662 -0.005520 -0.012856
-0.008732 -0.011874 -0.013604
-0.015069 -0.010937 0.000552
-0.003595 0.002708 -0.012936
-0.038254 -0.018168 0.007420
-0.004696 -0.011498 -0.002987
-0.004884 -0.015124 0.002012
-0.026344 -0.027051 -0.003689
-0.019671 -0.015888 -0.000050
-0.019450 -0.018108 -0.030983
-0.025008 -0.006895 0.025304
-0.015228 -0.006407 -0.008826
-0.032175 0.001575 0.004196
-0.016653 0.017734 -0.033913
-0.011536 -0.053615 -0.010616
0.019758 -0.029222 0.011486
-0.077622 -0.006470 -0.015219
-0.004973 0.000717 -0.021482
-0.025421 -0.000514 0.060919
-0.066473 -0.005671 -0.002303
-0.025756 -0.110244 -0.038461
-0.010428 0.001002 -0.016161
-0.019265 -0.014787 -0.018252
-0.052829 0.010822 -0.009729
-0.004072 -0.004264 -0.000430
-0.014091 0.001435 -0.005888
0.004481 0.006692 0.007737
-0.027102 0.015989 0.007684
-0.004426 -0.000457 -0.004156
0.009914 -0.002151 0.005436
-0.008823 -0.024445 -0.001136
0.009743 -0.005162 0.017441
-0.016893 0.000546 -0.001092
0.005957 0.000679 -0.005592
-0.010957 0.010046 -0.013435
-0.026356 0.002733 0.010868
-0.007439 -0.034678 -0.028249
-0.001712 0.024417 -0.004734
-0.020075 -0.006488 -0.009823
-0.031661 0.002075 0.009666
0.003408 -0.007904 0.020102
-0.009553 0.005015 -0.023430
-0.001910 0.005150 0.012234
-0.023660 0.011439 -0.006484
0.000811 0.003826 -0.010874
0.017070 -0.012016 -0.029436
0.020955 0.011031 -0.011267
0.008573 -0.002529 -0.013015
0.000097 -0.021244 0.015838
-0.015506 -0.017586 -0.123980
-0.008702 -0.030918 -0.002642
-0.002482 -0.017189 -0.109358
-0.009068 -0.034129 -0.003881
0.002339 0.007248 0.003628
-0.008374 -0.024817 -0.011496
-0.069558 -0.017323 -0.044969
-0.007859 -0.015056 -0.004210
0.000055 0.015451 -0.026531
-0.037268 -0.016495 0.025724
-0.001252 0.009012 0.001725
-0.053563 0.021510 0.001237
-0.022976 -0.010110 0.002352
0.004739 0.041403 -0.007562
-0.022642 -0.029020 -0.013660
0.000436 -0.000455 0.007155
-0.002209 -0.012417 -0.006173
-0.035414 -0.009065 0.009425
-0.010229 -0.016705 -0.006659
0.002832 0.020023 -0.002027
0.001769 -0.009256 0.008810
-0.023089 -0.012199 -0.006503
0.025947 -0.011128 -0.001733
-0.021809 -0.010737 -0.070768
-0.149262 0.001835 0.026370
0.004865 -0.020325 -0.013224
0.059147 -0.092162 -0.008363
0.000526 -0.021309 0.168310
-0.019475 -0.012474 -0.081925
-0.003480 -0.005826 -0.012152
0.005555 -0.002718 -0.023628
0.001739 -0.012178 -0.000330
-0.010762 -0.008978 0.016475
-0.007028 -0.004303 0.011194
-0.018178 0.008296 0.026512
-0.013516 -0.024535 -0.021097
0.003780 0.025462 -0.000227
0.009047 0.009132 0.001658
0.019093 0.018983 -0.002112
-0.017391 -0.023596 -0.000032
-0.013838 -0.024109 -0.041973
-0.031377 0.006500 -0.008816
-0.030683 -0.001258 -0.032222
-0.058010 -0.035068 -0.190953
-0.007170 -0.002454 -0.049029
-0.013477 -0.049399 -0.030648
-0.012202 -0.038961 -0.020128
