-0.028517 -0.031631 0.054640
-0.000224 -0.014357 -0.030349
0.010510 -0.018788 -0.037276
-0.030069 -0.019728 -0.007891
0.003237 0.031330 -0.002626
-0.036954 -0.050969 -0.019576
-0.024038 0.008059 0.103296
0.006894 -0.023072 0.036392
0.002186 0.000828 -0.021285
0.010814 -0.006773 -0.014782
0.012078 0.004113 -0.000592
-0.009347 0.000226 0.006070
0.041082 -0.015567 -0.009311
0.013654 0.061221 -0.001538
0.006107 0.025225 0.010049
-0.007592 -0.014801 -0.006585
-0.042937 -0.020193 -0.016732
-0.012085 -0.011400 0.004081
-0.025891 -0.019332 -0.010782
-0.000942 -0.010128 -0.039882
-0.001430 -0.004927 -0.003543
-0.009740 -0.055536 -0.010291
0.007652 -0.012401 -0.017409
-0.007027 -0.184848 -0.012777
0.025382 0.023650 -0.006127
0.007393 0.020378 0.010784
0.007435 -0.020812 -0.009269
-0.017482 0.001300 -0.002392
-0.015134 0.022002 -0.007084
0.017980 -0.009165 0.024501
-0.000069 -0.019315 0.009024
-0.002930 -0.010663 0.001059
-0.019230 -0.016999 0.017144
-0.028785 0.023707 -0.002425
-0.016096 0.005814 -0.017078
-0.029508 -0.014896 0.005423
-0.071410 0.004332 -0.053047
-0.026106 0.025669 0.001008
-0.025903 -0.002123 0.022332
-0.022796 -0.028974 0.013873
0.002973 -0.012057 0.007265
0.001650 -0.009797 -0.008626
-0.010747 0.013617 -0.011476
0.013283 -0.015950 -0.005304
-0.002532 -0.020533 -0.009937
-0.002099 -0.017032 0.005324
-0.002259 0.016589 0.000967
0.008848 0.024941 0.004532
-0.001071 -0.023607 0.020737
-0.017429 0.017189 -0.014797
0.004241 -0.004889 0.012306
-0.006225 -0.007237 0.002738
0.007764 -0.004999 -0.019251
-0.010786 0.014370 -0.005956
-0.011904 -0.014704 0.043310
-0.015904 -0.015441 0.006163
0.027809 -0.018150 0.032036
-0.006545 -0.040625 -0.019420
0.009489 0.000302 0.019794
0.041262 0.003350 0.004009
0.030578 0.022108 0.012569
0.020356 -0.012184 0.016143
-0.019368 -0.027132 -0.006207
0.018500 -0.004438 -0.020867
-0.027010 -0.010299 -0.022786
0.005756 0.004911 -0.000525
0.018132 -0.014384 -0.014603
0.017949 0.017333 -0.004016
0.011141 0.007595 0.000347
0.002378 -0.020268 -0.011303
-0.013889 -0.011745 -0.006831
0.021206 -0.011033 -0.002544
-0.005441 -0.011444 0.024745
-0.025860 -0.004339 -0.005495
0.003985 -0.000520 -0.007411
-0.002472 -0.001028 -0.036951
0.019734 -0.005721 -0.010817
-0.005537 0.016708 -0.013894
0.014620 0.018663 -0.044075
0.032700 0.020732 -0.019646
0.021042 -0.029794 0.054975
-0.039970 -0.007205 -0.052445
0.003965 -0.014927 -0.000481
0.018592 -0.021688 -0.015415
0.029689 -0.019143 0.006648
0.001911 0.009452 -0.037519
-0.024989 -0.022148 -0.045295
0.033622 -0.020071 -0.057446
0.006381 -0.018257 0.018637
0.009373 0.014376 0.000051
-0.003093 -0.003091 -0.014268
0.007394 -0.013162 -0.018225
0.004993 -0.026982 0.009075
-0.002459 0.001352 -0.008347
-0.002352 -0.004471 0.004445
-0.031394 -0.019271 0.001121
-0.018147 0.005516 0.024213
0.017226 -0.005080 -0.003049
-0.001365 0.008925 -0.022865
-0.016983 -0.002782 -0.001165
-0.013072 -0.006669 0.021658
-0.023493 -0.030883 0.000151
-0.009057 -0.026527 0.037289
-0.028580 -0.017647 0.013186
-0.005409 -0.019857 0.002178
0.006498 0.001224 0.008708
-0.003372 0.072533 0.025951
0.006112 0.000779 -0.005936
0.008778 -0.017319 0.008338
-0.000942 0.034563 0.024892
0.006332 0.000571 -0.029750
-0.015348 -0.015134 -0.014111
-0.011607 -0.031651 -0.028628
-0.017438 0.002407 -0.028992
-0.009139 -0.010575 0.003024
-0.011889 -0.011729 -0.045554
-0.025907 -0.021146 -0.014824
-0.059282 -0.028473 -0.007630
-0.014848 0.013582 0.015605
-0.022120 -0.149030 -0.004617
0.004189 -0.001528 0.013542
0.005713 0.000817 0.012405
0.001760 -0.005000 -0.004191
-0.039183 -0.013800 -0.004111
-0.009243 -0.013326 0.012327
0.005548 -0.001415 0.001489
-0.014546 0.009813 0.014022
0.008665 0.002937 -0.013299
0.010637 -0.003235 -0.027125
-0.033667 -0.014223 -0.038209
-0.029301 0.004048 0.001523
-0.036161 -0.023960 -0.005755
-0.042684 0.005513 -0.029520
-0.036570 0.018065 -0.009283
-0.018438 0.044110 -0.066968
-0.038301 -0.048022 -0.024495
-0.013677 0.003297 -0.025935
-0.005015 0.015477 0.009269
-0.015308 0.011605 -0.007982
0.019417 -0.011901 -0.022080
0.010442 -0.007252 -0.003085
0.028077 -0.001043 0.011982
-0.001237 0.021264 -0.020079
-0.023372 -0.002664 -0.013882
-0.007106 -0.010426 0.008879
-0.030393 -0.013988 -0.039337
0.009927 -0.012792 -0.004676
0.000612 -0.002636 0.030924
-0.000809 -0.004950 0.012197
-0.016712 0.001948 -0.002276
0.007156 -0.015933 0.012789
0.018868 -0.009086 0.002946
-0.020080 0.003708 0.007218
0.022291 -0.001957 -0.005607
0.008447 0.010035 0.043336
0.014676 -0.008853 -0.002922
0.017705 -0.001980 0.003523
0.012704 0.026385 0.007628
0.008724 -0.029717 -0.023787
0.021213 0.010024 0.005217
-0.002720 0.015658 -0.005809
-0.005106 0.003435 -0.014955
-0.001302 0.007186 0.001025
0.021906 -0.008227 -0.022878
0.013028 0.001359 -0.016210
-0.002744 0.016940 0.021885
-0.009613 -0.004358 0.009951
0.002091 0.006397 -0.013192
-0.011493 0.009604 0.026119
-0.021233 -0.015645 0.013411
-0.038101 -0.028389 0.020985
0.006234 -0.009332 -0.008840
0.000325 -0.023537 0.004290
-0.015901 -0.010349 -0.003098
-0.000165 -0.003124 -0.019872
0.000768 -0.001800 -0.003229
-0.012389 -0.007414 0.042376
-0.015230 -0.012673 -0.005613
0.003864 -0.023824 0.011711
0.004539 -0.018079 -0.003798
-0.027727 -0.000234 -0.004414
0.027711 -0.017141 -0.015535
0.001031 -0.038990 -0.043699
0.001954 -0.009089 -0.024951
-0.009685 0.012802 -0.018816
0.010426 -0.011438 0.001275
-0.009194 -0.024620 -0.006007
-0.000284 -0.008986 0.005111
-0.001447 -0.004150 0.000568
0.003502 0.014099 -0.007218
0.010349 0.017938 -0.004870
0.000894 0.008762 -0.004840
-0.020370 -0.012168 -0.020760
0.008575 0.038027 0.077524
0.000116 0.040318 -0.009653
-0.005332 -0.013714 -0.005155
-0.011811 -0.008821 -0.014206
0.051074 0.003194 -0.006801
0.020245 -0.043248 -0.008645
-0.015326 -0.037775 -0.040617
-0.019006 0.004960 -0.003212
-0.021091 0.035992 -0.015150
0.015822 0.003062 0.017041
0.013360 0.011497 -0.014597
-0.003556 0.016951 0.018694
-0.035406 -0.029124 0.017915
-0.016415 -0.050376 -0.004115
0.001857 0.029540 -0.012873
-0.029589 -0.039515 -0.026764
0.019175 -0.005164 -0.017718
-0.027615 -0.011054 -0.008966
-0.003204 -0.033674 -0.021042
-0.037632 -0.005033 0.001015
-0.050890 -0.013017 0.012990
0.007376 0.050970 0.007005
-0.020352 -0.108683 0.012869
0.010488 -0.012051 -0.007453
-0.007315 -0.013647 0.012891
0.011198 -0.005133 0.018125
0.013689 0.010197 0.005804
-0.018069 0.016677 0.011133
0.013126 0.026015 0.012764
-0.015177 0.004111 -0.018233
-0.007377 0.001710 0.000751
-0.009285 -0.024822 -0.058619
0.012113 -0.019175 -0.052120
-0.040192 -0.006291 -0.013612
-0.025761 0.002597 0.008613
-0.043225 0.011189 -0.004479
-0.038161 -0.043436 -0.008935
-0.024559 0.097797 -0.084169
-0.047101 -0.048935 -0.054329
-0.035375 -0.007888 -0.024141
-0.017741 0.009085 0.023158
-0.030543 -0.018364 0.008164
0.045253 0.003106 -0.011717
0.012568 -0.039039 -0.000741
0.044533 0.024638 -0.019228
0.010977 -0.007450 0.004452
-0.007626 -0.015704 0.000032
-0.005151 -0.022403 0.012370
0.008558 -0.001229 -0.025712
-0.014421 0.006284 -0.018090
-0.006824 0.008095 0.014005
-0.014128 -0.010639 -0.002347
-0.006830 0.028911 -0.018864
-0.004289 0.003672 -0.004890
-0.034773 -0.001015 0.001139
-0.001789 0.014269 0.045586
0.021782 0.023521 -0.035580
-0.002681 -0.008305 0.005773
0.003651 -0.019038 -0.012227
0.004140 0.007272 0.034212
0.032391 0.004413 -0.000575
-0.015168 -0.017462 0.007236
0.030102 0.020023 0.013863
-0.008131 0.013252 -0.014625
0.012565 0.007846 0.015159
0.014060 0.010728 0.000113
0.030185 0.011050 0.003495
0.012859 -0.008765 0.035428
0.010579 -0.000360 -0.024949
0.008986 0.001937 -0.002808
-0.021001 -0.000719 0.003381
0.035111 -0.010702 -0.020478
-0.032091 -0.000838 0.047937
0.010750 -0.009990 -0.005451
-0.003667 -0.013573 -0.028395
-0.014795 -0.005055 0.003970
0.027348 -0.000457 -0.006196
0.000615 -0.051547 0.010008
-0.001572 -0.018705 0.028394
-0.019241 -0.011505 -0.005964
-0.027820 0.014406 -0.002446
-0.016707 -0.015391 0.026524
-0.012724 -0.000162 -0.005944
0.014352 0.004978 -0.023731
0.002199 -0.053460 0.009016
-0.008164 -0.050255 0.046464
-0.020700 0.000862 -0.026281
-0.006472 0.001674 0.010993
0.005405 -0.009127 0.003203
-0.016164 -0.025304 -0.013550
-0.024788 -0.024097 0.016134
0.003142 0.003083 0.005832
0.009350 0.008115 0.005611
0.012619 0.013591 -0.013898
-0.003525 0.009371 0.002846
-0.020640 -0.020867 -0.017056
-0.031374 -0.016826 -0.024483
-0.009141 -0.015668 -0.019038
-0.014457 -0.008825 0.013680
-0.033623 -0.011534 0.004899
-0.030564 -0.032341 0.002599
-0.019318 -0.061257 0.071190
-0.002321 -0.009612 -0.014429
-0.015646 -0.025356 -0.011527
-0.009712 0.019532 0.005347
-0.014714 0.007277 0.023034
0.002442 -0.004598 -0.002941
0.003031 -0.008098 -0.003586
-0.003185 0.034976 -0.020104
-0.000193 -0.005373 -0.007857
-0.005864 -0.017549 -0.003541
-0.005795 -0.044407 0.000285
-0.016376 0.003281 -0.006015
-0.005074 -0.033840 -0.013857
-0.009546 0.005819 -0.005062
-0.014931 -0.014902 -0.021253
-0.033445 -0.038646 -0.026201
-0.017012 -0.031923 -0.012175
-0.008091 -0.138891 -0.007848
-0.012975 -0.023969 -0.000888
-0.015574 -0.009101 -0.010415
-0.022965 -0.005744 0.007397
0.001338 0.004557 -0.019004
0.005034 -0.016859 -0.015653
-0.006449 -0.003983 -0.016948
0.000884 0.005822 -0.010407
0.011718 0.012102 0.015078
0.001703 -0.002148 0.005634
-0.031424 0.004163 0.023823
-0.042474 -0.050678 -0.029674
-0.012080 -0.014139 -0.012869
-0.083059 -0.026923 -0.033039
-0.010899 -0.015650 -0.020217
-0.017876 -0.071745 -0.021126
-0.000876 -0.033889 -0.009985
-0.010126 -0.009629 0.010859
0.008987 -0.006037 -0.013799
-0.019117 -0.004326 -0.015578
-0.002273 -0.009165 -0.007487
-0.003516 0.005657 -0.007863
-0.031852 -0.015296 -0.020278
-0.015349 0.020752 0.030954
-0.016269 0.017428 0.014600
0.004653 0.000302 -0.028284
-0.017713 -0.006937 -0.003940
-0.002411 -0.012436 0.008288
0.001065 -0.014234 -0.007046
-0.019398 0.001460 -0.008579
-0.004744 0.001190 0.018176
0.007327 -0.014465 0.030531
0.003945 -0.024548 0.012103
-0.021172 0.008233 -0.006958
-0.017866 -0.010257 0.004911
0.018492 0.028456 0.063915
-0.015697 -0.022196 -0.021883
-0.001343 -0.030839 -0.016116
-0.008897 0.019494 -0.006854
-0.009071 -0.012740 -0.014231
0.039511 0.008376 -0.002071
-0.011064 -0.001773 -0.011547
-0.015300 0.007334 0.017562
0.008464 -0.014460 0.015349
0.000788 0.006977 -0.026471
-0.002338 -0.025518 -0.010942
0.008610 -0.015609 -0.017442
-0.025844 -0.010071 0.005455
-0.015592 -0.006295 0.019087
0.030662 -0.003915 0.048989
0.037743 -0.002416 -0.017269
0.021520 0.024080 -0.005855
-0.009586 0.005579 0.001777
-0.007304 -0.004062 0.020998
-0.026772 -0.014712 0.001503
0.001361 0.033070 -0.019803
0.010207 0.006770 0.013427
-0.007873 0.002128 0.054209
0.021205 -0.006121 -0.026154
0.029558 0.008954 0.056260
-0.028922 -0.007839 -0.010716
0.009264 -0.000542 -0.008241
-0.048490 -0.000425 -0.006211
-0.011758 0.026826 -0.044512
0.012226 0.011380 0.062251
-0.006325 -0.015306 -0.018464
-0.006585 0.003248 -0.005556
-0.001106 0.004575 -0.002093
-0.014081 -0.017230 0.009243
0.007021 -0.019517 0.008000
-0.008556 -0.030608 -0.009356
-0.019843 -0.004125 0.008563
0.014841 -0.003549 0.018762
-0.013626 -0.026914 -0.042911
0.022830 -0.003938 -0.028207
-0.009294 -0.026029 -0.025377
-0.012115 -0.024325 -0.013221
-0.060033 0.005627 0.002727
-0.034068 0.012471 -0.005414
-0.032928 -0.035773 0.007575
0.010138 -0.014782 -0.024582
-0.005297 -0.016907 -0.027908
-0.014219 -0.007037 0.023303
-0.012988 0.054516 0.028813
-0.004869 -0.006604 0.007217
-0.019274 0.021052 -0.016784
0.025024 0.051261 -0.027628
0.015935 0.002183 -0.009755
-0.029641 0.004111 -0.026548
-0.005707 -0.054807 -0.028850
-0.003804 0.004397 -0.000989
-0.012155 -0.005838 0.013162
-0.014845 -0.022151 -0.017257
-0.023834 0.026565 -0.022014
-0.042567 -0.028522 -0.026459
-0.013294 -0.041869 0.008353
0.013181 -0.164550 -0.004792
0.015926 -0.004305 -0.000551
-0.004865 -0.019283 0.004718
-0.004417 0.024883 0.000768
0.006883 0.002945 0.000506
0.017848 0.001795 0.004336
0.013258 -0.009131 -0.013642
0.017543 -0.030078 -0.005161
0.004265 0.010788 0.009464
-0.014707 -0.016138 -0.015140
-0.029315 -0.021051 -0.021490
-0.006795 -0.004864 -0.032623
-0.022261 -0.012337 0.015438
-0.065375 -0.011201 -0.013158
-0.038036 -0.006902 0.006218
-0.007212 -0.031150 -0.048567
-0.003223 -0.020197 -0.022110
-0.010045 -0.001780 -0.014255
0.005523 -0.007198 0.001325
-0.017857 -0.014665 0.005410
-0.008145 -0.020281 -0.011154
-0.010274 0.008032 -0.008058
-0.018058 0.000068 0.006292
-0.003115 0.016112 -0.023233
-0.006326 -0.011823 0.002889
-0.012064 -0.020995 -0.000846
0.008791 -0.006933 -0.019384
-0.001170 -0.014032 -0.017979
-0.005924 -0.007348 -0.008207
-0.020436 -0.007380 -0.023124
-0.037394 -0.010487 -0.016292
-0.009849 -0.028308 -0.007801
0.002389 -0.007697 0.002910
-0.022956 -0.000265 0.013767
0.005405 -0.003348 0.023343
0.004024 0.016125 0.034738
-0.004925 -0.003880 -0.012634
0.003054 0.007372 0.003187
-0.003783 0.029889 -0.002244
-0.003271 0.015456 -0.001136
0.015326 -0.009743 0.015713
-0.000147 0.000630 0.000942
0.011579 0.007033 -0.029195
-0.015498 0.006404 0.003228
-0.002384 -0.005502 -0.004623
0.007091 0.008036 -0.005930
-0.007061 -0.016114 0.018848
-0.024032 -0.002691 0.005167
-0.009125 -0.016542 -0.015530
0.005439 -0.014101 0.006117
0.011556 0.003939 0.007477
-0.000393 -0.023047 -0.007052
-0.004930 0.010946 0.000788
-0.021604 -0.007322 0.002085
-0.009174 -0.025408 -0.018085
0.007888 0.046627 -0.011835
-0.032570 0.020774 0.012788
0.022389 0.005283 0.032270
-0.010970 0.001425 -0.007227
0.017762 -0.012090 0.027946
-0.011001 -0.018240 -0.016197
0.014072 -0.019328 -0.027340
-0.009121 -0.046343 -0.010702
-0.005327 0.060331 -0.043634
-0.024130 0.014749 0.018780
-0.021759 -0.001010 0.001660
-0.013988 -0.001313 -0.001582
0.006850 -0.008944 -0.016914
-0.021706 -0.033019 -0.003390
0.006336 -0.016341 0.003170
-0.014547 -0.019946 0.008797
-0.002507 -0.022742 -0.019903
0.000274 0.002815 -0.003175
0.007013 -0.016669 -0.012444
0.017062 0.013002 0.045846
-0.039786 0.006300 -0.032171
0.035940 -0.004027 -0.024850
-0.036050 -0.018970 0.011647
0.038279 0.121144 -0.023664
-0.025210 -0.030586 -0.059386
0.009196 -0.003948 0.001652
-0.002811 0.010418 -0.020624
-0.002821 0.009956 0.007030
0.012091 0.008512 -0.012418
-0.001738 -0.020572 -0.007995
-0.016456 0.008201 -0.020706
0.027120 -0.021743 0.003588
-0.007764 -0.031174 0.030874
0.001271 0.002407 0.006295
-0.010506 -0.042951 0.017839
-0.017490 -0.003582 -0.012256
0.030428 -0.013344 -0.002363
-0.030298 -0.006527 -0.036407
-0.036764 -0.018967 0.003079
-0.048069 -0.006202 -0.008833
0.001293 -0.019716 -0.016918
0.004103 -0.137468 -0.023426
-0.003622 0.031708 0.024504
0.006072 0.000879 -0.002324
0.000022 -0.009558 -0.021367
0.012555 -0.023772 -0.026718
-0.014305 -0.010515 0.006466
-0.005724 -0.000340 -0.001501
0.006571 -0.031298 0.002748
-0.008856 0.009755 -0.001742
-0.017145 -0.005368 -0.023130
-0.002831 -0.003450 -0.054398
-0.029059 -0.017692 -0.042996
-0.014842 -0.018855 -0.021009
-0.045140 -0.013718 0.006604
-0.060721 -0.080848 -0.009972
-0.021820 0.003749 -0.050461
-0.018326 -0.010938 -0.023555
-0.014379 -0.025839 0.013465
0.003583 -0.014649 0.037154
-0.000369 -0.010929 -0.005323
0.025678 0.011421 0.001455
-0.010223 -0.028976 -0.000307
0.012299 -0.024193 0.002793
0.003704 0.031646 -0.003307
0.003346 0.007714 -0.011877
0.005687 -0.012857 -0.007273
-0.006522 -0.014158 -0.050086
0.018547 0.002886 -0.031040
-0.019999 -0.010810 -0.009038
-0.026483 0.015273 -0.011172
-0.008256 -0.015333 -0.004577
0.007935 -0.030946 -0.039508
0.023515 0.006811 -0.003502
0.008449 -0.021444 0.029780
-0.006468 0.008416 -0.020953
-0.012070 -0.002513 0.008589
-0.003974 -0.008175 0.003157
0.005891 -0.006162 -0.034162
-0.006712 -0.005545 0.002564
-0.017371 -0.003649 0.012603
0.006163 -0.001109 0.027063
0.001543 0.007074 -0.004949
-0.018826 0.001492 0.002922
0.014739 0.006168 -0.026834
0.026872 0.012086 -0.002765
0.017569 0.011169 -0.001553
0.009738 0.012606 -0.006783
-0.030414 0.012416 0.010736
-0.012301 -0.007172 0.025017
0.014784 -0.008453 -0.037786
-0.002268 -0.021827 0.047389
-0.000767 0.003036 0.012216
0.003042 -0.010159 -0.007299
-0.005472 -0.001089 -0.002119
0.038215 -0.012086 0.001653
0.012184 -0.010462 0.003439
-0.000571 -0.023981 0.018882
0.014714 -0.016001 -0.048868
-0.008139 0.001113 0.010006
0.008693 -0.018509 0.019790
0.019497 -0.007499 -0.005957
-0.031444 -0.005583 -0.027739
0.022651 -0.068904 0.002830
-0.012648 0.003082 0.043101
-0.041727 -0.014460 0.004529
-0.015285 -0.007808 -0.010750
0.006086 -0.007996 -0.016692
0.019806 -0.006873 0.000878
0.006250 -0.025450 0.000750
-0.017301 -0.004267 0.002833
0.019653 -0.002081 -0.004773
-0.000957 0.000541 0.010412
-0.005706 0.003348 -0.005319
-0.017169 -0.041439 -0.002809
-0.016420 -0.005795 -0.002526
-0.016554 -0.008391 -0.051468
-0.006949 0.019362 -0.010315
0.021442 -0.018164 -0.038531
-0.001487 0.004392 -0.000732
-0.023329 -0.030816 0.016665
0.071547 -0.013504 -0.034629
0.021317 0.018652 -0.009306
-0.005790 0.021918 -0.000794
0.002707 0.000053 0.000689
0.030023 -0.019896 0.015306
-0.022302 0.027703 -0.009407
-0.005981 0.031008 -0.006386
-0.018391 0.003598 -0.008013
-0.028754 -0.018411 0.001665
0.027535 -0.031260 -0.001867
0.013224 -0.024209 0.005510
0.011427 -0.016856 -0.007372
-0.004615 -0.020255 -0.021114
0.004601 -0.014087 -0.017861
-0.020516 -0.015240 -0.000933
-0.004822 -0.044623 0.002446
-0.003346 -0.138423 -0.023016
-0.011208 0.006888 -0.013141
0.002978 0.007651 0.007360
0.011274 0.013488 -0.006693
-0.011026 -0.008282 -0.001587
-0.018177 -0.001714 0.003516
-0.014338 0.017446 0.011651
-0.001873 -0.004794 -0.006745
-0.002159 0.018823 -0.035915
0.049490 0.043499 0.021299
0.018971 0.002787 0.028899
0.031277 -0.050691 -0.002168
-0.016900 0.007001 0.028279
0.064698 -0.036392 -0.003931
0.021279 -0.009072 -0.013948
-0.010002 0.029130 0.000489
-0.004799 -0.002857 -0.013672
-0.017388 -0.033847 0.002986
-0.011874 -0.002746 -0.011840
-0.006003 0.002777 -0.022129
-0.026144 -0.012229 -0.013193
0.002983 0.016781 0.035212
-0.004866 -0.012456 -0.002784
-0.004844 0.001024 0.008235
-0.022348 0.009040 0.006850
0.019067 -0.006210 0.010895
-0.009718 -0.012210 0.014405
0.012702 -0.007173 -0.026860
-0.002529 -0.009938 -0.013138
0.029071 -0.015878 -0.008634
0.010660 0.002336 -0.003779
-0.008325 0.012758 -0.020351
0.015296 -0.000436 -0.017671
-0.019373 0.002243 -0.016635
0.001780 -0.002955 0.008994
-0.035615 0.032918 0.011586
-0.001112 0.012617 0.022270
0.002760 -0.030610 -0.006334
0.032138 0.056849 0.005342
-0.015222 0.006414 -0.001901
0.010386 -0.035933 0.020623
-0.004240 -0.013536 0.004165
-0.005269 -0.014204 -0.007649
-0.008647 -0.015835 -0.001640
0.002718 0.007151 0.012537
-0.004438 0.009344 -0.000906
0.012988 -0.013246 -0.016833
0.012681 -0.004565 -0.005843
0.003793 0.008817 0.019235
-0.005855 -0.016036 -0.008573
-0.005736 0.014951 0.010526
0.013240 0.008022 -0.006738
-0.003094 -0.011708 -0.007506
-0.008225 -0.035005 0.025714
-0.008635 -0.051858 -0.008341
0.000970 -0.025983 -0.006665
-0.025852 0.010697 0.021420
-0.026156 -0.013328 0.019522
0.038906 -0.026285 -0.023198
-0.000154 0.001074 -0.006217
-0.012900 -0.012297 0.000105
-0.014272 -0.006882 0.031650
-0.011984 -0.034421 -0.027109
-0.023230 0.003033 -0.030380
-0.005508 0.002829 0.030041
-0.014236 0.000893 -0.006742
0.005391 -0.020801 -0.009924
0.012808 -0.003323 -0.041728
-0.026174 -0.030003 0.006026
0.020263 0.005731 -0.000310
-0.001894 -0.009006 0.008251
0.009495 -0.023707 -0.006331
0.019573 0.002927 0.007786
-0.002140 0.016101 0.028591
-0.058313 -0.015024 -0.045634
-0.014512 -0.024186 -0.033888
-0.040095 0.002665 -0.017121
0.034407 -0.014272 -0.048260
-0.036551 0.066754 -0.001037
0.000334 0.007650 -0.021828
0.030020 -0.014187 0.034870
-0.007229 -0.010372 0.012180
-0.010488 0.028252 -0.012526
-0.004950 0.011756 -0.027034
0.022207 0.002397 -0.006229
-0.006118 0.007806 -0.015184
0.036500 0.037974 -0.029679
-0.004699 -0.031548 0.024178
-0.010054 -0.002007 -0.007617
0.001338 -0.010392 -0.010934
0.002075 -0.015613 -0.009225
0.018946 -0.013309 -0.009165
0.002460 -0.025681 -0.006567
0.006501 -0.013389 -0.015904
-0.015155 -0.009402 -0.025256
-0.014073 -0.063997 -0.008111
-0.032361 -0.148142 -0.023144
0.009303 -0.003443 -0.004335
-0.020707 -0.005009 -0.012891
0.008701 -0.003296 -0.009661
-0.007057 0.022611 0.003251
0.002836 -0.000549 0.014247
-0.004416 -0.000628 0.029145
0.009026 -0.018109 -0.004658
0.000139 0.007189 -0.023299
0.014472 -0.020506 -0.023084
0.018607 -0.022822 0.046077
0.038598 -0.022006 -0.007505
-0.013823 -0.004299 -0.010277
0.079965 0.001103 -0.010693
0.009619 0.001774 0.001374
0.003708 0.003996 0.014022
-0.023280 -0.015956 -0.026160
-0.022673 -0.001093 0.000125
-0.004542 -0.016358 -0.006252
0.012299 -0.007782 -0.013567
-0.010047 0.008064 -0.017059
-0.009496 0.019273 0.030823
0.009079 -0.011166 0.004634
0.001111 0.001031 -0.013231
-0.022525 -0.010827 0.010708
0.001813 -0.002606 -0.013433
0.024085 0.002873 0.027150
0.005689 -0.014973 -0.014725
-0.041599 0.012569 -0.018701
0.081513 -0.023292 0.000380
-0.008587 0.003418 -0.019273
0.000314 0.025142 -0.026218
0.022452 -0.004152 -0.033036
-0.003732 -0.019531 0.010441
-0.006468 0.005027 0.009780
-0.017624 0.011953 0.001785
0.000674 0.015948 -0.004016
-0.006601 -0.010040 -0.005188
-0.003878 0.035202 -0.003524
-0.022513 0.016604 -0.015893
0.015687 -0.003569 0.009316
-0.007881 0.035267 -0.002091
-0.002636 -0.018756 0.006958
-0.006177 0.027859 -0.007212
-0.003390 0.019179 0.006308
0.016774 0.000814 -0.000053
-0.001848 -0.005345 0.007195
-0.033326 -0.005232 -0.025442
-0.001555 0.012558 -0.000720
-0.010468 0.012414 -0.036820
0.016595 -0.027854 -0.000609
-0.029922 -0.035703 -0.011100
-0.011469 -0.009034 -0.032824
-0.029638 0.000872 0.020316
-0.000559 -0.043136 -0.017408
0.006957 -0.004579 -0.019762
-0.027599 -0.002349 -0.009545
-0.004634 -0.000737 -0.051113
0.014370 -0.003997 -0.026868
-0.024298 -0.020233 -0.024315
-0.003065 0.013804 0.018731
-0.001443 -0.007269 0.035401
-0.004663 -0.067800 -0.010659
-0.041784 -0.023727 -0.011577
-0.018989 0.016334 -0.040143
0.009577 0.001346 -0.004018
-0.000386 -0.021488 0.013083
-0.010738 -0.010912 -0.010110
-0.027271 -0.019754 -0.012947
0.017570 -0.006548 0.002549
-0.015437 -0.003622 -0.029102
0.002066 -0.027836 -0.016523
-0.018214 0.001327 -0.000215
-0.020686 -0.015165 0.039596
-0.036579 0.004867 0.017246
-0.010551 0.002437 -0.067053
0.001015 0.002351 0.009536
0.032552 -0.005104 -0.030493
-0.048200 0.076175 -0.012672
0.010042 0.006541 -0.036231
0.040037 -0.025351 0.024652
-0.026437 -0.016146 -0.021043
-0.026791 -0.017483 0.013581
-0.020168 0.015142 -0.014096
-0.017071 0.003662 -0.009697
-0.008540 -0.013356 -0.009152
0.013204 -0.021673 0.016365
0.002332 -0.033388 0.054615
-0.008066 -0.010091 -0.012423
0.003623 0.018998 0.001508
-0.016061 0.003751 -0.012420
0.031859 -0.005545 -0.019428
-0.026984 -0.007909 -0.017760
0.014378 0.002567 -0.016830
-0.070168 0.023859 -0.008517
-0.007373 -0.049547 -0.018962
0.017387 -0.133733 -0.005075
-0.013245 0.021659 -0.001499
-0.005686 0.006775 0.010300
-0.004807 0.017526 -0.012421
0.013802 0.004673 -0.006554
-0.015756 -0.011892 0.008594
0.022552 -0.013121 -0.012826
0.001999 -0.001736 0.030552
0.000244 0.002483 -0.018422
-0.008141 -0.019051 -0.035309
0.014818 -0.017010 -0.025471
0.012086 -0.016873 -0.026981
-0.036184 -0.003009 0.008434
0.073239 -0.002077 0.009408
-0.006972 -0.070026 -0.038347
-0.005277 -0.046678 0.019670
-0.030903 -0.013090 -0.015566
-0.020500 0.000429 -0.009274
0.014817 -0.010252 0.019029
-0.011746 -0.000076 -0.018028
0.052813 0.002834 -0.010515
-0.007110 -0.011665 0.002433
0.019829 0.001725 -0.009867
-0.010260 0.031005 -0.016463
0.013425 0.001738 0.000671
0.003716 0.000652 -0.001339
0.029562 0.007009 0.004940
0.022693 -0.010777 -0.017644
-0.006146 -0.013374 0.015945
0.038514 0.013657 0.007037
-0.022633 -0.031125 0.016367
-0.015858 0.008312 -0.020350
0.014766 -0.011695 -0.011093
0.006204 0.019397 0.005186
0.000331 0.034457 -0.016002
0.003316 0.001998 -0.007987
0.037094 0.013519 0.003975
-0.005991 0.007222 -0.028578
-0.025988 0.010796 0.012807
0.003731 -0.001249 0.014863
0.025212 -0.003707 -0.025472
-0.017862 -0.007199 0.014878
-0.005423 0.019932 0.028382
0.008104 0.015973 -0.003838
-0.026496 -0.004830 -0.006647
-0.019137 -0.003407 -0.005306
0.008430 0.003908 0.014934
-0.013611 0.000359 -0.022549
-0.007055 0.026213 -0.009097
-0.010757 -0.009663 -0.054596
0.027215 -0.014034 0.007633
-0.006718 -0.005017 0.004014
0.029948 -0.005081 -0.002131
-0.022759 -0.010227 0.056787
0.025296 -0.036727 -0.006641
-0.005237 -0.008482 -0.001643
-0.016575 -0.007174 -0.032383
-0.020270 0.000795 -0.050609
0.048344 -0.007309 -0.028372
0.008461 -0.015599 -0.001444
0.021221 -0.006628 -0.005967
-0.010569 -0.006097 0.075674
0.080723 -0.098609 -0.018966
0.007511 -0.001382 0.004278
0.000713 0.000863 -0.016692
-0.015270 -0.008322 -0.005711
0.015304 -0.002813 -0.012663
-0.016292 0.013526 -0.007039
-0.003646 0.000058 -0.024714
-0.007547 0.004214 -0.003422
-0.006955 0.002693 0.029076
-0.019668 -0.003913 -0.017051
-0.006769 -0.003047 -0.000299
