0.004894 -0.005121 -0.009059 -0.007355 0.004350 0.008799 0.014497 0.016230 -0.000835 -0.005006 -0.001568 -0.004722 -0.009021 -0.005281 0.008387 -0.013999 -0.007966 0.014354 -0.004094 -0.002697 0.010738 -0.011555 0.009253 -0.018134 0.002613 -0.010672 -0.003280 0.004713 0.015826 0.004483 0.010590 0.014635 0.009715 0.020595 -0.000809 -0.002542 -0.022245 0.010567 0.009679 -0.010417 -0.004867 0.000254 -0.001851 0.005524 0.002037 -0.003059 0.007240 0.003647 -0.002925 -0.005842 -0.007676 0.007850 0.035127 -0.012746 0.004061 -0.009449 0.005950 -0.004624 -0.011200 -0.023385 -0.004415 -0.001932 0.013007 -0.005039 0.007800 -0.004475 -0.001952 0.002352 0.005104 -0.003751 -0.005388 0.002890 0.007094 -0.005755 -0.008558 -0.002362 -0.005801 -0.008480 0.003844 -0.004130 0.003545 0.006686 -0.007629 -0.005663 -0.003870 0.002862 0.001272 -0.002540 -0.001261 0.001400 -0.003534 -0.016651 0.009151 -0.001223 0.006892 -0.005503 -0.013270 -0.002605 0.009183 -0.025993 0.014394 -0.012896 0.008306 -0.002117 0.006637 0.014243 -0.018438 0.000439 0.009835 0.008004 0.001205 -0.004944 0.005780 0.009659 -0.007455 -0.026562 0.001100 0.008468 -0.008469 0.009772 0.006588 -0.003040 0.006581 -0.012873 -0.008022 -0.011631 -0.025112 0.011607 0.031461 0.014214 0.007003 -0.007095 -0.012577 0.012938 -0.002343 -0.006584 -0.003381 -0.002356 -0.000545 0.010521 0.007506 0.003614 0.009190 0.011557 0.003456 -0.008967 -0.016702 0.022678 -0.011689 -0.016345 -0.024020 0.008050 0.032453 0.031190 0.004960 -0.003029 -0.022012 0.004228 0.007183 -0.019921 -0.011984 -0.030034 -0.002773 -0.007350 0.015117 0.014456 0.024896 0.003161 0.025430 -0.008371 -0.003931 0.000186 -0.002075 0.003166 0.001418 -0.000899 -0.006656 0.001539 -0.003773 -0.009814 0.009498 -0.000612 0.009589 -0.003763 0.003763 0.004794 -0.008579 0.009416 -0.009584 -0.012032 -0.009939 0.003519 0.015826 0.000677 0.012734 -0.011371 -0.022307 0.007616 -0.000547 -0.020184 0.009607 -0.003954 -0.007625 -0.002420 -0.010322 -0.014862 0.007098 -0.010858 -0.008357 0.004232 -0.008748 0.003044 -0.011517 0.000260 -0.000860 0.020048 -0.019982 -0.004286 -0.002954 0.005162 -0.012309 0.011237 0.003359 -0.004661 -0.023189 0.003632 0.014595 -0.006397 -0.001974 0.003041 -0.003841 0.008295 -0.003206 0.000277 -0.020453 0.002232 0.000514 -0.003945 0.000186 -0.020626 -0.010250 -0.003615 0.004968 0.005891 -0.006584 -0.005261 0.010157 0.007423 0.000625 0.004043 0.002950 0.019442 -0.019467 -0.022868 0.010324 0.012693 -0.020741 0.011185 0.010286 -0.007344 0.001236 -0.007510 0.009458 -0.001134 -0.001738 -0.015777 0.018919 0.008510 0.002608 -0.000489 -0.013144 0.006532 0.012051 0.015648 -0.011110 -0.016497 -0.006105 0.027371 -0.007741 -0.009330 0.007451 0.021944 0.004929 -0.004174 0.001989 0.001016 -0.000807 -0.001539 0.010932 -0.001764 -0.012937 0.005214 0.011214 -0.004617 0.004154 0.008846 -0.012497 -0.004846 -0.023820 -0.017686 0.005010 -0.006539 -0.011947 -0.006933 -0.020073 -0.014483 -0.001947 0.005465 0.003164 0.001371 0.006544 -0.010108 0.000941 0.017200 0.009280 -0.002824 0.004248 -0.015104 0.000824 -0.009499 -0.014536 -0.001905 0.013658 -0.003540 -0.007733 0.006949 -0.010422 0.010959 -0.004666 -0.016111 -0.003675 0.002962 0.011803 0.009297 -0.008068 -0.012601 -0.003000 0.008498 -0.000417 -0.005053 0.010657 0.009632 0.011561 0.000545 0.007373 0.000742 -0.008468 -0.006634 0.005029 0.004168 0.010679 -0.003170 -0.001087 0.006483 -0.011735 0.003066 0.000573 -0.001609 0.007627 0.005905 0.017296 -0.017195 -0.008915 -0.006030 -0.016227 -0.030661 -0.019159 0.019969 0.024604 0.021320 -0.007216 -0.007773 -0.005138 0.003817 -0.002126 -0.009520 0.003321 -0.014451 -0.000499 -0.003987 -0.012191 0.002064 0.010242 0.033797 -0.001484 -0.012149 -0.001213 0.022420 -0.014434 0.009142 0.010721 -0.007853 0.011037 0.013579 0.001260 -0.011859 -0.010569 0.008198 0.005061 -0.023665 0.014764 0.002109 -0.005952 -0.018876 0.008172 0.029686 0.019186 -0.037214 0.002601 0.020750 -0.014262 0.003244 0.006552 0.002614 -0.010322 -0.000667 -0.009268 -0.008010 0.003371 0.005630 -0.004045 -0.006322 0.005243 0.008916 0.000304 -0.006446 0.000702 0.001540 0.014480 0.005104 -0.004906 -0.002435 0.006509 0.000883 -0.009759 -0.019172 -0.002988 0.030802 -0.000035 -0.000633 -0.018156 -0.007379 -0.003277 -0.039944 0.014695 0.001726 0.024387 -0.006251 -0.007410 0.015108 0.003536 -0.000208 -0.000789 -0.003256 -0.001270 0.007375 -0.009531 0.002041 0.012247 0.025092 -0.015724 -0.003588 -0.009846 0.018709 -0.043950 0.009819 -0.002691 0.006697 0.035343 -0.004064 -0.016210 -0.001996 0.009100 -0.014673 0.001325 -0.008583 -0.007020 0.013097 0.011590 0.002920 0.011416 -0.001822 0.001126 -0.000456 -0.014482 -0.004157 0.000341 0.011315 -0.000796 -0.002051 0.002621 0.005836 0.006011 -0.020368 -0.015505 0.004069 -0.002620 0.025294 0.003734 -0.011647 -0.007624 -0.011090 -0.000411 0.003843 0.008609 -0.030375 -0.013299 -0.011915 0.000939 0.000693 0.002235 0.000153 0.011426 -0.018354 -0.008585 -0.009139 -0.008215 0.001512 -0.001398 -0.019492 0.000214 0.001317 -0.000954 0.000725 0.007555 0.001267 0.005236 -0.005830 0.000860 -0.006829 -0.023546 0.020300 -0.002242 0.003553 0.014718 -0.001142 0.008980 -0.007738 -0.006472 -0.020316 0.011689 0.001930 -0.002871 0.009054 -0.027798 0.014450 -0.002191 0.002298 -0.004050 0.009982 0.002712 0.010258 -0.006391 -0.000310 -0.005636 -0.002060 0.001263 -0.009383 0.012529 -0.011655 0.002435 0.005716 -0.010909 -0.019294 0.009384 0.000769 -0.004856 -0.003631 0.003176 0.008981 -0.006278 0.021121 0.021276 -0.009701 0.013049 -0.006042 -0.010284 -0.007238 0.007392 0.010792 0.002747 0.004435 0.014334 0.010578 -0.007324 0.011127 0.004909 -0.016203 -0.018444 -0.006991 -0.004838 0.019632 -0.023650 -0.003418 -0.000347 -0.011489 0.005546 0.001006 0.010981 -0.011961
0.006470 0.024728 -0.008424 -0.003658 -0.019168 -0.011611 0.025180 -0.002591 -0.013672 0.009369 0.002935 0.006627 0.003197 0.003845 -0.007386 -0.001313 0.002857 -0.019565 -0.009724 -0.005530 0.001884 0.020390 0.017584 -0.006275 -0.005621 -0.012097 -0.002278 -0.002274 0.000179 -0.000178 -0.010562 0.004419 0.003493 0.003996 0.010562 -0.007043 -0.000019 -0.006928 -0.001429 -0.015910 -0.011553 0.029267 -0.023594 -0.007612 0.053637 -0.010036 0.052550 -0.029902 -0.034576 -0.035584 0.012474 0.015608 -0.008770 0.007942 -0.016614 -0.011332 0.005118 0.006377 0.001246 0.017740 -0.006010 0.006503 0.007098 -0.006329 -0.009939 -0.009873 -0.001128 -0.007442 -0.004335 -0.014256 0.004260 -0.013305 0.016132 0.009233 -0.036784 -0.002359 -0.009790 0.028232 0.012011 0.020424 -0.013109 0.000550 0.002936 -0.010930 0.023003 0.036875 0.040292 -0.006405 -0.019827 -0.012192 -0.000468 0.003726 -0.021842 -0.027355 0.009704 0.012625 0.008272 -0.002642 -0.000820 0.003195 -0.013225 0.013070 -0.017426 0.019816 -0.039710 0.007099 0.015805 0.010777 -0.005019 -0.000700 -0.011320 -0.002296 -0.003227 -0.006213 -0.007103 0.021458 -0.017468 0.016550 -0.000705 0.009772 -0.003657 0.008511 0.009087 0.003697 0.005159 -0.005987 0.002840 0.010066 -0.009747 0.014113 0.017852 0.004996 -0.011324 -0.003892 -0.022300 -0.000426 -0.014507 0.009231 -0.005088 0.004000 -0.006367 -0.014652 0.005597 -0.003594 0.002382 0.012271 0.016240 -0.012627 0.003483 -0.009762 0.004730 0.000933 -0.008121 -0.010764 0.010798 0.018076 0.021552 0.013597 -0.008023 0.010220 -0.001356 -0.005475 -0.008082 -0.005427 -0.003544 0.006442 0.010012 -0.009454 -0.012246 -0.001644 0.009746 0.001126 0.021337 -0.001472 -0.005150 -0.005862 -0.006395 0.006566 -0.024073 0.019588 -0.013868 0.010674 -0.003904 0.000157 -0.001403 0.028753 -0.006298 0.017549 -0.013350 0.005061 0.001587 0.005907 -0.001436 -0.001281 0.005189 0.025667 0.003886 -0.009101 -0.020302 -0.004779 -0.007284 -0.017562 -0.013773 -0.011816 -0.012673 0.024369 0.005615 -0.008593 -0.010221 0.025590 0.001034 -0.000256 -0.002691 -0.011279 -0.001081 -0.005244 0.003674 -0.017717 0.001655 -0.019120 0.001423 -0.000544 -0.008449 -0.002569 -0.004425 0.000010 -0.002014 0.007947 -0.001409 0.015458 0.018410 0.002411 0.004256 0.008986 -0.016208 0.004156 -0.013529 0.023311 0.002079 0.013387 -0.024419 0.001138 -0.002203 -0.014189 0.021430 0.033599 0.012057 0.023326 -0.003722 -0.003022 0.019173 -0.019704 0.008307 -0.008979 -0.006952 -0.019264 0.004061 -0.007054 -0.002539 0.001152 0.002812 -0.009186 -0.014839 -0.002179 -0.015945 -0.001327 0.007497 -0.015954 0.004055 0.014486 0.013431 -0.018515 0.002605 -0.000745 0.017228 0.009185 -0.010215 0.006018 -0.008670 -0.008817 -0.007236 0.036466 -0.012106 0.001890 0.064028 0.014344 -0.005594 -0.001391 -0.018330 -0.034924 0.009129 0.010153 -0.001756 0.015748 -0.015788 0.002417 -0.010588 0.001871 0.019166 -0.018724 0.004051 0.008908 0.002625 -0.003635 -0.001998 -0.014610 0.001896 0.001203 -0.012908 -0.000396 -0.000280 -0.013420 0.012793 0.001659 -0.019410 0.001021 -0.016345 -0.016863 0.026407 -0.004659 -0.009822 0.006180 -0.013377 -0.000087 0.033781 -0.003550 0.042245 -0.030166 -0.021211 -0.033984 -0.005609 0.005038 0.004145 -0.012844 0.042793 0.013281 0.007613 -0.007237 0.004493 -0.024216 -0.004913 0.003609 -0.001154 0.008363 -0.017810 0.012215 0.004727 0.011520 0.010010 -0.001931 0.007595 -0.005331 0.006479 -0.008688 0.004577 0.028760 -0.001346 0.014296 -0.003675 0.003227 -0.006398 -0.012269 -0.001677 -0.007954 -0.009383 -0.007780 -0.004674 0.021708 0.000595 0.013638 -0.008922 -0.002285 0.013259 -0.003365 0.011333 -0.013031 -0.015220 0.010742 0.013240 0.021916 -0.007046 -0.003419 0.003837 -0.014062 -0.006154 0.006793 0.008143 0.006754 -0.000334 -0.005621 0.003643 -0.000710 -0.000041 -0.004905 -0.005758 0.007635 0.009444 0.015664 -0.012709 -0.002587 0.002654 0.006918 -0.006419 0.008176 0.005195 -0.005595 -0.017891 0.004896 0.001889 0.002473 0.010769 -0.009317 -0.005721 0.012226 -0.016827 -0.007624 -0.006138 0.009060 0.015413 -0.001832 0.008063 -0.015162 -0.002171 -0.010991 0.002837 -0.003861 -0.009609 -0.004454 0.007956 -0.023426 0.024513 0.006155 0.007581 0.002280 0.010023 0.032109 0.006415 -0.003918 0.007356 -0.003120 -0.013369 -0.008720 -0.003951 -0.003274 -0.007556 0.018503 0.025431 -0.009317 -0.025053 -0.002535 0.005392 -0.012143 0.001405 -0.004361 -0.005254 -0.001815 -0.005541 -0.005718 0.010061 0.013984 -0.005941 -0.002756 -0.010336 -0.003374 0.004357 -0.010477 -0.005608 0.012955 -0.004609 -0.002418 -0.000897 0.004086 0.006905 -0.006702 -0.002674 -0.006466 -0.017888 0.006701 0.009075 -0.005586 -0.007468 -0.025400 -0.021473 -0.004182 -0.011439 0.017525 0.025806 0.027904 0.019820 -0.023470 0.013602 0.006748 0.001444 -0.001335 -0.008535 0.000777 -0.003481 -0.010495 0.005010 0.010915 -0.000253 0.005067 0.004623 -0.006598 0.005618 0.003401 0.005273 0.000155 -0.007811 -0.018247 -0.002789 -0.013181 0.006108 -0.001004 0.020602 0.001618 0.011180 -0.003182 -0.008613 -0.003428 -0.019672 0.001613 -0.026464 0.002612 0.010172 -0.005002 -0.012547 0.004044 0.007091 -0.023527 0.008451 0.002897 -0.003989 0.013482 -0.005376 0.003300 0.017499 -0.001566 -0.002906 -0.011214 -0.009028 0.005259 -0.013282 -0.005049 0.001224 -0.011611 0.004373 0.003889 0.007897 0.018680 -0.000393 -0.026035 -0.038926 -0.030077 -0.013462 0.020078 0.019365 -0.006566 0.013081 -0.028377 -0.000177 -0.000774 -0.002278 0.015514 0.017219 -0.002093 0.009063 -0.013768 -0.004831 -0.005078 -0.010819 -0.012136 -0.001084 0.006285 0.005731 0.011453 -0.002719 -0.011163 0.000809 -0.007798 0.003065 -0.015619 -0.000991 0.012322 -0.013824 -0.002585 -0.009666 -0.007055 0.002426 -0.009993 -0.004454 -0.009635 -0.004954 0.003199 -0.012292 0.016718 -0.012685 0.005054 -0.000880 -0.009899
0.007622 0.005791 0.005748 0.005784 0.005680 0.013077 -0.010858 0.001100 0.003834 0.006961 -0.016640 0.003524 -0.002677 -0.005762 0.003755 -0.019496 -0.017642 0.007233 0.005822 0.009897 0.007271 -0.015674 0.007817 0.023304 0.003253 -0.009897 -0.004063 0.007870 -0.012157 0.002170 -0.011829 -0.018158 0.003713 0.003924 -0.010775 0.000876 -0.018037 0.028312 0.020316 -0.013583 -0.006966 -0.001429 0.014926 -0.004623 -0.003156 0.003130 0.013948 0.004223 0.000512 -0.001840 -0.007385 -0.008790 -0.004567 -0.009454 0.016084 0.038546 -0.010273 -0.003429 0.015853 -0.025769 -0.005228 -0.014829 0.013530 0.001722 -0.005639 -0.001103 -0.010766 -0.015455 0.005883 0.014259 0.025188 -0.007752 -0.006474 0.004580 -0.009479 0.000507 0.013465 -0.006198 0.010111 -0.012050 -0.006246 0.006477 0.004985 0.006610 -0.009785 -0.005938 0.013935 0.002580 0.007429 -0.013629 -0.000476 -0.002984 -0.006671 -0.001731 -0.002727 0.010953 -0.002851 -0.010044 0.012418 0.016919 0.021351 -0.001595 -0.003539 -0.007175 -0.004135 -0.003760 0.000984 -0.022790 -0.014850 -0.000582 -0.009764 -0.000990 0.002551 -0.002828 -0.011576 -0.001348 0.003061 0.006624 -0.014320 -0.005143 0.011326 -0.005900 0.048528 0.013528 0.007278 -0.018165 0.001959 -0.011004 -0.007289 -0.020358 0.012613 0.013525 -0.001683 -0.007990 -0.002315 0.007987 0.003657 -0.000300 0.000096 0.001627 -0.016665 -0.009842 0.009726 -0.006437 -0.005744 0.008383 -0.030278 0.034695 0.029404 0.002652 -0.011928 -0.008154 0.010010 0.025897 0.009997 0.020756 -0.030947 0.010244 0.032900 -0.023086 0.024555 -0.048448 -0.039889 -0.025243 0.031165 -0.009570 0.039766 -0.030041 0.021687 0.035738 -0.003176 0.020540 -0.002248 -0.007962 -0.011865 -0.003219 0.022315 0.003070 0.003285 0.000329 0.000204 -0.003843 0.005834 0.006098 -0.003938 0.006741 -0.004178 -0.002872 0.009685 -0.004152 -0.014292 -0.016134 0.008794 0.019790 -0.000989 -0.017384 -0.027352 0.059567 -0.001718 -0.016226 0.004968 -0.015660 -0.001233 -0.005479 -0.031325 0.013567 0.001511 -0.007870 -0.012115 0.033406 0.017009 -0.008626 -0.011347 0.002583 0.008178 -0.001079 0.005268 -0.011707 0.014234 -0.003569 0.002217 -0.014775 -0.013301 -0.001434 -0.004070 0.023877 0.002445 0.011567 0.015449 -0.011893 -0.009831 -0.011826 0.021975 0.012129 -0.005505 -0.018972 0.000634 0.013404 -0.004246 -0.005598 0.009950 -0.008711 0.007561 0.000132 0.002792 -0.000539 0.014938 0.002792 0.011525 -0.001108 -0.002473 -0.001691 -0.000304 0.001741 0.001906 -0.018727 -0.006541 0.013539 0.024876 0.006942 -0.005088 0.001549 0.016996 0.052979 -0.013264 -0.023332 -0.017930 0.020100 -0.026398 0.011714 -0.001259 0.003599 0.018333 0.010596 -0.014243 -0.006226 -0.010435 0.009771 -0.021857 -0.002344 0.002515 -0.012525 -0.015963 0.005213 -0.005169 -0.001640 0.000087 -0.001531 -0.002595 -0.014267 -0.006786 0.013429 0.003997 -0.023107 0.004722 0.014828 0.003463 0.010022 0.017205 -0.021093 0.007221 -0.005085 0.002781 -0.003427 0.007028 -0.001597 -0.008554 0.003063 0.005680 0.001048 0.005525 -0.016576 -0.007742 0.003695 -0.012724 -0.002669 0.012577 0.009994 0.019127 0.001927 0.009905 -0.006019 0.016411 -0.002820 -0.018528 -0.014144 0.015906 0.000318 -0.006046 -0.001473 0.000226 0.009065 -0.002030 -0.002363 -0.023474 0.006437 0.015425 -0.004015 0.014565 -0.008639 -0.000538 0.021684 0.003505 -0.027894 0.008997 0.004122 -0.014952 -0.013887 -0.008687 0.013909 -0.000509 0.020927 -0.004340 -0.005841 -0.006819 -0.005814 0.002165 0.000352 -0.013756 0.005691 -0.012850 0.018989 0.042143 0.005754 -0.007635 -0.005285 0.004300 0.011268 -0.025282 -0.037682 0.006099 0.010309 0.001519 -0.005771 0.014999 0.001393 -0.004212 -0.011846 -0.005119 0.014281 -0.025975 -0.012441 0.016219 0.002725 -0.012677 -0.014970 -0.010240 -0.005297 0.006341 0.013202 -0.006304 -0.001060 0.007150 0.006448 -0.022920 0.025796 -0.032890 -0.003423 0.011151 -0.004849 0.006663 0.020724 -0.018238 -0.003467 0.019563 0.020031 0.009345 -0.018271 -0.018147 0.015818 0.012204 0.004020 0.001693 0.000219 -0.016406 -0.003760 0.016586 0.012479 0.010053 0.006442 -0.002787 -0.011313 0.011307 0.012516 0.000503 0.006642 -0.005284 -0.008145 -0.007920 -0.002517 -0.003190 -0.001584 0.000555 0.020796 -0.037509 0.011967 -0.036673 0.023506 0.024407 0.016198 0.000392 -0.024383 -0.003493 -0.053471 0.004584 -0.003573 0.030930 -0.014099 0.024700 0.027402 0.001327 0.014580 0.009468 0.036743 -0.004461 -0.029407 0.004422 -0.010871 -0.022380 0.007072 0.005134 -0.010541 -0.032536 0.004756 -0.021325 0.017968 0.004718 0.012048 0.020342 0.003637 -0.001746 0.003094 0.005031 0.027589 -0.017620 -0.014861 -0.003308 0.013438 -0.021029 -0.010029 0.010719 -0.014947 -0.005547 -0.009679 0.002801 0.009272 0.009635 0.009818 0.001025 -0.002700 0.009740 0.008754 0.016689 0.001518 -0.008657 -0.002511 0.002968 0.002309 0.003866 -0.007291 0.014767 -0.038868 0.006845 0.016805 -0.032024 -0.008162 -0.009416 0.030791 0.005591 0.020035 0.007016 -0.012636 -0.003701 0.015269 -0.009505 0.005765 0.005709 -0.008794 -0.019946 0.005364 -0.002859 0.007516 0.011022 0.000026 0.019340 -0.024517 -0.012269 -0.007238 -0.013647 -0.012383 0.011563 -0.003982 0.019164 -0.004740 0.052760 -0.013968 -0.013378 0.003740 0.010875 -0.011283 0.004227 0.006146 0.006523 -0.011719 0.011245 0.015787 0.006103 0.000263 0.004974 -0.002757 -0.003503 -0.000381 -0.003960 -0.000391 -0.007471 -0.006608 -0.010080 -0.001875 -0.011530 -0.008428 0.024982 0.005001 0.015801 -0.019365 -0.012540 0.005121 0.007536 -0.018473 -0.008012 -0.000311 0.017733 0.019369 0.001609 -0.007259 -0.004156 -0.019467 -0.013506 -0.001813 -0.017993 0.006081 -0.013216 -0.005188 -0.003417 -0.002483 -0.000944 -0.002706 -0.000367 -0.008994 -0.008757 0.006912 0.016997 0.000692 0.003286 -0.003697 0.014210 -0.002621 -0.002122 -0.017632 -0.006536 0.003132
-0.041995 -0.009480 0.017100 0.012294 0.009154 -0.008495 0.009989 -0.013535 0.016385 -0.003251 -0.005399 -0.001175 -0.005454 0.008240 -0.013372 0.004505 0.011926 -0.006535 -0.001166 -0.008711 0.000936 0.007131 0.007849 0.006733 -0.016399 0.004971 -0.026795 -0.005920 -0.008312 0.006225 0.041471 0.022202 0.020779 -0.031610 0.003720 -0.005329 -0.036776 0.007297 0.001661 -0.004208 -0.041240 0.017915 0.013936 -0.001332 0.042085 -0.050803 -0.011291 0.020031 -0.016203 0.014184 -0.004648 0.033751 0.001529 0.004075 -0.006801 0.006119 0.002613 0.011188 -0.001921 -0.002717 -0.004843 0.008275 0.019766 0.014381 -0.032243 -0.024255 -0.007619 0.003179 -0.004253 -0.008766 0.018404 -0.013687 0.032918 0.029588 -0.077295 0.024391 -0.027071 0.034367 0.013050 0.008159 0.011388 -0.018484 -0.007457 -0.000742 -0.010472 0.007035 0.001979 0.018473 0.007280 -0.015805 -0.010241 -0.002435 0.018062 0.042997 -0.018218 -0.015552 0.003211 0.011886 -0.020384 0.020271 -0.004593 0.008429 -0.003823 0.030166 -0.020805 0.015016 0.016703 -0.010740 0.006361 -0.015876 0.005754 -0.001201 0.007158 0.006233 -0.014401 -0.001103 -0.010736 0.033629 -0.007570 -0.011293 -0.011325 0.005103 -0.001830 0.004675 -0.004561 0.003839 -0.005498 0.008934 0.006110 -0.006562 0.004391 0.001562 0.012191 0.005031 -0.013379 0.007039 -0.000152 -0.001863 -0.003996 0.016398 0.003911 0.008349 0.010045 -0.047520 -0.013613 0.036098 0.006045 -0.010928 0.020942 -0.005550 0.002677 0.032215 -0.015403 -0.002443 -0.007250 0.014355 -0.013354 -0.004860 0.008372 -0.006484 0.001032 0.011762 -0.007502 0.007066 -0.013065 -0.012485 -0.006185 0.014523 0.000625 0.018747 -0.003709 -0.028928 0.021616 -0.016076 0.012201 -0.031767 -0.003106 -0.004756 -0.002331 0.006761 0.007707 -0.015899 0.000652 0.000238 -0.010060 0.032683 0.006387 0.010542 -0.001456 0.008925 -0.009637 -0.004094 -0.000304 -0.014064 0.022243 -0.002769 -0.017416 0.011619 -0.004128 -0.016154 0.004659 -0.015498 -0.006829 -0.021350 -0.016287 0.022633 0.018868 0.005464 -0.003079 -0.025767 0.008944 0.010164 0.014382 0.002504 -0.010832 0.004907 0.004876 -0.014283 0.006602 -0.010376 -0.001680 -0.005670 -0.010763 0.004508 -0.009272 0.004076 0.005316 -0.018748 -0.003780 0.000073 0.007574 0.005274 -0.013612 0.007349 0.012386 -0.000729 -0.001450 0.009529 0.006598 0.015782 -0.029569 -0.014721 -0.012855 -0.014759 0.008281 0.013839 0.055486 -0.010583 0.003699 -0.008990 -0.000403 0.003571 -0.004690 -0.000755 -0.001294 0.012342 0.002828 0.011133 0.010330 0.009006 0.019780 -0.003749 -0.013495 -0.007409 0.016124 0.006458 -0.000373 0.014960 -0.015078 -0.007257 0.028259 0.007254 0.004433 -0.004372 0.008411 0.008372 -0.006071 -0.017582 0.012038 -0.012805 0.007921 -0.016177 0.035539 -0.011260 0.055787 -0.039044 0.009546 -0.008037 -0.007696 0.030414 0.013272 0.002321 0.004770 -0.000020 0.010908 -0.012162 -0.019317 0.014102 0.020144 -0.011719 -0.005085 -0.011962 0.003483 -0.001138 -0.009954 -0.009701 -0.001435 0.003134 -0.011506 -0.009552 0.033979 -0.010776 -0.003244 0.001047 -0.028354 -0.000413 -0.006874 0.007145 0.025117 0.019142 -0.019548 0.030394 -0.012283 0.011855 0.034875 -0.013293 0.006900 -0.006033 0.005769 -0.042921 0.006085 -0.001836 0.019678 -0.011173 -0.017133 -0.004536 -0.003412 -0.001704 0.021286 0.001162 0.013664 -0.001295 -0.018476 0.013938 -0.027456 0.001732 -0.003483 0.017154 0.003728 -0.006936 0.014713 -0.020133 -0.003204 -0.001646 -0.004346 0.015384 0.007649 0.006340 -0.016121 -0.002299 -0.001056 0.001595 -0.002334 -0.001504 0.001159 0.020992 0.013348 0.008749 -0.010691 -0.002146 -0.011211 -0.000353 -0.010085 0.011462 0.001479 -0.016153 0.003009 -0.002919 0.002902 0.013326 -0.000249 0.000617 -0.011342 -0.022621 0.007964 0.038623 0.013979 -0.012717 0.016286 -0.016770 0.000991 -0.011754 -0.003004 0.003106 -0.017290 0.026621 -0.003698 0.000551 0.002890 -0.009031 0.022433 0.015716 0.011502 0.002646 0.015733 -0.014671 -0.026462 0.002114 0.007892 -0.001256 -0.001166 -0.005676 -0.005554 0.000857 0.003137 0.004823 0.003847 0.006991 0.003521 -0.008261 -0.006358 0.001743 -0.001659 -0.000903 -0.009961 0.001561 0.012329 0.006919 -0.012814 -0.003503 0.010545 -0.014010 0.000450 0.029338 -0.017423 -0.026907 -0.016460 -0.004538 0.013847 -0.020100 -0.014045 0.007375 -0.016983 0.024977 -0.024319 0.044062 0.014295 -0.002488 0.011736 -0.024195 0.014927 -0.000390 -0.008582 0.004112 -0.010974 0.010302 0.010255 -0.008791 -0.001580 -0.006755 0.006322 -0.008670 0.006104 -0.007783 0.006445 0.005041 0.017467 -0.019802 0.010214 -0.001139 -0.014145 -0.010298 0.013904 -0.000392 0.007554 0.004610 -0.001889 0.005811 -0.003694 -0.006349 -0.009605 -0.000689 0.008612 -0.005190 -0.014955 0.035667 0.031188 0.013479 0.001827 -0.021944 0.018152 -0.000482 -0.004094 0.003988 0.001434 -0.000156 -0.017342 -0.014825 0.004420 -0.010201 0.006255 0.014865 -0.013625 -0.001898 0.001840 0.012722 0.010040 -0.011969 -0.008964 0.001836 0.006053 0.003466 -0.005206 0.003651 -0.007800 0.024927 0.003468 -0.003636 -0.000748 -0.002074 0.000567 0.001087 0.015323 0.007719 -0.003527 -0.018132 -0.026902 0.011609 0.016796 0.016451 0.022629 -0.001547 -0.006463 -0.006129 0.005099 0.003388 0.004011 0.007854 -0.016951 0.001489 0.003005 0.010681 -0.004243 -0.005815 -0.001812 0.005838 0.010977 0.004184 0.004013 0.001087 -0.009356 -0.000707 -0.014112 -0.015599 -0.011572 0.044011 0.007578 -0.015900 0.004737 -0.005889 -0.003878 0.011340 0.014514 -0.021061 0.023862 -0.018657 -0.008003 0.010499 -0.000313 -0.018171 0.008977 -0.002327 0.024400 -0.003882 0.003015 0.008178 0.008915 -0.013648 -0.001267 -0.009266 -0.002971 -0.003289 -0.003046 -0.002873 0.000945 0.010505 -0.004184 0.001413 0.005698 -0.009691 0.002615 0.004357 -0.015786 -0.032950 0.003052 0.034716 0.010300 0.005648 -0.006752 0.010478
-0.004877 0.005345 0.005422 -0.001584 -0.006192 -0.011552 -0.014560 0.007503 -0.005207 0.008180 0.006107 -0.008614 0.000255 -0.004869 -0.000979 0.011822 0.000040 0.001508 0.007031 0.004065 -0.004279 0.014471 0.010932 -0.005807 0.003873 -0.000883 -0.009449 0.009899 0.011977 -0.013723 -0.015726 -0.003863 -0.005012 -0.001577 -0.007671 0.012457 -0.004464 -0.002040 -0.001618 0.000918 0.003577 0.024241 -0.000615 -0.005471 -0.009579 0.006231 0.008197 -0.000018 -0.002279 0.000570 -0.015324 -0.011027 -0.013511 0.016969 -0.002041 0.016025 -0.003303 0.000315 0.025863 0.013077 0.002172 -0.000418 -0.004714 0.020903 -0.009020 0.016233 0.008028 -0.003051 -0.011294 0.011853 0.004227 -0.004415 0.017415 -0.015019 0.004585 -0.006918 0.025705 0.008800 -0.014208 0.009431 -0.006904 0.003058 -0.007539 -0.005929 0.006399 0.002934 -0.012390 -0.006859 0.012494 0.002265 -0.002597 -0.009270 -0.023109 0.005145 0.015142 -0.000302 0.008805 -0.006837 0.005703 0.005745 -0.002124 -0.001898 0.008513 0.012524 -0.020821 -0.001109 -0.011275 -0.008323 -0.006997 0.004877 0.016226 -0.001268 -0.000068 0.006168 0.008715 0.002193 -0.004786 0.005051 -0.005988 0.010991 -0.012196 -0.027154 0.029559 0.008021 -0.029417 0.002833 -0.017358 0.003644 0.000335 -0.010813 0.013870 -0.013226 0.006730 0.000083 -0.019550 -0.003474 -0.016206 -0.016122 0.000151 0.008679 -0.005471 -0.009289 -0.019344 -0.010940 -0.005397 0.028657 -0.007492 -0.003516 0.001212 0.022537 -0.027012 -0.005878 -0.039014 0.025983 -0.006239 0.039841 -0.023232 -0.000011 0.004776 0.025085 0.034770 -0.037062 0.016350 -0.032176 0.017285 -0.011312 0.013560 -0.022246 0.000275 0.009284 0.002429 0.007848 -0.004579 -0.015923 -0.001410 -0.002753 0.002815 0.007148 -0.003475 0.001428 -0.006241 -0.020311 0.006994 -0.002159 -0.013510 0.000299 0.001544 0.009690 -0.003268 0.001545 -0.021463 -0.016644 -0.023921 -0.038403 0.009280 -0.010348 -0.029562 0.012503 0.024567 0.032362 0.036295 -0.000213 -0.003757 -0.019392 0.023658 -0.014629 -0.011114 -0.013907 -0.015580 0.034213 0.001567 -0.007606 0.034538 0.002723 -0.005419 -0.012244 -0.006491 -0.017254 0.010876 -0.013199 -0.004661 -0.009728 -0.003524 -0.003574 -0.012534 0.013528 0.001577 0.002884 0.008866 0.006875 -0.003475 0.010643 -0.009227 0.005691 0.022455 -0.001908 -0.009508 0.013963 -0.018045 -0.000337 0.006438 -0.003474 0.006953 -0.009535 0.002365 -0.014919 0.013082 0.002200 -0.000061 0.015496 -0.016947 0.006790 0.009429 0.000119 -0.005928 -0.005081 -0.005603 -0.012677 0.010947 0.008095 -0.018674 0.039195 0.010755 0.001242 -0.006747 -0.014005 -0.014770 0.029275 -0.015657 -0.019080 -0.027803 -0.020538 -0.023404 0.030752 0.016939 0.008226 -0.008013 0.002011 -0.016115 0.032366 -0.015902 0.005336 -0.001329 -0.013684 0.005307 0.005991 0.004415 -0.008990 -0.001113 0.003219 -0.024311 0.013033 -0.026458 0.011172 -0.010668 0.000380 0.001065 0.014078 0.023648 -0.005647 0.004979 -0.020797 0.006579 -0.006639 0.020069 0.005568 0.001674 -0.002853 -0.012959 0.003196 -0.002906 0.010759 -0.001796 -0.009536 -0.007291 -0.002519 0.011700 -0.007082 0.002451 0.008762 0.010974 0.021100 -0.002419 -0.017166 0.002932 0.005016 -0.002768 -0.009745 -0.025027 0.031663 0.002088 0.014782 -0.020858 0.001969 -0.003229 0.015621 0.002950 0.004203 0.006792 -0.000007 -0.012813 0.013843 0.011474 -0.003361 0.009575 0.008286 0.010878 -0.016893 -0.002870 0.000639 0.002304 -0.008708 -0.003917 -0.017013 -0.005311 -0.015664 -0.004501 0.003754 0.004790 -0.008408 0.013167 -0.008841 0.019425 0.010585 0.008729 -0.032167 -0.019300 0.011388 -0.001433 0.003330 -0.007368 -0.006150 0.003215 -0.000337 0.004943 0.000197 0.002583 -0.012731 -0.005799 0.018998 -0.022863 0.015127 0.002437 0.024218 0.015588 0.020670 0.003807 -0.024426 -0.034199 0.034448 -0.006059 0.018717 -0.045191 0.028240 -0.015321 0.009199 -0.023963 -0.009476 -0.021112 0.005812 -0.007494 0.033154 0.000826 0.003454 -0.037248 -0.021520 0.014204 -0.004559 0.027685 -0.008843 -0.016858 -0.009261 0.002094 -0.009241 -0.010883 -0.000299 0.018913 0.013900 -0.005706 -0.026141 -0.002056 0.009704 -0.006759 0.002906 0.005396 0.005070 0.005257 -0.004792 0.008098 -0.007912 -0.023723 -0.003984 -0.030921 -0.009419 0.024273 0.021159 -0.037048 -0.024017 0.026574 0.061683 0.027616 -0.017356 -0.009550 -0.005060 -0.003450 -0.031267 -0.001645 0.012722 -0.000629 -0.012900 -0.015980 0.022336 0.014106 0.001420 -0.026272 -0.029262 0.013427 0.038813 0.014168 -0.037256 0.000653 -0.013813 -0.014085 0.008267 -0.031726 0.014044 0.004486 -0.001993 0.024958 0.020663 -0.010909 0.025572 -0.004801 0.034664 -0.002795 -0.000923 -0.007429 0.014444 -0.001097 -0.002045 0.007772 -0.016236 0.003829 -0.006919 0.007018 -0.000677 -0.000329 0.003495 -0.008923 -0.015232 0.000021 0.005650 0.003021 -0.023483 -0.003291 0.001681 -0.017310 0.001609 0.003053 0.011344 0.000849 -0.000180 -0.004744 0.020917 -0.024878 0.007813 -0.008245 0.006815 -0.031368 0.029644 -0.009346 -0.001530 -0.007884 0.016460 -0.005622 0.000324 -0.015183 0.009747 -0.005332 0.011488 0.015334 -0.004447 -0.000899 -0.005546 0.001723 -0.008771 -0.000281 0.012353 -0.007609 -0.006685 0.029717 -0.009112 -0.002769 -0.012117 0.021637 0.007962 -0.035766 0.028555 -0.005772 0.000918 0.001193 -0.005305 0.004862 0.013954 -0.004887 0.012163 0.000353 0.004793 0.000834 0.012728 -0.014886 0.010322 0.006762 0.006722 0.002384 0.006217 -0.010866 -0.012453 0.023928 -0.024796 -0.000938 -0.004906 0.009552 -0.005690 -0.003804 0.002427 -0.006469 0.015884 -0.024772 0.015704 0.000745 -0.022281 -0.008439 -0.003917 -0.002873 -0.000820 0.014323 0.015956 -0.008674 0.015141 -0.004039 0.000738 -0.008856 0.000110 0.000690 -0.000302 0.001770 0.003818 0.013177 0.008910 -0.002853 0.014034 0.001521 -0.003776 0.013746 0.002444 -0.006762 -0.017947 0.004774 0.003212
0.002273 -0.009981 0.019848 0.006951 0.025836 0.010220 -0.001968 -0.003905 -0.034619 -0.010878 0.005770 0.030117 -0.001800 -0.011959 0.001044 0.024787 0.007667 -0.011328 -0.014244 -0.001386 -0.007592 0.001362 -0.009720 0.029053 -0.008649 -0.001778 0.008118 -0.006151 -0.009755 -0.008538 0.012870 -0.004546 -0.005903 0.008677 -0.006491 -0.004699 -0.022055 0.030256 -0.008087 -0.015780 0.037408 -0.012658 0.033031 -0.010081 -0.018227 -0.005797 -0.010894 0.069932 -0.048380 -0.001010 0.007784 0.009620 0.004808 -0.011884 -0.009788 0.005063 -0.002508 0.005473 0.002606 -0.004747 -0.004301 0.007215 -0.001194 0.008072 -0.011684 0.004284 -0.006405 0.008955 -0.011997 0.000355 -0.027052 0.004355 -0.007542 0.035070 0.001573 0.019036 -0.033522 0.015535 -0.016448 0.016570 0.015417 0.037399 -0.002051 0.007924 -0.022570 0.012203 0.001334 -0.013027 -0.014686 -0.013079 0.000969 0.005700 0.016966 -0.002543 -0.009667 0.022198 -0.001144 0.013323 -0.012799 0.017986 -0.018232 0.001837 -0.017898 0.014300 -0.034156 0.019184 0.006748 0.002417 -0.004360 -0.004143 0.002220 0.015531 -0.003635 0.012647 -0.023785 0.001548 -0.002223 0.014377 0.001411 0.033314 0.007747 0.008975 0.001400 0.002141 -0.007704 0.020912 0.003859 -0.004908 0.004559 0.002697 -0.003801 0.001239 0.013722 -0.001696 -0.005574 0.005017 -0.012677 -0.002033 -0.001990 0.003387 0.008558 -0.000851 -0.005397 -0.002244 -0.006552 0.009248 -0.001414 0.009460 -0.006594 0.002217 0.010119 0.000609 -0.010664 0.000874 -0.000028 -0.000153 -0.003170 0.008450 0.019922 -0.000357 0.013692 0.011264 -0.006689 -0.005165 0.015963 -0.002217 -0.008032 -0.013722 0.022223 0.019062 0.026423 -0.020959 0.004932 -0.016450 -0.006670 -0.003988 0.012437 0.023651 -0.004833 0.005893 -0.016515 -0.011131 0.005121 0.001087 0.007496 0.001610 0.004168 0.011968 0.003181 -0.002361 -0.010863 0.011056 -0.010681 0.014088 -0.000811 -0.011565 0.002671 -0.019624 -0.005189 0.022086 -0.018992 -0.006153 -0.005229 -0.006818 -0.011209 0.007429 -0.012700 -0.023726 0.027219 -0.012453 0.005218 0.002103 -0.021221 0.011011 -0.008679 0.004704 0.008552 0.007931 -0.011551 -0.011608 -0.006392 -0.002742 -0.000316 -0.006529 0.008675 -0.008983 0.003589 -0.012810 -0.006886 -0.001750 -0.013226 0.005438 -0.001205 0.001393 -0.008278 -0.015796 -0.014126 -0.008123 -0.007482 0.002104 0.005583 -0.006936 0.023995 -0.002691 -0.005374 0.021660 -0.008434 0.018579 0.003520 -0.028269 -0.004894 -0.005573 0.012969 0.018472 -0.008544 0.014612 -0.013871 -0.025505 -0.003527 0.011970 0.017257 -0.013489 -0.001406 -0.013655 -0.003519 -0.009749 0.007795 -0.001717 -0.002069 -0.001944 0.021519 0.001612 -0.012302 -0.002469 -0.024596 -0.008313 0.006871 -0.009969 0.014194 -0.013356 0.033424 0.020663 -0.007406 -0.028768 -0.016291 -0.029199 0.001853 0.014158 -0.039056 0.025025 0.003922 0.001261 0.021901 -0.005420 -0.003584 -0.004876 -0.018577 0.014272 -0.006369 0.005034 0.003507 -0.008036 -0.006767 0.014838 -0.005282 0.002919 -0.011274 -0.006052 -0.002568 -0.015954 0.022048 -0.014556 -0.041218 -0.000186 0.021638 0.018685 -0.005677 0.038495 -0.001842 -0.044633 -0.003016 0.002380 0.029282 0.029608 -0.001873 -0.045467 -0.019798 0.005286 0.027500 0.001941 0.030680 -0.006618 0.003870 0.009810 -0.005485 0.001756 -0.012979 0.015501 -0.010159 0.001688 0.005078 0.004611 -0.007944 0.009992 -0.028861 0.003778 0.011840 0.022034 0.018429 -0.005263 -0.019968 -0.008392 -0.013233 0.012087 0.006390 -0.000947 -0.008390 0.013153 -0.003438 -0.000372 0.026584 0.006522 -0.012132 0.003521 -0.010859 0.012404 0.009605 -0.012734 -0.002227 -0.003497 -0.011348 0.011854 0.004560 0.007342 -0.004662 -0.005902 -0.002217 -0.006691 -0.004582 -0.005609 0.009190 -0.000482 -0.013101 0.004140 -0.008791 -0.003449 -0.005546 -0.017557 0.014920 -0.001215 -0.003087 -0.002025 0.004508 0.003956 0.005737 -0.014865 0.009235 -0.001573 0.011837 -0.008414 0.002429 -0.007487 0.012803 0.000268 0.004239 0.009922 -0.008556 -0.007799 -0.003112 0.013277 0.003603 0.011371 -0.000779 -0.012031 -0.004828 0.006736 -0.000884 0.007530 -0.002721 -0.003993 -0.003837 -0.001256 0.015199 0.003112 0.000648 0.010208 0.008790 0.008990 0.017228 -0.003327 0.015125 -0.004839 -0.003066 0.004188 0.006349 -0.025294 -0.013979 0.000567 -0.011800 0.031550 -0.018943 -0.008721 -0.016707 0.010610 -0.000573 0.007695 -0.002589 -0.005143 0.044646 0.023525 0.018203 -0.000805 0.003290 -0.004235 -0.011560 -0.001131 -0.003457 -0.013924 0.019863 -0.015728 -0.002323 0.000561 0.018919 0.004041 -0.006776 0.006000 -0.003412 0.001234 0.003947 -0.007097 0.005151 -0.008045 -0.001532 -0.001873 -0.001285 0.020356 0.019821 0.004362 -0.009712 0.002248 -0.022232 0.013471 0.013027 -0.011325 0.009424 0.017649 -0.035654 0.021446 0.017614 -0.028971 0.017193 0.001741 -0.005153 -0.017047 0.005910 0.022301 0.007333 0.006345 -0.014999 0.016783 -0.012483 0.003435 -0.001625 0.004799 0.011021 -0.006890 -0.012772 0.009711 -0.006549 0.007101 -0.002600 -0.008236 -0.014784 0.007877 -0.006314 0.026481 -0.002168 -0.021133 -0.003210 -0.011553 0.001628 0.004749 -0.008704 0.014336 0.006795 -0.033033 -0.018507 0.007497 -0.002941 0.005438 0.005205 -0.003258 -0.001959 -0.010095 -0.004360 -0.005330 -0.000855 -0.000918 0.002350 -0.001381 -0.000137 -0.005869 -0.007962 0.003031 0.001756 -0.012239 -0.009471 -0.007214 0.003160 0.000106 0.019657 0.009904 0.000960 -0.010746 0.001857 -0.019686 0.008790 -0.011975 0.020519 -0.015160 0.002705 -0.002783 0.022515 -0.015386 0.013612 -0.007448 0.008160 0.008928 -0.010253 -0.003403 0.000435 0.005131 -0.012861 0.007613 -0.009553 -0.005124 -0.006385 -0.006030 0.022801 0.001380 0.013148 -0.015673 -0.002160 -0.004279 -0.031917 -0.005334 -0.000734 -0.006274 0.003441 -0.006693 -0.001801 0.004928 0.017879 -0.000824 0.002054 -0.017497 -0.008541 -0.002046 0.022147 -0.015209
-0.004712 -0.002104 -0.004077 0.001491 0.005819 -0.004520 -0.009988 -0.007317 -0.004548 0.006239 0.009324 -0.006433 0.013601 -0.006644 -0.001643 0.014674 -0.007564 -0.009143 -0.003216 0.010843 -0.024370 0.022715 0.020202 -0.008623 0.007440 0.004876 -0.014595 0.007941 0.009655 -0.046589 0.008069 -0.014405 -0.011167 0.001306 0.038414 0.017382 0.001542 -0.002096 -0.008877 0.022804 -0.010324 0.003239 -0.014177 -0.012877 -0.005574 -0.001543 -0.005657 0.005054 0.000108 -0.009717 0.013135 -0.007361 -0.006416 0.022846 -0.006293 -0.020823 0.016457 0.004106 -0.024721 0.008306 -0.004658 0.013946 0.000821 -0.007757 -0.029781 0.000716 -0.006232 -0.002976 0.001117 -0.017439 0.017856 -0.014886 0.008919 0.001055 0.013345 0.001672 0.010230 0.009226 -0.012024 0.004893 -0.011807 0.000289 0.001584 -0.005249 0.005938 -0.007061 -0.003831 0.000551 0.007737 -0.011487 0.013575 -0.010850 -0.001907 -0.010340 -0.016032 -0.006250 0.006130 0.007626 0.008433 0.002719 0.007092 -0.010575 -0.000371 0.005076 -0.011072 -0.000471 0.016290 -0.013808 0.002789 -0.005626 0.005571 0.001483 0.008907 0.019811 -0.020643 0.015822 -0.003836 -0.006108 -0.003299 -0.012962 -0.015011 0.032709 -0.017286 -0.016490 -0.011481 0.001511 -0.015195 0.010567 -0.001351 0.024397 0.017624 -0.002264 -0.005364 0.005094 -0.012625 -0.004801 -0.000878 -0.010218 -0.002273 -0.004070 -0.016933 -0.014000 0.000355 -0.000857 0.019344 0.003668 0.007576 -0.004798 -0.040711 0.009207 -0.011094 -0.034278 -0.000242 0.003345 0.026189 -0.012198 0.020520 -0.012217 0.008745 0.019551 0.012297 -0.002437 0.035153 -0.013608 -0.005766 -0.044219 0.009249 -0.019138 0.046984 -0.014145 0.008776 -0.012495 0.020812 0.002102 -0.008861 0.005416 0.003112 0.001456 0.020425 -0.003253 0.000747 -0.001439 0.015053 -0.006318 -0.011122 0.000762 -0.007450 0.005423 0.001157 0.004123 0.019734 -0.014630 -0.027218 -0.022307 0.020140 0.001136 0.012244 -0.026116 -0.022871 0.035241 0.002917 0.001013 0.023428 -0.025551 0.010084 -0.023127 -0.010847 0.000369 0.037424 -0.024333 -0.004537 -0.003903 0.007632 -0.006000 0.004624 0.018449 -0.012878 0.004947 0.018833 -0.016596 0.017081 -0.003385 0.001784 0.014308 -0.017377 -0.001897 0.019565 0.009121 -0.003074 -0.001337 0.017025 -0.002338 -0.007772 -0.000871 -0.011027 0.004891 0.008680 0.014091 -0.001324 -0.016431 0.013016 -0.006376 0.006535 0.000479 -0.000934 -0.007864 -0.009424 -0.022202 0.003240 -0.007849 0.004651 0.003245 0.001574 -0.003407 -0.000261 0.008444 0.000685 -0.027050 -0.014595 -0.009841 -0.014946 0.014038 0.001884 -0.011822 0.018790 0.003009 -0.025877 0.032460 0.007496 0.003630 -0.010272 -0.016597 -0.009688 0.019639 0.007814 0.012057 0.003897 -0.007356 0.007080 0.022280 0.005212 0.003147 0.006351 0.021856 0.003364 0.014919 -0.014909 0.000382 0.019261 -0.021120 -0.009536 0.045992 -0.040088 0.025144 0.015408 0.009932 0.014989 0.001978 -0.011298 -0.007129 0.004397 0.015648 -0.010646 0.006550 0.001089 -0.022868 -0.000652 -0.011987 0.008964 -0.010404 0.002816 0.003813 -0.010262 0.001633 0.004081 -0.014342 0.016028 0.018512 0.008252 -0.029759 -0.005160 0.009450 0.008607 -0.008257 0.008828 -0.008031 -0.013554 -0.005199 -0.016328 -0.001889 -0.019717 0.023560 -0.004509 -0.006973 0.014761 -0.008742 0.015020 -0.020191 -0.003394 -0.006905 0.018026 0.018478 0.019918 0.000251 -0.025044 0.010658 -0.004733 -0.025105 0.004566 0.014426 0.021326 0.004558 0.020637 0.008517 0.003623 0.002684 -0.014348 -0.012582 -0.007877 -0.002306 -0.007761 0.029201 -0.042247 0.041943 -0.007661 0.012931 -0.023493 0.003288 -0.021327 0.005161 0.002619 0.000773 0.005539 -0.008240 -0.004125 -0.005692 0.013316 -0.002070 0.006900 0.012754 -0.007561 0.005262 -0.014879 0.016928 -0.000337 0.002662 -0.011152 -0.002964 0.007080 0.023981 -0.022070 0.051840 -0.013526 0.019485 0.019830 0.003690 0.005325 -0.018885 -0.021437 -0.015219 -0.015732 0.050788 0.038555 -0.035800 -0.008544 -0.025332 -0.006470 0.017283 0.001413 -0.023848 -0.004854 0.008597 0.000313 0.001174 -0.012543 -0.005268 -0.003032 -0.013876 0.014535 0.006173 -0.004609 0.007194 0.006462 -0.002699 -0.005500 0.006605 -0.012651 -0.007304 -0.002401 0.001579 -0.007396 -0.009283 -0.032249 -0.004148 0.039410 0.018330 -0.023245 -0.024500 0.009111 0.033377 0.015210 0.024207 0.006709 -0.029358 0.006707 -0.046345 0.016975 0.012544 0.061540 -0.015090 -0.010304 0.011252 0.013637 -0.013491 0.001596 0.003743 -0.014853 0.013276 -0.013090 -0.011350 0.002934 0.017383 -0.016147 -0.005437 -0.028103 0.004131 0.026193 0.004278 -0.001731 0.004422 0.006635 0.002789 -0.007036 0.004715 0.014316 0.004505 -0.010720 0.033367 0.005514 -0.014520 0.007006 -0.009041 -0.002488 -0.015929 -0.021669 0.002549 -0.009910 -0.008870 0.001549 0.006811 0.008493 0.010190 0.008531 -0.005337 -0.010888 -0.017941 -0.021533 -0.001064 -0.002273 -0.000205 -0.017992 -0.004032 -0.009013 0.025133 0.026312 -0.008674 0.000803 -0.022518 -0.006521 0.030417 -0.012183 -0.000538 0.005309 0.007325 -0.009950 0.014749 0.000031 0.001320 -0.001893 -0.002011 0.000195 0.001989 -0.002021 0.010651 0.017839 0.004442 -0.007667 -0.000741 -0.019682 0.014744 0.010279 -0.020183 -0.058189 -0.004156 -0.001754 0.011801 0.007332 0.022494 0.001426 0.021824 -0.004503 0.007969 0.010475 0.016685 -0.007152 0.011621 0.001533 -0.014528 0.009900 0.002958 -0.008044 0.019782 -0.003860 -0.002508 -0.000802 0.003849 -0.009724 0.002165 0.007983 -0.000747 -0.006795 0.012264 0.004134 -0.002437 -0.010621 -0.012134 -0.001059 0.011092 -0.007889 0.028916 -0.004328 0.004402 0.002003 -0.012716 0.025375 -0.004862 0.004824 -0.020285 0.001336 0.003248 0.002404 0.009291 -0.002150 0.002721 -0.005373 0.003057 0.007687 -0.015155 -0.000901 0.004208 0.003633 -0.002596 0.002783 -0.013663 -0.020401 -0.000822 -0.006270 0.007180 -0.008729 0.010097
0.009808 -0.014127 0.004353 0.017614 -0.015097 0.025926 0.011665 -0.018318 0.004132 0.012185 -0.017846 0.023067 0.001185 -0.004219 -0.000103 -0.006762 0.003044 -0.010971 0.008363 0.009909 -0.011354 -0.005772 0.002589 0.005165 -0.018646 0.013352 0.011395 -0.000257 -0.008094 -0.006297 -0.003716 -0.010747 -0.015558 -0.012991 0.008971 0.006850 -0.002764 -0.003290 0.006332 0.018927 0.031494 -0.037408 -0.046270 0.014947 0.003803 0.019696 -0.010858 0.022797 -0.014290 0.005882 -0.022409 0.008834 -0.015231 0.002528 -0.014640 -0.007745 -0.002114 0.003176 0.002634 0.011772 -0.003645 0.008601 -0.004172 -0.000469 -0.017431 -0.000996 0.003881 0.014665 -0.012764 -0.003617 -0.025053 -0.008268 0.001269 0.034697 0.014582 -0.005870 0.009520 -0.026469 -0.012131 -0.015306 -0.016007 0.001918 0.013412 0.021095 0.025892 -0.009475 0.003173 -0.009800 -0.004213 0.002040 -0.003859 -0.035189 0.008683 0.002685 0.023907 0.003476 -0.011499 -0.022522 0.001148 0.013008 0.002118 0.019709 0.001516 0.023977 -0.030208 0.007941 -0.000622 -0.002128 0.012431 0.001261 0.000359 0.009519 -0.004812 0.004551 0.012294 -0.019089 -0.017032 0.004152 0.013920 0.025085 -0.007072 0.001699 -0.001257 0.005569 0.001779 0.017057 -0.015067 0.001513 0.013090 -0.017967 -0.006124 -0.010645 0.006146 -0.000054 -0.000921 -0.008268 -0.013857 -0.000265 0.005736 -0.007396 -0.004859 -0.013973 -0.021897 -0.002534 -0.001030 -0.016452 -0.001695 0.008806 0.017632 0.013002 0.009258 0.012805 0.015930 -0.002874 0.001332 -0.010848 -0.004299 -0.010329 0.007194 -0.016680 0.010680 -0.006162 -0.004369 0.005426 0.004083 -0.008624 -0.005278 0.012278 0.003464 0.005688 0.014357 0.002192 0.008148 -0.002927 0.007311 -0.014203 0.003362 0.007930 0.000211 -0.012127 0.003210 -0.001675 0.021487 -0.000557 -0.005869 0.001391 -0.002169 -0.004628 -0.006765 0.002137 0.003715 -0.010496 -0.017061 0.005994 0.010660 0.017754 -0.000166 0.003470 0.002549 0.018791 0.001763 0.014000 -0.006181 -0.010419 0.017985 -0.017677 -0.009059 -0.005655 -0.012563 0.014532 -0.006342 0.000361 0.006949 -0.006287 0.011016 -0.006822 0.002965 -0.006309 0.002792 0.021617 0.003242 0.001416 -0.009782 0.009374 -0.007046 0.017022 -0.005311 -0.005823 -0.005558 0.008315 -0.005080 -0.018219 0.014150 0.006448 -0.005074 -0.012950 -0.002415 0.008416 0.005736 0.011713 -0.002992 -0.004201 0.033019 0.014327 -0.005066 0.015100 -0.003635 -0.049972 -0.012200 0.004560 0.011562 -0.007097 0.006902 -0.002446 -0.001714 0.013275 0.010783 0.015629 -0.002866 -0.009909 0.014443 0.011553 0.024181 -0.019301 -0.000251 -0.002993 0.000751 -0.017580 0.006951 0.011000 0.020386 0.007944 0.002924 -0.017482 0.018635 -0.020320 0.002812 -0.004667 -0.001273 -0.008643 0.020293 0.000461 -0.000874 -0.007176 0.003909 0.022053 -0.010136 -0.016515 -0.000376 0.016739 0.013002 -0.006903 -0.004399 0.015222 -0.009935 -0.006057 -0.002925 0.021944 -0.011982 0.006329 0.008736 -0.008174 0.017334 -0.002859 0.007903 0.009281 0.011259 -0.002906 0.001935 -0.011192 -0.004321 -0.039959 0.007493 0.004905 0.018389 0.005501 -0.009480 0.008521 0.005987 -0.015115 0.018522 -0.006824 0.019510 0.020567 -0.009351 -0.005275 0.000630 0.037146 -0.023043 0.009042 0.003768 -0.011848 -0.014650 -0.000146 -0.008803 -0.001254 -0.000768 -0.004557 -0.006596 -0.005869 -0.008600 -0.004878 -0.032484 0.033582 -0.036472 0.014468 -0.001774 0.011777 0.001596 0.011764 0.005765 0.000228 0.007927 -0.009406 0.013732 -0.026182 0.005823 0.011072 0.008101 0.009177 -0.002291 0.006427 -0.001510 -0.006213 -0.006868 0.007886 -0.014370 -0.013246 0.013402 -0.013017 0.008617 -0.004079 0.013436 -0.010579 -0.001767 0.005764 0.008748 -0.004106 0.007365 0.016513 0.003347 0.001930 0.009705 -0.019263 0.016844 -0.030542 0.021104 -0.019027 0.027393 -0.009642 0.016355 -0.011176 0.004190 -0.002675 0.006233 -0.014932 -0.000176 -0.009172 -0.000662 -0.002921 0.007207 -0.002054 -0.008884 -0.010433 0.004665 -0.003369 0.014560 0.003872 0.013739 0.007980 -0.006785 0.017548 0.011879 -0.004194 0.005386 0.019363 0.003874 -0.000898 -0.013925 -0.009980 0.003242 0.002117 0.023028 -0.005991 0.005841 -0.009864 -0.007617 -0.013525 -0.009246 -0.013410 0.014139 -0.015100 -0.026121 0.007140 0.002814 0.003741 0.006993 0.014834 -0.025085 -0.006733 0.003622 -0.001074 0.000289 -0.014868 0.021259 -0.032159 0.000397 0.022430 0.006699 0.010871 0.003543 0.001270 0.000886 -0.006340 0.001733 -0.004994 -0.008860 -0.007002 0.003699 -0.002727 -0.007022 -0.002201 0.010509 -0.005276 0.015368 0.002866 0.009743 0.001964 -0.008108 0.001933 -0.017970 0.003515 0.003829 0.023725 0.005889 0.000216 -0.007443 -0.008717 0.012708 -0.005747 -0.006580 0.005746 0.049880 0.004545 0.007700 0.002573 -0.016746 -0.022891 -0.007452 0.003018 -0.003989 -0.000523 -0.009669 0.003459 -0.015640 0.004113 0.009171 0.005176 -0.002225 -0.012088 0.003004 0.001216 0.006908 -0.001839 -0.015391 0.013587 -0.009457 -0.003277 0.009244 -0.003532 -0.005417 -0.008114 0.007547 -0.023000 -0.003476 -0.015413 -0.013599 0.015682 0.002135 0.005609 0.014840 -0.022022 -0.010237 0.023993 0.003121 -0.003789 0.016905 0.003645 0.004410 0.015829 0.010226 0.003620 -0.007501 0.010797 -0.006852 0.026238 -0.004894 -0.007667 -0.011918 -0.003595 0.001380 -0.007462 0.006865 0.013857 0.009786 0.005572 -0.004634 0.010655 -0.006697 -0.015461 0.001598 -0.003330 0.034961 -0.007179 0.028879 -0.023964 0.008027 0.001632 -0.001933 -0.011282 0.020795 -0.006736 -0.007500 0.007410 0.004061 -0.001818 0.005209 0.021997 0.001768 0.005620 0.005312 -0.011522 -0.010186 -0.002970 0.000068 -0.014461 -0.004164 0.001678 -0.001586 0.007153 -0.006788 -0.016245 -0.001375 0.008134 -0.007303 0.004120 -0.011517 -0.012963 -0.007370 -0.015352 0.018083 -0.002599 0.021025 -0.010401 0.011905 -0.007774 0.007258 -0.001752 -0.001038 -0.016230
-0.003392 0.003732 -0.007596 0.015344 -0.003337 0.019045 -0.000597 -0.000608 0.009241 -0.009376 -0.005924 -0.005882 0.016182 -0.018560 -0.005913 0.004034 0.004528 0.001523 -0.017507 0.008283 0.003123 0.009261 0.009082 -0.011873 -0.006264 0.004885 -0.009574 0.005668 -0.005191 0.009850 0.002749 0.011070 0.006067 0.004610 -0.016939 0.005491 -0.003490 -0.029562 0.023167 0.003609 -0.007257 -0.004999 -0.001285 -0.006799 -0.001432 -0.007003 0.009879 0.001001 0.005741 0.003032 0.021840 -0.012833 0.014345 -0.008810 -0.009548 0.011499 0.015628 -0.008870 -0.003440 0.007752 -0.013399 0.003216 0.004021 0.015219 0.003628 -0.007165 0.001067 -0.002599 -0.011220 -0.004027 0.001454 -0.005732 0.009745 -0.004338 -0.011616 0.005328 -0.008380 -0.023582 -0.004864 -0.000490 -0.020373 -0.014738 0.002521 -0.012757 -0.003207 -0.018462 0.008715 -0.001684 -0.019528 0.017504 0.014192 0.005612 0.016736 0.008704 -0.014322 0.003240 -0.010429 -0.017608 0.000438 -0.009927 0.016024 0.013228 -0.007690 0.004499 0.002558 -0.008413 -0.000031 -0.013752 0.005998 -0.001540 -0.007171 0.014195 0.006270 0.009957 -0.009770 -0.003935 -0.004621 0.006748 0.007793 -0.002794 -0.003545 -0.001785 -0.012140 0.030552 -0.001626 -0.001503 -0.005295 0.004070 -0.006383 -0.007891 0.002658 0.001163 0.019740 0.004721 -0.012387 -0.007212 0.013184 -0.015900 -0.010310 0.002002 0.008452 0.002276 0.004504 0.009761 -0.035601 0.000073 -0.019131 -0.042856 0.008766 -0.006523 0.014022 0.013389 0.026305 -0.020955 -0.013183 0.003191 0.013507 -0.020540 0.000980 -0.006155 -0.004052 0.011266 -0.010066 0.006593 -0.012738 -0.010962 -0.022565 0.021558 0.009635 0.026682 0.010489 0.004939 0.002266 0.017499 -0.006807 -0.012416 -0.018363 0.002883 -0.012853 -0.018911 0.002584 -0.015049 0.009334 0.002958 -0.004123 0.008318 0.001613 -0.011533 -0.007829 -0.014535 0.025234 -0.007380 0.006326 0.032840 -0.016744 0.002383 -0.011009 -0.036746 0.028151 -0.009884 0.001831 -0.022513 -0.007237 -0.002867 -0.008967 0.001960 0.012530 0.007427 0.011832 -0.001894 0.000022 0.003233 0.010460 -0.001735 -0.012856 0.006873 -0.004616 0.009191 -0.003740 0.007069 0.027319 -0.006327 0.010093 0.016515 -0.014666 0.013765 0.005542 -0.015664 0.008360 -0.001250 0.008604 -0.009231 0.014938 -0.007806 -0.011111 0.005209 -0.015034 -0.018976 -0.000367 -0.008262 0.020205 0.006699 0.005287 -0.011691 0.003474 0.001913 0.018081 -0.002749 -0.006119 0.013769 0.006001 0.004772 0.003336 0.005209 0.002072 0.015181 -0.013510 -0.004232 -0.000520 -0.002960 -0.020830 -0.004153 0.005195 0.000378 0.008453 0.022834 -0.007155 0.029449 -0.004086 0.022344 0.011669 0.012403 0.009583 -0.002964 -0.034905 0.004787 -0.003091 -0.029328 0.023380 -0.021462 -0.018567 0.000067 0.001660 -0.010699 0.001350 0.011221 0.012237 -0.018208 0.002134 -0.003104 0.013419 0.008032 0.007857 0.012198 -0.008493 -0.019724 -0.002410 -0.011736 0.023054 -0.005687 -0.023413 -0.003864 0.002927 0.013458 -0.010417 0.012733 -0.017582 0.009899 0.002434 0.005279 0.002853 0.005634 0.008807 0.003999 -0.004318 0.003222 0.002937 -0.011498 0.013517 0.003204 -0.008177 -0.001453 -0.018840 -0.006081 -0.005467 0.000616 0.007309 0.006672 0.010336 0.022347 -0.009908 0.031117 -0.006045 -0.030613 -0.005245 -0.012593 0.016047 -0.002579 0.010803 -0.003291 -0.002094 -0.002530 -0.007372 0.002000 0.007201 0.001494 0.001299 0.013292 0.007005 0.007118 -0.001010 0.007781 0.008421 0.005792 -0.013375 -0.009473 0.002186 0.020977 -0.013344 -0.003662 -0.008672 0.000787 0.002457 0.041535 -0.008179 0.005580 -0.013017 0.002330 0.003200 -0.021443 0.006362 -0.004344 -0.000597 0.018257 -0.023718 -0.004101 -0.009967 -0.016194 -0.005910 0.019070 -0.002060 0.000740 0.019331 -0.002949 -0.019771 0.002033 0.002781 -0.003047 0.033207 -0.025848 0.005503 0.040760 0.007409 -0.037693 -0.003160 -0.026930 0.008407 -0.006399 0.040476 -0.003283 -0.016015 -0.002891 -0.030051 -0.009126 0.005339 -0.025551 -0.027651 0.048983 0.005729 0.049138 -0.002031 -0.001844 0.000498 -0.007552 -0.017780 0.005994 0.018435 0.016183 0.010498 -0.002578 -0.004585 0.008912 -0.001832 -0.004172 0.004567 -0.004386 0.007977 0.014677 0.007185 -0.013096 -0.001676 0.010827 -0.019094 0.005301 -0.029074 0.006596 0.037724 -0.036249 0.014800 0.034767 -0.003665 0.042674 -0.009997 -0.007705 -0.004449 -0.033186 0.014102 0.008583 -0.002851 0.009137 -0.026766 -0.007979 -0.012217 0.008287 0.004886 0.007120 -0.019022 0.005651 -0.013725 0.003361 0.003814 0.002566 0.005507 -0.010194 -0.031436 -0.001763 0.019600 0.014767 0.015920 -0.015600 -0.012004 0.007868 0.020356 -0.004100 0.006476 0.003066 -0.015873 0.008658 -0.009137 -0.004891 0.002486 -0.004151 -0.012934 -0.003733 -0.010833 -0.017605 0.008004 -0.002023 0.003923 -0.008691 0.011977 -0.000740 -0.006266 -0.007374 0.020039 0.007202 -0.001354 -0.005589 -0.006117 0.004037 0.013557 -0.010090 -0.000228 0.020789 0.019262 0.010982 0.003012 -0.009540 -0.005955 -0.011359 0.006126 0.022735 0.009381 0.002030 -0.009808 -0.006893 -0.003381 -0.002689 0.001464 -0.008374 0.010379 0.010790 -0.001582 -0.006354 0.006191 -0.004612 -0.005856 -0.003026 0.005093 -0.019480 -0.007210 0.011478 -0.001385 -0.019221 0.034166 -0.008827 -0.007059 -0.003358 0.023101 0.010722 0.004656 0.001073 -0.000549 0.009175 -0.006705 0.008647 0.008416 -0.000787 0.013121 -0.017318 0.008878 0.021599 -0.011200 -0.014819 0.001998 0.004718 0.004830 0.024025 0.004015 0.017709 0.001724 0.003503 0.012335 -0.005707 -0.004702 -0.001901 0.014673 -0.014883 -0.023508 0.005831 -0.031027 0.009298 0.015013 -0.015673 0.025433 0.001245 0.003177 -0.024380 -0.012533 -0.000667 0.013247 -0.001282 0.005275 -0.005079 0.000603 0.021850 0.000311 -0.013168 0.003120 0.001102 0.014778 -0.003711 0.000408 0.011809 -0.014410 0.001601 -0.004586 0.009760 -0.002247 -0.009719
0.014104 -0.005755 -0.008040 -0.002488 0.002297 0.013990 -0.018519 0.002480 0.003506 -0.001949 0.001653 0.006741 0.009474 0.008632 0.005831 -0.000682 0.009053 -0.007592 -0.008113 0.002723 0.012366 0.009763 0.012159 -0.012530 -0.007858 -0.011868 0.005021 -0.004868 0.020500 -0.029421 -0.020302 0.024753 -0.000620 -0.036123 0.045126 -0.013674 -0.005247 0.007531 0.005065 0.010704 -0.017166 0.001550 -0.037548 -0.006491 0.011496 0.006804 -0.017944 0.034415 0.006390 0.006192 -0.003155 0.014982 0.006718 0.004132 -0.002848 -0.001081 0.005655 0.000317 -0.005910 0.007475 0.007455 -0.002178 0.012411 -0.000489 -0.003418 -0.003508 -0.000883 -0.000188 0.007056 0.006338 -0.009990 0.013819 0.005562 -0.004103 -0.006338 -0.013493 0.039801 -0.027495 -0.017884 -0.021621 -0.015218 -0.013482 0.004246 0.001510 -0.002955 0.015781 -0.008777 0.039531 -0.017222 0.034919 -0.002795 0.000110 -0.025865 0.001478 -0.004786 0.007452 -0.008837 0.011431 0.019578 0.030268 0.000855 0.012391 -0.015910 -0.010223 -0.023214 0.002022 0.020445 0.010603 0.013867 0.003811 -0.000614 -0.006178 0.014138 0.024791 -0.000442 0.016119 0.021422 -0.009264 -0.011439 -0.011651 0.007842 -0.004816 0.009230 0.001579 0.004926 0.001686 0.000877 0.012920 -0.005159 -0.003757 -0.009065 0.011987 0.020197 0.001746 -0.002005 -0.001226 0.009204 0.001904 0.002061 -0.002563 0.006576 0.004189 0.015759 0.010219 -0.020504 -0.021296 0.031816 0.018155 0.014778 -0.009769 -0.000527 0.003123 0.010697 -0.006526 -0.018821 0.004001 0.010683 0.009541 -0.004877 -0.006120 0.012878 -0.003631 -0.004136 0.008560 -0.002017 -0.011085 0.001197 0.000067 -0.000404 0.006371 -0.012446 0.010482 0.001277 0.005507 0.003774 -0.001169 -0.008246 -0.001535 -0.016771 0.022876 0.006525 0.009094 -0.017269 0.015305 -0.021332 0.000612 0.008180 0.017728 0.013717 -0.006174 0.005236 0.002607 -0.019665 0.018748 0.013186 0.000563 -0.013118 0.005706 0.018625 -0.010058 0.017315 0.000724 0.003553 0.003757 0.001865 -0.010698 0.021657 -0.008853 -0.010971 -0.040142 -0.008057 0.002589 0.017129 -0.011682 0.010553 -0.018033 0.007815 -0.007312 -0.010262 0.006567 0.001985 -0.009243 -0.005177 0.004446 -0.004907 0.000285 -0.005721 -0.017829 -0.004422 0.000990 -0.001634 -0.009823 -0.007029 0.002833 0.007566 0.008310 -0.007949 -0.010174 -0.014013 -0.005336 -0.000235 0.000838 0.008031 -0.005869 -0.008418 -0.002506 0.001570 -0.001259 0.003227 -0.002132 0.004319 -0.008343 -0.000814 0.004294 -0.025054 0.027226 -0.007302 -0.007560 -0.012943 0.003720 -0.014763 0.002347 0.010340 -0.003743 -0.001019 -0.007296 0.003766 -0.008968 0.003671 -0.000032 -0.023299 0.009446 0.027315 -0.032473 -0.000333 -0.009991 0.004651 -0.022993 -0.002808 -0.002361 0.000634 0.009957 -0.039982 -0.007389 0.017603 0.021729 -0.010872 0.019948 0.016308 0.012616 0.001157 0.015477 0.000106 0.008966 -0.030622 -0.000737 -0.002114 0.009802 -0.019415 0.008406 -0.004411 0.002699 -0.007057 0.004949 -0.007480 0.011496 0.003496 -0.030676 -0.008761 0.001703 -0.002589 0.015670 0.021268 0.017060 -0.017812 -0.029797 0.000834 -0.029339 -0.001918 -0.009865 0.002425 -0.015410 -0.001730 0.013075 -0.001363 0.014209 -0.023314 0.017478 -0.013584 -0.001039 -0.006564 -0.002593 -0.010577 -0.012598 0.006111 0.009213 0.003521 0.007301 -0.000422 -0.008756 0.003165 -0.020006 -0.022367 0.009590 -0.022501 0.002391 0.021206 0.001383 0.022686 -0.002622 0.007382 -0.000244 0.005650 -0.000333 -0.021418 0.003231 0.020676 -0.002659 0.003078 -0.007771 -0.000108 -0.007124 0.020214 0.004883 0.000656 0.003073 -0.008119 -0.005776 0.010396 -0.003076 0.001606 0.007129 -0.004791 0.003639 -0.005889 0.007706 -0.020736 -0.001808 0.007399 -0.002052 0.005005 0.008187 0.028512 -0.008962 0.013229 -0.016043 0.004751 -0.002778 0.002363 -0.015034 0.001530 0.007305 -0.019139 -0.002154 -0.012295 0.010147 0.001967 -0.020232 -0.010698 0.010805 -0.004069 -0.001647 0.005003 0.010594 0.002273 0.011256 0.002106 0.003007 0.003123 0.004066 -0.008822 -0.005702 0.016159 0.013019 -0.001824 0.004320 -0.000490 -0.015749 0.003912 -0.005631 0.010140 0.002243 0.011209 0.010233 0.002564 -0.008055 0.005289 0.002175 0.010057 -0.005191 -0.010034 -0.002249 0.017479 0.010659 -0.019323 0.006424 0.000458 -0.009776 0.003666 -0.016098 0.012344 0.007446 -0.020054 0.002194 -0.010306 0.011920 0.009839 -0.002092 0.005412 -0.016679 -0.000070 -0.002147 0.003131 -0.007275 -0.004147 -0.007092 -0.009671 -0.011400 -0.007278 -0.013362 -0.014717 0.002991 0.003681 0.011935 -0.006713 -0.005328 0.012389 -0.003613 -0.006679 -0.001044 -0.007335 -0.002147 0.008523 0.002159 0.010031 -0.001643 0.005135 -0.004249 -0.011463 0.012172 -0.006150 -0.010933 0.000511 0.012497 0.013019 0.001260 0.004078 0.014696 0.005012 -0.005536 0.009276 0.000034 0.003483 -0.007533 0.009366 -0.004554 0.005703 0.004889 0.004870 0.013019 0.006042 0.002120 0.008755 -0.009654 -0.000094 -0.003135 0.004008 -0.017847 0.005782 -0.002835 0.019131 -0.008821 0.008788 -0.004374 -0.005391 0.005125 -0.010094 0.008655 -0.002653 0.002653 -0.010647 -0.001623 -0.000336 0.021785 -0.017058 -0.005114 0.006544 0.005688 0.012758 0.013621 -0.009069 -0.005005 0.013826 -0.003989 0.003010 0.013721 -0.001851 -0.013394 0.007788 -0.017653 0.002035 -0.006837 -0.000205 -0.001385 0.004124 0.012815 -0.002307 0.001463 -0.004439 -0.007513 -0.004572 0.014330 0.011639 -0.006766 0.004086 0.006195 -0.017999 0.008872 -0.003855 0.010644 -0.002319 -0.011951 -0.008231 -0.001638 -0.007867 0.034060 -0.006796 0.004228 -0.007461 -0.015114 -0.003521 0.001118 0.004785 0.008916 -0.007140 -0.000624 0.017700 0.009289 0.000693 -0.025320 -0.008981 -0.007444 0.004376 0.007724 -0.002751 -0.000947 -0.009947 -0.007128 -0.017444 0.011294 0.009775 0.013990 -0.012792 -0.010844 -0.009325 0.002742 -0.001681 -0.001590 0.009909 -0.011743
