-0.006615 -0.018180 -0.005093 -0.003839 -0.010125 -0.001263 0.011814 0.014856 -0.013154 0.008392 0.006544 0.004125 0.001263 0.006178 0.009335 -0.005301 0.002864 0.014377 0.004295 0.006980 -0.003100 -0.001785 0.003811 -0.007938 0.011204 0.016706 0.011214 0.007727 0.015145 0.001765 0.016389 0.004027 0.011009 0.001722 -0.007231 -0.010554 -0.000336 -0.006495 0.000910 -0.014718 0.010418 -0.012644 -0.003572 0.007277 -0.001291 0.004025 0.011514 -0.005050 0.003776 0.003579 -0.013202 -0.002566 -0.000536 -0.011270 -0.001363 -0.029857 0.015593 -0.000350 0.008040 0.005634 -0.005732 -0.010418 -0.005634 0.014825 -0.002908 -0.007675 0.004026 0.007566 0.016482 -0.000843 -0.009529 -0.002596 0.015350 -0.008693 0.009891 0.001757 0.013441 0.007905 0.001603 0.015722 0.002455 -0.011143 0.004645 0.002096 0.025059 0.003396 -0.002924 0.011837 -0.000367 0.003098 -0.006193 -0.001281 0.007027 0.000778 -0.002673 -0.003882 -0.003118 0.002378 -0.009053 0.001727 -0.007139 -0.005020 0.005080 -0.000569 0.000892 -0.012793 -0.018874 0.000637 0.011084 -0.005759 -0.016088 0.004636 0.012897 -0.010369 0.004059 -0.008993 -0.013779 0.012978 -0.006097 -0.007606 0.015103 0.008098 0.005021 0.004868 0.001305 0.007104 -0.008051 0.001346 -0.000062 0.003913 -0.013580 -0.000387 0.013835 0.014725 0.009445 -0.009116 -0.004531 0.008047 -0.002021 0.004926 0.001140 0.005253 -0.006988 0.015759 0.007894 -0.011185 0.002353 0.001829 -0.009251 -0.004473 0.002954 -0.000973 0.008121 0.003988 -0.005862 0.002266 0.002902 0.000200 0.000838 -0.005479 -0.008483 -0.012862 0.003029 -0.002277 -0.003983 0.000215 -0.002639 0.005025 0.003179 0.023150 -0.003485 -0.006233 0.002820 0.015001 0.005107 -0.000291 0.001244 0.013095 0.010461 -0.000500 0.006692 -0.001796 0.007636 0.012105 0.007577 -0.012167 -0.002222 0.009549 -0.003381 -0.000631 0.011595 -0.012472 0.002745 0.004196 -0.002278 0.001031 -0.004536 -0.011739 -0.003908 0.006562 0.002376 -0.005727 0.001370 -0.004903 -0.005629 -0.001699 -0.016789 0.010562 0.012056 0.005846 -0.002293 -0.012783 0.015716 -0.002624 0.014804 -0.007701 -0.014380 0.010419 0.005768 0.003961 0.001403 -0.006568 -0.003460 0.027286 0.000225 0.009742 -0.010321 -0.010236 0.000595 -0.013441 -0.013345 0.017632 -0.002846 -0.014383 0.000583 0.010521 0.005725 0.006649 -0.000337 -0.001660 0.007706 0.004087 0.005566 -0.000912 -0.013305 0.013318 0.007948 -0.002771 0.003553 0.006580 0.006903 0.002700 -0.003803 -0.000868 0.000694 -0.008225 -0.000988 -0.008994 -0.004418 0.002361 -0.014430 -0.007585 0.019932 -0.007167 0.011410 0.000320 -0.002863 0.023355 0.008614 0.018831 0.007784 -0.010202 0.004163 -0.006706 0.001928 0.000342 0.000581 -0.006124 0.006442 0.002353 -0.001576 -0.005448 -0.002055 0.001505 0.003305 0.011189 -0.006613 0.010220 0.006903 -0.003620 -0.012222 -0.006524 0.007131 -0.000552 -0.014213 -0.044642 0.010783 -0.002258 0.022149 0.020295 0.017486 0.001919 0.001950 0.017077 -0.009794 -0.002837 0.001744 0.007091 -0.002914 -0.014302 0.001123 -0.004509 -0.001749 0.004425 -0.007230 -0.001575 0.006547 -0.000840 0.011900 0.008473 -0.004242 -0.010089 0.022949 0.005672 0.029999 0.017835 0.000172 -0.019447 -0.014254 -0.001578 0.006917 -0.001370 0.003019 0.010708 -0.021371 -0.013677 -0.007125 -0.011944 0.017134 -0.005955 -0.003448 0.004668 -0.003017 0.004072 -0.001347 -0.016659 -0.011914 -0.001015 0.009536 -0.010413 -0.004698 0.005942 0.008099 -0.027838 -0.002888 -0.000298 -0.002957 0.006351 0.014569 -0.011034 0.001121 -0.016191 0.001277 0.003712 -0.002111 0.005772 -0.003197 -0.000882 0.006522 0.000465 -0.007642 -0.026237 0.003655 0.009101 -0.000246 -0.009424 -0.001939 0.012168 0.011002 0.018379 -0.001935 0.001284 0.007328 0.009383 -0.011612 0.011589 0.014174 -0.009921 -0.006627 -0.015348 -0.009105 0.006871 0.004419 -0.000228 -0.015236 0.003398 0.004946 -0.004282 -0.008948 -0.001433 0.006939 0.002394 0.005651 -0.023167 0.004941 -0.010507 0.011949 0.004134 0.002514 0.011694 -0.002921 0.012166 -0.001820 -0.004680 0.010655 -0.011100 0.021214 0.006994 -0.003097 0.003479 -0.021989 -0.008749 0.008585 0.019503 -0.004545 0.000560 -0.016188 -0.005344 -0.001891 -0.023451 0.002552 -0.013511 0.007646 0.008566 -0.014347 0.009456 -0.000965 0.015204 -0.004096 -0.000813 -0.001601 -0.005697 -0.001768 -0.008184 -0.011067 -0.008453 -0.011378 0.012666 0.000610 0.004037 -0.007290 -0.008756 0.002423 -0.022729 0.000743 0.004257 0.015686 0.006348 0.011970 -0.000717 -0.023523 -0.003372 0.009923 0.011019 -0.000972 -0.015993 -0.014634 -0.006370 0.004851 -0.014043 0.001013 0.015413 0.005265 -0.008609 0.003353 -0.005792 -0.001497 -0.014686 -0.002643 -0.002215 0.014793 0.017508 -0.020691 -0.002230 -0.011529 0.007848 -0.001514 -0.013879 0.002315 0.013419 0.012774 -0.012331 0.006981 0.019053 -0.007422 -0.003554 0.005829 -0.008925 -0.000142 -0.012336 -0.002441 -0.002943 -0.003676 0.001721 0.014274 0.008010 0.005930 -0.001299 0.001521 0.008148 -0.002859 0.002787 0.005607 0.004186 0.004864 -0.001022 0.015326 -0.006648 0.004007 0.010569 0.003102 -0.003369 0.009374 -0.013676 -0.015316 0.006368 0.005462 -0.010535 0.004387 -0.000646 0.002822 0.013119 0.008590 0.010879 -0.011240 -0.041901 0.028375 -0.005473 0.003552 0.020810 0.012417 -0.000036 0.001428 0.004899 0.005536 0.001417 0.008440 -0.010645 -0.002972 -0.012725 -0.019874 0.005590 -0.013155 0.008942 -0.005822 0.003493 0.002848 -0.018562 0.003926 -0.004150 -0.017591 0.019063 0.004291 -0.007055 0.004600 0.002432 -0.013533 0.008021 -0.015401 -0.006352 0.005712 0.006625 -0.000158 -0.004948 -0.020170 -0.005944 0.005663 -0.016316 -0.002546 0.002492 0.004499 -0.012347 0.003581 -0.004745 -0.008972 0.001729 0.005117 0.006208 0.003877 -0.006271 0.001187 0.023702 0.008112 -0.027018 -0.009230 -0.002967 -0.006832 0.012422 0.000779 0.010912
-0.006073 -0.000938 -0.016065 0.003188 -0.022185 -0.008988 0.018691 -0.000011 0.018298 0.000084 -0.005566 -0.009083 0.008897 0.019792 -0.016280 -0.048790 0.000362 0.009226 0.000282 0.005473 0.015871 0.010954 0.014915 0.016192 -0.019852 -0.004693 0.014536 -0.024201 0.004496 -0.018181 0.000638 0.005414 0.000112 0.003926 0.008488 0.010885 0.004736 0.019523 0.008692 -0.000761 -0.012780 -0.006558 0.004339 -0.001505 -0.001279 -0.001125 0.001214 -0.015213 -0.009740 0.010233 -0.012300 0.002036 0.004311 -0.005287 0.000853 0.003369 0.004152 0.008408 -0.008662 -0.009311 0.004637 0.005055 0.008227 0.008290 -0.013601 -0.014342 -0.004415 -0.012719 0.000899 0.010814 -0.014752 -0.004596 0.003115 -0.014870 -0.021236 -0.019949 -0.004993 0.004283 0.010934 -0.011703 -0.000633 0.004017 0.017645 -0.002623 -0.003441 0.004489 -0.003780 0.002942 0.003853 -0.000537 -0.004416 0.021905 -0.000124 -0.044865 -0.022895 -0.003563 0.021613 -0.013479 0.032231 0.009053 -0.000811 0.013120 -0.012085 0.001628 0.000899 0.001905 0.000185 -0.003547 -0.004207 -0.007220 0.000706 0.010494 0.013904 -0.021934 0.001215 -0.007683 0.009069 -0.000678 0.010392 0.001397 0.003914 0.016317 -0.011154 -0.002410 0.013659 -0.005390 0.003377 -0.002498 0.004736 0.001932 -0.013128 0.007962 -0.000968 0.003523 -0.015534 -0.003104 0.017777 -0.008188 0.006140 -0.010359 -0.013606 0.002280 0.012194 -0.004395 0.017161 0.003632 0.003118 0.016508 -0.008260 -0.005161 0.012090 0.025951 -0.004032 0.019028 -0.038419 -0.008235 0.019977 -0.004029 -0.009340 -0.024571 -0.003263 0.017929 0.004258 -0.005653 -0.021064 -0.011731 -0.005162 0.005052 0.001373 -0.014677 -0.001789 0.002649 -0.017001 0.009901 0.018479 -0.027079 0.003669 -0.010018 0.019143 0.010364 -0.013443 -0.000860 -0.007832 0.005089 -0.022779 -0.009703 0.024594 -0.010598 0.021218 -0.013290 -0.004828 0.009683 0.002384 0.011212 -0.019213 -0.005389 -0.003879 0.000140 0.012750 0.004021 -0.007900 -0.012047 0.014051 0.014510 0.009708 0.001603 0.002018 -0.006614 -0.010793 0.001082 0.007250 0.007606 0.008268 0.011449 -0.042563 0.001427 0.007053 -0.007966 -0.004128 0.006269 0.015120 0.009114 0.000171 -0.000672 -0.023208 -0.002347 0.001476 0.001449 -0.014879 0.001112 -0.006208 0.001584 0.002795 -0.007767 0.023404 0.006933 0.007088 -0.001841 0.002062 -0.012175 -0.005571 0.004777 -0.008050 0.001345 -0.006266 0.001196 -0.005684 -0.005641 -0.010952 0.003785 -0.003919 0.006210 0.017856 0.009881 0.004088 -0.067333 -0.005290 0.014041 -0.006984 0.027834 -0.002820 0.012687 0.015680 0.011335 -0.019366 -0.004055 0.007278 -0.015723 0.011674 -0.006117 -0.007593 -0.001196 0.012998 0.007270 0.002129 -0.000658 -0.001944 -0.009201 -0.004371 0.016255 -0.004932 0.015161 -0.006321 -0.024394 -0.007196 0.000824 0.013768 0.007290 0.004409 0.002077 0.007674 0.023239 0.015657 0.004914 -0.038345 -0.009057 0.016424 -0.006580 -0.000636 -0.006884 0.013998 -0.007911 0.000902 0.009381 -0.008715 -0.020536 0.006018 -0.021006 0.008396 0.015895 -0.001198 0.012107 0.004886 0.017844 -0.005816 0.000393 0.018423 -0.005540 0.011063 0.006536 0.003456 -0.013915 0.004052 -0.000904 -0.000386 -0.014759 0.007197 0.007451 -0.005099 0.001493 -0.017968 0.025510 -0.002178 -0.038577 0.027961 -0.010640 -0.007095 -0.000102 0.004355 -0.021190 -0.005300 0.043152 0.009492 0.007244 0.014432 0.009814 0.007367 -0.022613 -0.006928 -0.000123 0.004224 -0.009377 0.011393 -0.018547 -0.004192 0.005843 0.023799 0.011791 0.005570 -0.003514 0.013899 -0.015446 -0.003876 0.008609 0.001720 0.005568 -0.001604 0.000183 -0.010170 0.004795 0.010050 -0.005909 -0.004118 0.004792 -0.014021 0.001950 0.015460 -0.007837 0.012938 -0.009560 0.007303 -0.010206 0.004954 -0.006881 0.020556 0.001566 -0.023847 0.005128 0.003142 -0.011480 0.004621 0.013617 0.014272 0.015944 -0.027458 -0.000208 -0.003210 -0.000238 0.005389 0.019721 0.007183 -0.001840 0.015248 0.011028 -0.030934 0.002687 0.004635 -0.011880 0.008924 0.004527 0.016833 0.032512 0.003632 -0.004443 0.016483 -0.005415 -0.009832 0.002465 -0.002662 -0.011943 0.007136 -0.001662 -0.003599 0.006943 -0.000379 0.006276 0.005852 -0.001457 -0.001467 -0.002247 0.007015 -0.005622 -0.008177 -0.002140 -0.002027 -0.004340 0.004121 -0.013746 0.012860 -0.028185 -0.002298 -0.004666 0.001853 -0.007538 0.007631 -0.017063 -0.004720 0.006226 0.001742 0.009234 0.016080 -0.002239 -0.003059 -0.009787 -0.001967 0.006461 -0.017587 -0.012930 0.009645 0.004015 0.003207 -0.004602 -0.003716 0.016319 -0.025437 -0.018236 -0.019813 0.018659 0.000543 0.007035 -0.007424 -0.006412 -0.000829 0.005179 0.006271 0.003485 -0.006752 0.008477 -0.007916 0.009144 0.010586 0.020238 -0.003683 -0.000760 -0.016009 -0.003584 -0.004116 0.000047 0.000987 -0.004861 -0.019581 0.009735 0.026819 0.030418 0.013484 -0.045323 -0.006284 0.006751 0.003726 0.009609 0.020995 -0.001341 0.006639 -0.004032 -0.009505 -0.006019 -0.018995 -0.001154 0.015741 -0.001119 -0.008023 0.002403 0.013292 -0.000359 -0.001384 -0.005978 0.004257 -0.014084 0.000070 -0.007187 -0.013195 -0.001527 0.005908 -0.007860 0.001363 0.012667 -0.002751 0.001630 -0.004498 0.014637 0.009337 0.006706 0.020812 0.013903 -0.032678 -0.002716 0.008019 -0.003016 -0.008116 -0.003588 -0.006400 -0.007881 -0.006593 -0.001771 -0.002746 0.016210 -0.008570 -0.006634 -0.005721 -0.007363 -0.002429 0.002422 0.002618 0.003268 0.005929 0.032915 -0.018606 0.010382 0.011822 0.005181 -0.007674 -0.007072 0.005217 -0.006727 0.013788 -0.001902 -0.006711 0.003599 -0.000598 0.004341 -0.009376 -0.005821 0.006835 -0.002585 0.015412 0.011642 -0.006314 -0.000401 0.016076 0.003740 0.002911 0.019819 -0.003589 0.009940 0.010354 -0.003064 -0.024826 -0.014376 -0.002534 -0.014862 -0.000390 -0.001025 0.003903 -0.011409 -0.001309 -0.011309 0.015834 -0.005249 -0.001970 -0.008206
0.007663 0.008471 -0.012088 -0.004280 0.001526 -0.009940 0.010499 0.024295 0.002486 0.010797 -0.001196 -0.002642 0.003260 0.002481 0.017495 0.002713 -0.000837 0.012679 -0.000188 0.003306 -0.009076 0.003774 0.001978 0.014628 0.007303 -0.001062 -0.011779 0.006756 0.003990 -0.003748 -0.000403 -0.006053 0.005810 0.004433 0.002356 0.000099 -0.006596 0.003146 -0.008680 0.006008 -0.007572 -0.009622 -0.009427 -0.002239 -0.004543 -0.007463 -0.010589 -0.010012 -0.009452 -0.006472 -0.007640 -0.010471 -0.009831 -0.007190 0.009640 -0.011263 0.002611 0.011006 -0.009699 0.019737 0.002304 0.000614 0.002613 -0.001496 -0.014051 0.013173 0.004880 0.003002 0.003380 -0.010874 -0.016937 -0.005076 -0.023243 0.018192 -0.007947 -0.014902 -0.014252 0.002841 0.006557 0.005008 -0.002403 -0.006932 -0.010554 -0.006103 0.002920 0.004424 -0.017378 -0.003419 0.003977 -0.021895 -0.003039 -0.012563 0.008102 -0.002616 -0.006040 0.001883 -0.004931 0.017362 -0.001291 0.005142 0.003163 -0.021405 0.006598 0.009201 -0.007246 0.005236 -0.010392 0.000105 -0.004498 -0.011057 0.002646 -0.012904 -0.000497 -0.033402 0.016301 0.005262 -0.004620 0.010363 0.005937 -0.015876 0.008705 0.009623 -0.005662 0.006289 -0.015382 -0.004295 -0.001464 0.002418 0.005924 0.006431 0.005834 0.009895 0.000982 0.007744 -0.003371 -0.007279 -0.013817 0.010944 -0.006174 -0.008497 -0.004075 -0.011182 -0.001877 0.004893 -0.005350 0.011475 -0.009596 0.027658 -0.006498 -0.002462 0.005172 0.001232 0.005609 -0.001068 0.006218 -0.004052 0.008719 0.006853 0.000299 -0.015355 -0.003915 0.003624 -0.003686 0.012443 0.002883 -0.015704 0.003976 0.004343 -0.009903 0.009167 -0.015240 -0.005378 -0.001925 0.004598 -0.010707 0.006323 0.006107 0.003891 -0.000182 -0.003822 -0.012575 -0.003572 0.011976 0.003736 -0.007612 -0.002680 0.008675 0.001025 0.019838 -0.017773 0.008353 0.003596 -0.011523 -0.011746 -0.013315 0.005344 0.012380 0.017021 -0.001399 -0.001448 0.004160 0.012159 -0.007978 0.006921 0.001804 -0.000586 -0.013508 0.006245 -0.014000 -0.003949 -0.003258 -0.028066 -0.020631 -0.041124 0.002233 0.010627 0.002501 0.030491 -0.009157 0.012574 -0.009476 -0.000336 -0.003034 -0.000108 -0.000092 -0.012928 0.003027 0.004859 0.007926 -0.004889 -0.004603 -0.004415 0.000342 -0.024235 0.017838 0.002635 -0.002196 0.006915 0.011460 -0.014204 -0.006863 -0.018117 -0.017262 -0.001448 -0.013461 0.017060 -0.001144 0.007317 0.014775 0.013973 -0.012140 -0.003433 -0.006010 0.001325 -0.013878 0.003270 0.000802 0.008268 0.017522 0.002081 0.003772 -0.010944 -0.002798 0.007823 0.004531 0.015839 0.000429 -0.011314 -0.006919 -0.001060 0.014402 0.005390 -0.000145 0.012741 -0.004775 0.002380 -0.009420 0.007924 0.000763 0.005585 0.018739 -0.013639 0.007990 -0.018877 -0.022981 -0.002119 -0.005841 0.010682 -0.015661 0.006768 -0.000255 -0.020935 -0.002083 -0.015365 0.001282 -0.047623 0.015378 0.015582 0.012602 0.024831 0.014210 -0.011453 -0.011239 -0.015639 0.005906 -0.009358 -0.007202 0.008148 0.006654 -0.005087 -0.002800 -0.001935 0.012429 -0.010898 -0.006435 -0.014391 0.000300 0.008434 0.008202 0.009669 -0.006024 0.011721 -0.007325 -0.019124 0.017533 0.008065 -0.008714 -0.004023 0.002709 0.001241 0.006934 -0.023216 -0.013956 -0.002658 -0.025480 0.011539 0.005957 -0.003224 -0.010634 0.019638 0.006881 0.006008 0.001467 -0.002575 -0.001459 0.000771 0.011532 0.005973 0.009749 -0.002179 -0.002065 0.011941 0.010800 -0.045399 0.009647 0.003604 -0.003496 0.010682 -0.004698 -0.001625 -0.007316 -0.021600 -0.014909 -0.013324 -0.002036 0.005054 -0.006454 -0.006625 0.001803 0.015734 -0.000169 -0.013468 -0.008614 0.002575 0.013645 -0.029296 0.014340 0.003650 -0.003908 0.003590 0.013959 -0.030973 -0.003282 -0.001888 -0.000143 -0.001862 0.016631 0.004063 0.016391 -0.003060 0.003241 0.011835 0.009243 -0.016258 0.002434 0.005285 0.005364 -0.002186 -0.005151 -0.013272 -0.000207 -0.002898 -0.006385 -0.003247 0.007323 -0.002781 0.000607 -0.001153 0.007046 -0.003038 -0.005600 0.001730 0.001194 0.009210 -0.014005 0.002549 -0.002874 0.009556 0.016270 0.015015 -0.020626 -0.005991 0.010613 -0.001712 -0.005502 -0.004562 0.001287 -0.001104 0.005370 -0.007292 0.011172 -0.022268 -0.009871 0.001933 -0.017269 0.014051 0.026250 0.003474 0.012351 0.016707 0.005166 -0.002525 -0.005075 0.002099 0.006486 -0.003374 0.016192 0.006308 0.008109 0.010271 0.000375 -0.029875 -0.031263 -0.073381 0.026910 0.002871 0.022074 -0.002087 0.007253 0.013841 -0.017827 -0.006235 -0.008856 0.024563 -0.001283 0.002977 -0.011469 0.013840 -0.003466 -0.000924 0.005518 0.009679 -0.002927 -0.024375 0.008652 0.002776 0.002036 0.003806 -0.001095 0.010591 0.015190 0.012107 -0.014811 0.010672 0.000245 0.000716 0.005532 -0.008806 0.010880 0.002978 -0.007686 -0.000445 -0.004837 0.002045 -0.034890 -0.006353 0.009036 0.017160 -0.004980 -0.002888 -0.016489 -0.000428 0.003448 -0.006780 0.001190 0.006570 0.001684 -0.005036 0.011201 -0.010946 0.006321 0.005952 -0.007239 -0.001598 -0.014808 -0.005538 0.024014 -0.007976 -0.007232 0.006483 0.001077 0.000185 0.006280 -0.004879 -0.017152 0.007162 0.017663 0.000962 0.000522 -0.009145 -0.008960 0.007353 -0.013350 0.002028 -0.007839 -0.013227 0.017933 -0.002909 0.001889 0.017085 0.014163 0.007535 -0.019176 -0.002456 -0.005341 0.009610 0.010210 0.002111 0.000502 0.028935 -0.009524 0.013677 0.002734 -0.003810 0.003671 -0.007005 0.008415 0.015967 0.012895 -0.013006 -0.006355 0.015063 -0.002362 0.011300 0.002149 -0.002078 -0.014267 0.002131 0.003185 -0.010050 -0.007170 0.012383 -0.023102 0.011664 -0.029378 0.012360 0.007272 0.006728 -0.005569 -0.004145 0.007422 -0.007352 0.010987 -0.002591 -0.018639 0.010691 0.009689 -0.016034 -0.013972 -0.004991 -0.008113 0.019643 0.014464 -0.022069 0.016557 0.006499 0.003392 0.009773 -0.015229 0.006446
-0.011188 -0.006146 -0.010083 -0.004245 -0.017314 0.001275 -0.009039 0.015953 0.002939 -0.001039 -0.006661 0.013357 0.014403 0.015063 0.009208 -0.035140 -0.005590 -0.003177 0.009594 -0.006248 -0.003669 0.005359 0.017535 0.014635 -0.028064 -0.002868 -0.001609 -0.001564 0.004881 -0.002567 -0.009320 -0.004533 -0.002884 -0.006631 0.003342 -0.000623 -0.009205 0.005254 0.004137 -0.007906 -0.014980 0.012326 -0.001850 -0.004317 -0.017370 -0.004764 -0.000688 0.001849 -0.005172 -0.010325 0.004293 -0.011980 -0.013059 -0.015341 -0.007308 0.010045 0.014090 0.012472 0.025790 -0.005921 0.015034 0.003497 0.007952 -0.011416 -0.018299 -0.008332 0.009350 0.009724 0.010777 -0.014752 -0.002983 0.003356 0.004907 0.001392 -0.022426 0.003277 0.008037 0.013190 0.002615 -0.002663 0.002274 0.000444 0.006783 0.002299 0.010058 0.000016 0.002919 0.005837 0.010772 -0.001990 -0.010700 0.043476 -0.000559 -0.023681 0.009018 -0.014230 0.000580 -0.001440 -0.001945 -0.008939 -0.023011 0.001850 -0.009661 0.012635 0.003193 0.004711 0.003807 -0.005018 -0.018481 0.004366 -0.008393 -0.003462 0.018197 -0.017271 0.008392 -0.003715 -0.002416 0.017707 0.007437 -0.006757 0.010378 -0.006706 -0.005015 0.006913 -0.002518 -0.012288 -0.014362 0.010506 -0.002129 -0.004996 0.024629 0.008663 -0.001702 0.000778 -0.011258 -0.010048 -0.006145 0.002158 -0.003654 0.011157 -0.010809 -0.007225 -0.004678 -0.002849 0.004248 0.000839 -0.005980 0.006080 -0.008056 -0.018055 -0.009733 0.006054 0.016352 0.010129 -0.040188 0.001848 0.008836 0.005102 -0.004162 0.004169 -0.003796 0.022772 0.005513 0.008467 -0.022930 -0.007243 -0.004444 0.020163 -0.014131 -0.000255 -0.015220 -0.001185 0.013899 -0.011115 0.009229 -0.013430 -0.002458 0.015984 0.007812 0.005349 -0.002246 0.013682 -0.004696 0.000561 -0.005660 0.030278 0.008951 0.001605 0.003788 0.003710 0.001625 -0.003641 -0.003678 0.001701 0.004218 -0.009713 0.012562 -0.004352 -0.009079 0.003152 -0.024419 0.007349 -0.008509 -0.009165 0.031527 -0.002003 -0.014735 0.002637 -0.016741 0.015327 0.004152 0.010123 0.014636 0.015509 -0.035044 -0.005461 -0.019001 0.008832 0.007239 0.006340 -0.001682 0.000311 -0.008873 0.016698 -0.032598 0.009279 0.013266 -0.008173 0.009738 -0.009350 -0.011048 0.006732 0.007596 -0.014206 0.005747 -0.007196 -0.018372 -0.002061 0.000389 -0.007190 -0.003643 0.002604 -0.007861 0.005318 -0.009172 -0.003393 -0.008513 -0.009247 0.014239 0.002365 -0.039011 0.000247 0.030518 0.028236 0.015927 -0.068622 -0.011854 0.022141 0.007832 0.006766 0.012810 -0.005158 0.026255 0.001437 -0.014099 -0.038272 -0.022921 0.031551 0.005112 -0.001832 0.003726 -0.001494 -0.013538 -0.005159 0.016527 0.000575 -0.009878 -0.011792 0.006722 0.010655 -0.029008 -0.004485 -0.000494 0.010153 0.019464 -0.010975 0.005284 0.011048 -0.004834 0.001986 -0.002625 0.042945 0.019674 0.001555 -0.052831 -0.007061 0.011279 -0.007724 -0.010737 -0.001151 0.006859 -0.005362 -0.001552 0.006401 0.001166 0.003479 -0.017522 0.018691 -0.002721 -0.013933 -0.008670 -0.004050 0.012226 -0.002916 -0.010783 -0.006511 0.000279 0.024394 -0.002962 0.009013 -0.003545 -0.009066 -0.011554 0.000561 -0.002452 0.007241 -0.003592 0.007800 -0.001585 0.003896 -0.018402 0.009914 0.007248 -0.058583 0.037951 -0.007359 -0.006027 0.013124 0.015653 0.015414 -0.014160 0.030972 0.004482 0.008037 0.006535 0.003862 -0.013795 0.015417 0.001772 -0.010929 0.001814 -0.004415 -0.000083 -0.015614 0.005868 0.002690 -0.004431 0.006852 -0.005855 0.000112 0.019481 -0.004685 -0.009863 0.001172 -0.000810 0.004426 -0.002479 -0.015544 0.017981 0.001199 0.000718 0.002260 -0.002326 0.012648 -0.010350 0.017325 -0.018869 0.009655 -0.002564 -0.010533 -0.005116 -0.003229 0.011903 -0.000598 0.006740 -0.017526 -0.009299 -0.004806 0.002032 -0.009623 0.009641 -0.006419 0.018077 0.005884 -0.034743 0.002686 -0.005198 0.011079 0.004462 0.013629 0.015155 -0.004766 0.009578 0.003085 -0.024975 0.000710 -0.030115 0.006416 0.007039 0.008287 0.007419 -0.011411 -0.003277 -0.008572 -0.002971 -0.008278 -0.003713 -0.006867 0.019149 -0.015079 0.004053 -0.024498 -0.001601 -0.000812 0.010685 0.012330 -0.003570 0.000909 0.008320 -0.013312 -0.010413 -0.006722 -0.005114 0.012602 -0.008122 0.004473 -0.015748 0.013640 -0.009492 -0.003129 0.001046 0.001783 0.000382 -0.005537 0.007968 0.010636 0.008422 -0.007618 0.000153 0.010879 0.021765 -0.027513 -0.012158 0.010457 -0.007146 0.006499 -0.003033 0.009704 0.008826 0.014049 -0.008770 -0.010018 -0.001372 0.000320 -0.015670 -0.006725 -0.001842 0.016966 -0.000136 0.009186 -0.002423 -0.009941 -0.005302 -0.008462 -0.004296 0.011566 0.002775 0.010237 -0.000204 -0.005189 -0.001949 -0.001290 -0.002012 -0.002148 0.004776 0.013596 -0.008266 -0.008743 -0.006969 -0.008890 -0.017847 0.004527 0.023508 0.011001 0.015850 -0.065375 0.009795 0.013549 -0.003132 0.020875 0.031007 -0.017445 0.010738 -0.007217 -0.026341 0.007629 -0.005882 0.013677 0.015765 -0.007663 -0.003139 -0.009884 -0.010631 -0.007548 -0.005272 0.010940 -0.008564 -0.010988 0.005546 -0.013812 -0.009016 0.019249 0.008571 -0.006571 0.005996 0.001187 -0.010288 0.005473 -0.000919 0.003107 0.010190 0.009442 0.021482 0.031144 -0.049751 -0.001819 -0.020157 0.009521 0.005742 0.027086 0.018001 -0.002159 0.015295 0.018637 -0.010084 0.001508 -0.019316 -0.002676 0.007866 0.000718 0.010139 0.001439 0.006720 -0.008021 0.008309 -0.011663 -0.011483 0.007393 0.009268 0.007378 0.007337 0.002060 -0.024842 -0.008411 0.008225 0.015220 -0.006342 0.015968 0.003514 -0.020530 0.009675 -0.008619 -0.000000 -0.021892 0.015091 -0.010806 -0.008750 0.005798 0.005313 0.004862 -0.014047 -0.009007 0.006388 0.007562 -0.008043 -0.015068 -0.020342 0.009974 -0.000574 0.002124 0.002798 -0.002755 -0.004008 0.013239 0.002871 0.016459 0.000349 -0.000539 0.010235 -0.003395
0.005829 -0.010258 -0.001097 0.002787 0.008653 -0.010966 0.006448 0.003814 0.006757 0.019053 0.006581 -0.010389 -0.009114 -0.010095 0.006526 -0.002876 -0.008037 0.002050 0.003325 0.005670 0.006013 -0.005241 0.009782 -0.000716 0.010153 -0.011308 0.005092 -0.000230 0.002322 0.008116 -0.017196 0.000509 -0.000380 0.007122 0.000378 -0.006042 -0.009244 0.015505 0.011682 0.012570 -0.009758 -0.005833 -0.016834 0.001516 -0.004864 0.006533 0.002110 0.001075 0.001801 0.009229 0.001036 -0.008103 0.002332 -0.016408 0.029081 -0.034711 0.007987 0.000860 -0.011970 0.001079 0.012504 0.001335 0.009062 0.001976 -0.000247 0.011391 -0.008576 0.006206 0.000217 0.005458 0.003319 -0.004262 0.001881 -0.000075 -0.003804 0.002230 0.013128 0.005357 0.000930 -0.001772 0.000376 0.006785 -0.002930 0.011999 -0.000741 -0.010565 0.008385 0.000308 -0.009146 -0.004424 0.001498 -0.007573 -0.009698 -0.013807 0.005838 -0.008184 0.001158 -0.001733 -0.021183 -0.008187 0.003548 0.001057 -0.005817 0.002181 0.013090 0.002753 0.009780 -0.003555 -0.009170 0.002264 -0.002078 -0.008777 -0.005334 -0.027822 0.026439 0.002751 0.000046 -0.009925 -0.008610 0.022883 0.010177 -0.021711 -0.015485 -0.004090 -0.010214 -0.001673 0.015464 0.003061 -0.009599 -0.003218 -0.019333 -0.013630 0.016988 0.007812 0.004729 -0.004376 -0.012164 0.000101 0.001156 -0.004879 0.018201 -0.024323 -0.008484 0.002355 -0.013814 -0.008128 -0.002260 0.007073 -0.012318 0.020464 -0.000749 0.009490 0.001847 -0.006858 0.002370 0.002353 0.005204 0.000030 0.003812 0.017497 -0.007400 0.004052 0.006278 -0.012969 -0.009722 0.001366 -0.004431 0.016008 0.003679 0.007748 -0.012330 -0.012440 -0.011507 -0.021114 -0.007484 0.010345 -0.005471 0.005018 -0.011482 0.005894 -0.012710 -0.011184 -0.003631 -0.001284 0.003029 -0.018670 0.000421 0.008572 -0.012836 0.000246 0.013029 -0.020204 0.012217 -0.001624 -0.001219 -0.006207 -0.006756 0.011394 0.001903 0.008046 0.010500 0.000140 0.012109 0.012440 -0.001645 -0.001523 0.006460 0.011561 -0.017420 -0.011687 0.022549 -0.028576 0.007797 -0.049410 0.020440 0.002752 0.006732 -0.004312 0.007919 0.010018 0.001622 0.002172 -0.007100 -0.011506 0.012322 0.003307 -0.002877 0.018420 -0.002713 0.014275 0.001903 -0.002171 0.002595 -0.010924 0.021632 0.002366 -0.001780 0.011051 0.006213 0.012769 -0.018993 0.000218 -0.009319 0.007227 0.011730 0.023023 0.006250 -0.012030 0.017514 0.018628 0.006477 -0.006270 -0.015487 0.005009 0.004867 0.006395 0.002787 -0.005977 -0.001674 0.025681 -0.004065 0.005225 -0.016337 -0.001408 0.003726 0.008077 0.005300 0.008231 -0.008950 -0.002767 0.043443 0.016253 0.007461 -0.007431 -0.020805 -0.010187 -0.004126 0.004455 0.011121 -0.009217 0.006459 0.005907 0.002219 -0.005820 -0.019003 -0.007377 -0.007226 -0.002083 0.017267 0.003197 -0.004251 0.015027 -0.011691 0.001758 -0.006016 -0.019393 0.026599 -0.005913 0.013157 0.010054 0.014033 -0.015395 -0.016813 -0.012394 0.003248 0.004712 -0.009447 -0.011450 0.001701 -0.006769 0.007636 -0.004122 0.008734 0.008037 0.012089 -0.001173 0.021658 0.001984 -0.003958 0.003473 0.002188 0.006351 0.001324 -0.001377 0.019792 0.004710 0.003009 0.006175 0.001853 -0.014023 0.024470 0.000285 -0.016280 -0.004645 -0.005745 0.013577 0.007515 -0.010777 -0.001808 0.022036 0.025966 -0.000475 -0.007243 0.021979 -0.015488 0.007248 -0.011238 -0.018834 -0.004806 -0.006880 -0.010947 0.011892 -0.005511 -0.021455 0.015974 0.001366 0.012079 -0.006636 0.008534 0.008719 -0.003032 -0.002427 -0.007025 -0.004034 -0.008879 0.009301 0.020984 -0.000313 -0.000441 -0.008154 -0.009058 0.000523 0.036744 -0.004892 0.012683 -0.036557 0.006391 0.001045 -0.006925 0.012071 -0.001717 -0.029664 -0.016255 -0.012183 -0.011385 0.003904 0.023872 0.002651 0.008090 -0.002075 0.008655 0.000407 -0.009281 -0.010321 0.008709 0.003428 -0.008277 -0.002283 -0.007499 0.005001 -0.027718 0.008663 0.000067 -0.012913 0.014737 -0.000964 0.002587 -0.013243 -0.011821 0.001824 0.013506 0.016582 -0.014141 0.005278 -0.015085 0.009581 -0.005243 -0.001066 -0.015953 0.002591 0.011215 -0.006121 0.014705 0.013034 0.004927 0.006516 0.009541 0.006337 0.010562 -0.008001 0.007673 -0.011839 -0.008232 0.005887 0.007854 -0.006135 0.012678 -0.012063 -0.009722 0.003003 0.004042 0.004384 -0.008543 0.006389 -0.013697 -0.007473 -0.005933 0.001597 -0.008530 -0.006452 -0.013705 0.002330 0.011613 -0.045084 0.041251 -0.010393 0.027142 -0.026107 0.017356 -0.006395 0.002071 -0.005734 -0.007243 0.003037 -0.003337 -0.000667 -0.002234 0.014105 -0.004244 0.016445 -0.007305 -0.010208 0.009315 -0.026498 0.012228 0.017163 -0.004501 0.008307 0.002841 0.010592 -0.004867 0.016389 -0.019877 0.007581 -0.010312 -0.007113 -0.002730 0.008797 0.005666 0.010349 -0.008017 0.003244 -0.012824 0.025367 -0.017922 0.017420 0.016946 -0.010715 -0.006985 -0.004356 0.005785 0.001247 0.025917 -0.000579 0.012448 0.002387 -0.002980 -0.008817 0.004148 -0.000739 0.018548 0.002087 0.001726 -0.001166 -0.033557 0.013640 0.012446 -0.013531 -0.000518 -0.014592 0.010723 0.003613 0.005780 -0.001984 -0.024538 0.017930 0.024133 0.000958 -0.003741 0.003468 -0.016911 0.009502 0.010517 -0.001924 0.000535 -0.038462 0.006945 0.009808 0.001463 0.017134 0.012002 0.010252 -0.010482 -0.008898 -0.010452 -0.001315 0.013261 -0.009218 0.010067 -0.008908 -0.014606 0.009225 -0.007180 -0.000863 -0.007392 0.004067 0.010156 -0.015043 -0.011999 0.004347 -0.006553 0.020063 0.007994 0.006181 0.014705 0.001911 -0.007280 -0.008685 -0.008186 -0.010485 -0.010027 0.020951 0.002319 0.019891 -0.031038 -0.003131 0.020764 -0.017426 0.017008 0.010501 0.020758 -0.007244 -0.000158 -0.007223 -0.011732 -0.009752 0.016707 -0.019387 0.012079 -0.013230 -0.031410 0.011718 0.007216 -0.032099 0.010501 0.023111 -0.010560 0.008131 -0.008833 0.012842
-0.007330 0.011439 0.002279 -0.000544 -0.013418 0.001618 0.004052 0.000482 0.016529 0.017736 -0.035268 0.007667 0.042454 0.004331 0.015423 -0.072249 0.012528 0.013742 0.022730 -0.005095 0.004150 -0.006265 0.000585 0.015007 -0.040424 0.010395 0.008122 0.000931 0.011025 -0.003676 -0.000715 -0.001795 -0.000256 0.010313 -0.001600 -0.007114 0.016799 0.015610 -0.016539 -0.004796 -0.007038 0.002828 0.007707 -0.008779 0.002642 -0.008230 0.000614 0.020027 0.013242 0.006205 0.034062 0.015519 -0.009744 0.005978 -0.026519 -0.003046 0.007600 0.002231 -0.007619 0.002910 0.000415 0.005695 0.010157 0.007764 0.001240 -0.007651 -0.001076 -0.007197 -0.000272 -0.002758 -0.030613 -0.004802 -0.016521 0.007290 -0.009238 0.021991 0.011759 0.001911 0.015507 -0.019864 -0.003825 0.004233 0.021144 -0.008875 -0.000002 -0.002662 0.013005 -0.005655 -0.016302 0.002089 -0.053086 0.034698 0.032693 -0.053936 0.011223 -0.016937 -0.002924 0.014495 0.000696 0.001673 -0.039077 0.025137 -0.010674 0.015602 -0.001180 0.015947 -0.028373 -0.000215 -0.018688 -0.002843 -0.012910 0.017859 -0.003281 -0.024033 -0.001075 0.006199 0.014549 0.010667 -0.007321 -0.005496 0.021815 -0.006376 -0.010920 0.001125 -0.006276 0.002616 0.001688 -0.004944 0.010234 0.002740 -0.020330 0.011048 0.004324 0.017387 -0.024299 -0.004973 -0.011459 -0.009160 0.006424 0.013865 0.000531 -0.005994 0.011373 0.002709 -0.009186 0.001166 0.006593 -0.000554 -0.006291 0.010330 -0.002956 0.027042 0.004329 -0.002498 -0.039459 0.011272 -0.008484 -0.000383 0.002693 -0.015993 -0.031739 -0.001334 0.012672 0.015483 -0.041482 0.007745 0.000038 0.009869 -0.012356 -0.001387 -0.000068 -0.007076 -0.000649 -0.008826 0.008565 -0.024365 0.013107 0.008265 0.012437 0.024880 -0.014947 0.010129 -0.019033 -0.004754 -0.014262 0.005379 -0.000525 -0.000424 0.001584 0.012137 0.002484 0.004444 -0.008962 0.000040 -0.010911 0.001905 0.002027 -0.013086 -0.005220 -0.005264 -0.000052 -0.004400 0.035407 -0.012928 0.019139 -0.008472 -0.012479 -0.006815 0.000465 0.005432 -0.007312 0.001543 0.000520 0.013514 -0.019739 0.006541 -0.005244 0.008576 0.001875 0.017786 -0.005617 0.007164 0.009860 0.000141 -0.024278 0.000895 0.004155 -0.013265 0.004751 -0.000491 0.012422 -0.000762 -0.001923 -0.033255 0.004898 -0.001537 0.012296 0.009114 -0.003978 0.002994 -0.005892 -0.002229 0.007112 -0.005972 -0.019035 0.008620 -0.001372 0.010067 -0.002003 0.005054 -0.034645 0.001695 0.018396 0.026002 0.014236 -0.079367 0.016667 0.002366 -0.006935 0.030078 0.012304 -0.022918 0.012613 0.017585 -0.026883 -0.021182 -0.008209 0.015405 -0.012395 0.005684 0.009699 -0.000981 -0.001664 -0.020112 -0.003331 0.016609 -0.003013 0.005019 -0.001315 -0.006302 -0.002105 -0.002121 -0.010654 0.000306 -0.008976 0.003665 0.006933 -0.002803 0.001785 -0.017068 -0.018100 0.020253 0.007812 0.006849 -0.040561 -0.009994 -0.018985 -0.008804 -0.016002 -0.009696 -0.013281 -0.006685 0.006346 0.013677 -0.014183 0.002951 -0.002807 0.006433 0.008917 -0.007340 -0.024235 -0.007180 -0.000590 0.006431 -0.009517 0.003893 0.005481 0.018557 -0.000277 0.016213 -0.024514 0.003276 0.008090 -0.009029 0.014001 -0.005738 0.005164 -0.014358 -0.010684 -0.008382 -0.006943 -0.010060 0.013972 -0.044378 0.026492 0.000744 0.022105 0.026957 0.001654 0.023136 -0.054272 0.017422 0.005652 0.020413 0.012098 -0.011384 -0.010020 0.005047 0.010137 0.013958 -0.006076 -0.001394 0.015331 -0.029638 0.007507 0.014930 -0.005258 0.000196 -0.001225 0.004968 0.015966 -0.007976 -0.012917 0.004818 -0.003495 -0.004867 0.001681 0.008892 0.003413 -0.006271 0.014032 -0.016551 0.028897 0.001235 -0.011177 -0.003251 -0.000288 0.001974 -0.007397 0.012795 -0.008843 -0.021469 0.005189 -0.006729 0.024619 0.003689 0.004208 -0.002777 0.004549 -0.007177 0.019088 0.010034 -0.000186 0.021454 -0.044204 0.014576 0.012111 0.010098 -0.003282 0.013840 0.005246 -0.012144 0.004908 0.023398 -0.015373 0.011169 0.006310 0.001639 -0.008127 0.004740 -0.001952 -0.014420 -0.009217 0.017033 -0.011360 0.007758 0.003882 0.003469 -0.003967 0.005599 0.003995 -0.008483 -0.015838 -0.019342 -0.007628 -0.016734 0.017154 0.004196 0.005906 0.002711 0.000116 -0.016339 0.003048 -0.001661 -0.011705 -0.017662 -0.014649 -0.001048 -0.008027 0.016812 0.006262 -0.005514 0.001190 -0.014296 -0.007317 0.013645 0.009069 -0.011617 -0.004957 -0.003257 0.013781 0.000820 -0.006071 -0.008458 -0.035216 0.006378 0.013930 0.006944 -0.011507 -0.003220 -0.003728 -0.018068 -0.001511 0.024966 -0.009388 0.027463 0.018571 -0.009574 0.004388 0.003604 0.003998 -0.003110 0.010065 0.001625 -0.005207 -0.014840 0.014986 0.007215 -0.000243 0.000239 0.013929 0.016890 -0.000551 0.007826 -0.008422 0.005665 0.002414 -0.003978 -0.002439 -0.006287 -0.022111 -0.008224 0.034968 0.013742 0.009473 -0.038990 0.023315 0.000567 -0.000781 0.034897 0.045946 -0.007573 -0.012988 -0.012849 -0.035094 -0.000231 0.013872 -0.012270 -0.004228 -0.008557 -0.007933 0.021607 0.010390 0.009281 0.012713 0.000811 -0.014716 -0.004128 -0.008061 0.003344 -0.004935 -0.005555 -0.004396 -0.009350 0.005704 -0.009978 -0.002105 0.007443 -0.018989 -0.003442 0.014205 -0.014903 0.018906 -0.004570 -0.053623 -0.004247 0.002446 0.035003 0.006576 0.033933 0.013840 0.006541 0.003986 -0.010447 -0.024902 -0.006411 -0.006205 0.000947 0.000185 -0.006323 0.005133 -0.011624 0.001458 -0.005316 -0.016648 0.000301 0.007498 0.005788 -0.003310 -0.016559 -0.004876 -0.011888 -0.003020 -0.009505 0.001374 -0.004566 -0.011161 0.016207 0.001122 -0.005778 0.014691 0.005804 0.004818 -0.008024 0.003692 0.000681 0.020028 0.002374 0.001044 -0.002983 -0.007036 -0.006135 -0.005125 0.011019 0.001392 -0.001464 -0.016333 0.021715 0.002538 0.007148 -0.001110 0.004990 0.005580 0.016865 -0.008005 -0.009437 -0.013169 -0.006262 0.009554 -0.019561
0.011056 -0.014576 -0.005269 -0.011554 -0.005463 0.008276 0.010219 -0.009348 -0.011541 0.018602 0.030441 0.004947 0.010057 0.000202 0.007282 0.001464 0.005667 -0.024870 -0.006427 -0.007331 -0.001563 -0.000448 0.008663 -0.002133 -0.002818 -0.010213 -0.024076 -0.001080 0.011529 -0.014621 0.002474 -0.007946 0.011711 0.013856 0.003580 -0.007299 0.002614 -0.008674 -0.008779 -0.001103 0.001821 0.007420 0.005753 -0.003098 -0.000785 0.006663 0.016968 0.011098 -0.001104 -0.016868 -0.001703 -0.015449 0.017941 -0.006855 -0.000671 -0.028310 0.010683 0.002829 0.017584 -0.004148 0.017330 -0.011012 -0.000353 0.022364 0.005400 0.004497 0.004969 -0.006668 0.006399 -0.007411 0.002354 -0.006533 -0.012437 0.005121 0.013934 0.001542 -0.000549 -0.016192 -0.002416 0.013224 0.000218 -0.004585 0.010388 0.017068 0.003244 -0.018691 0.006644 -0.000234 -0.003429 -0.013803 0.025598 -0.004460 0.003238 0.002591 -0.010461 0.014160 0.002789 -0.014331 0.002269 0.009154 -0.008337 -0.000227 -0.002022 0.009703 0.007696 -0.001931 -0.003510 -0.006523 -0.004878 0.016139 -0.012196 -0.012320 0.007472 -0.027144 0.026288 0.007637 0.012359 -0.004929 -0.003981 0.014318 0.002107 -0.004737 0.004594 -0.001799 0.010619 0.009426 -0.001026 -0.016805 0.001722 0.011096 0.007284 -0.004528 0.021057 0.011221 -0.004869 -0.008600 -0.010765 0.004466 0.007214 0.003831 0.029919 -0.018959 0.008511 -0.010748 -0.011673 0.004007 -0.009162 -0.009755 -0.001996 0.021847 0.006150 -0.003866 0.005872 0.005761 0.018039 -0.005113 0.016953 -0.001972 0.016045 0.001647 -0.016760 -0.005661 0.009956 0.006022 -0.013398 -0.004777 -0.000169 -0.022803 -0.002042 0.011509 -0.001933 -0.001588 0.016496 -0.009064 -0.009044 -0.002177 0.003111 -0.019659 0.007184 0.002527 0.014089 -0.007290 -0.001050 0.001451 0.005018 -0.002064 0.006371 -0.015431 0.000309 -0.009668 0.015370 -0.007137 0.017702 0.011740 -0.017846 0.002994 -0.004673 -0.010081 0.009385 0.009029 -0.008821 0.019287 0.004786 -0.007305 0.011671 0.006978 -0.003454 -0.001064 0.002248 0.000010 0.012333 -0.029275 0.032114 -0.039266 0.005366 0.003650 -0.002219 -0.019977 0.003021 -0.024621 -0.005824 -0.008744 0.000939 0.003674 0.019803 0.002175 -0.003902 -0.000892 0.004098 -0.006163 -0.005760 -0.000139 0.003718 -0.037871 0.016928 -0.006885 -0.006871 -0.021135 -0.008878 0.001923 -0.020402 0.009266 -0.002985 -0.016626 0.007970 -0.003765 0.029215 0.003877 0.001363 0.019976 0.026041 -0.004785 -0.000567 -0.005362 -0.023061 0.000544 0.029123 -0.007655 0.009623 0.005564 0.001887 0.002911 0.013831 0.002166 0.008794 -0.009798 -0.000406 -0.015012 -0.003542 0.007506 0.027590 -0.019339 0.020108 0.013201 -0.037955 0.009950 -0.003000 0.007200 0.009551 0.002037 0.011064 -0.008995 -0.004439 0.013611 -0.029479 0.004135 -0.004459 -0.011829 -0.008939 -0.020714 -0.008136 0.008298 -0.003389 -0.007663 -0.006091 -0.032102 0.009291 0.006201 0.034042 0.002134 0.006273 -0.013650 -0.008346 -0.014073 -0.010107 0.003170 0.014373 -0.007595 -0.003861 -0.000518 0.002041 0.002617 0.014979 0.004039 -0.018661 0.004287 0.008585 0.004636 0.005397 -0.003473 0.002172 0.013749 0.001466 -0.000275 0.002303 0.005724 -0.001092 0.001103 -0.002616 0.000330 0.027667 0.000370 0.007782 -0.020863 -0.020400 -0.003304 0.017874 -0.007025 0.007533 0.002123 -0.003908 -0.002921 -0.002792 0.003995 -0.020792 0.002049 0.003338 -0.004512 -0.008545 0.003862 -0.022021 0.016815 -0.000820 -0.033662 0.030634 0.004085 0.007294 -0.008222 0.009254 0.009538 -0.019922 -0.006186 -0.000668 -0.014178 -0.004419 -0.015602 -0.003336 0.004026 0.005388 0.002803 -0.002012 -0.002923 0.019515 0.019309 -0.001330 -0.024719 -0.011289 -0.001799 -0.003126 -0.012361 0.028203 -0.019201 0.006823 0.001128 -0.005431 -0.015044 0.030011 -0.015919 0.003544 -0.001964 0.001343 0.012256 0.000472 -0.011574 -0.012184 -0.008702 0.000130 -0.004840 0.014623 -0.000916 -0.003785 0.020107 -0.011796 0.004856 0.009787 -0.014846 0.012447 0.019087 -0.006678 -0.003759 0.016897 -0.000091 0.006422 0.001914 -0.020216 -0.002038 -0.007581 0.004491 -0.007962 -0.006001 0.006046 0.003641 -0.007941 -0.005195 -0.017760 0.011274 0.007682 -0.002623 0.001839 0.003975 0.009509 -0.005383 -0.007215 -0.007970 -0.016421 0.005661 0.019510 -0.011739 0.010642 -0.007326 0.004481 0.010513 -0.007627 0.006478 0.009142 -0.011169 -0.005419 -0.009786 -0.011904 -0.003689 -0.026764 0.039670 0.021882 -0.051362 0.006568 -0.022681 0.031791 -0.007506 0.041761 -0.000028 -0.012015 -0.010458 0.000797 0.010100 0.005176 -0.004836 0.002598 -0.011494 0.007594 0.003691 -0.017287 0.003742 -0.007626 -0.023815 0.022917 0.008569 0.000587 -0.004308 0.008984 0.023823 -0.003748 0.021472 -0.004037 -0.001240 -0.010652 0.003438 -0.015117 -0.006476 0.014990 0.005821 -0.006756 0.033309 0.003397 -0.003325 -0.014966 -0.001967 0.016019 -0.012081 -0.002506 0.000165 -0.001190 -0.010225 -0.001675 0.009902 -0.000918 0.005833 0.005864 -0.008742 -0.008649 -0.010295 0.004786 0.009844 0.005937 0.010596 -0.031080 0.010676 0.014133 0.006364 0.019102 0.007206 0.001751 -0.001857 0.008437 -0.012642 -0.022113 0.000395 -0.000758 0.002692 0.005133 0.011274 0.002569 0.006121 0.002977 0.001155 -0.015457 -0.018261 0.010031 0.018879 0.005895 0.010364 0.001353 0.023383 -0.001503 0.001692 0.002824 -0.005184 0.016083 -0.009244 0.008508 -0.012667 -0.001457 -0.000123 -0.003949 0.008302 -0.005539 -0.003198 -0.005776 0.015105 0.004264 0.012984 -0.012775 0.022818 -0.004547 0.011247 0.018235 -0.006083 0.005409 -0.000444 -0.018166 0.001853 -0.017052 0.024847 0.008797 -0.018266 -0.025489 -0.005459 0.016955 0.013379 0.004671 -0.003684 0.000867 0.009857 -0.001767 -0.011458 -0.002155 -0.001301 -0.002591 -0.002007 0.000791 -0.013529 -0.014076 -0.009357 0.007585 -0.035706 0.025207 0.012187 -0.017782 -0.007186 -0.007204 0.003678
-0.010677 0.010771 0.001226 -0.004627 0.006816 -0.003873 0.003485 0.004596 -0.000909 0.008446 0.002184 0.020985 0.031410 0.021835 -0.000380 -0.048127 0.015595 0.019624 -0.001676 0.011449 -0.003401 0.006027 -0.007201 -0.006847 0.001412 -0.003676 -0.010868 0.009386 0.010878 0.007722 -0.008340 -0.009240 0.010109 -0.009091 -0.009300 -0.011927 0.004869 -0.004745 -0.004411 0.002647 -0.030717 0.000732 -0.006190 -0.006208 -0.007186 -0.004493 -0.004346 0.001944 -0.007499 -0.002915 0.012967 0.013146 0.012586 0.002220 -0.036900 0.005985 0.002618 -0.009471 0.008100 0.000040 -0.004931 0.014358 0.000215 -0.012450 -0.012216 0.008004 -0.006532 0.014558 -0.002413 0.011093 0.003051 0.009709 0.011704 -0.004923 -0.026591 0.006873 -0.003744 0.019519 -0.002941 0.014487 -0.007476 -0.005954 -0.000002 0.005696 -0.005450 0.010836 0.003859 -0.005223 0.005862 0.011284 0.001248 0.021237 -0.005128 -0.055873 0.012191 -0.011265 -0.008962 0.040446 0.001334 -0.005454 -0.041236 0.012932 0.002088 0.001726 0.003671 0.002764 -0.002735 0.007613 -0.011388 -0.011276 -0.011300 0.013171 0.004470 -0.029160 0.007114 0.019923 -0.007120 -0.002016 -0.004574 -0.001311 0.003330 -0.004199 -0.019585 0.005524 -0.011994 -0.003295 0.001753 -0.003170 0.008504 0.006918 -0.013505 -0.004212 -0.006320 -0.000248 -0.019642 0.013858 0.012230 0.010886 0.000837 -0.000659 -0.011713 -0.006069 -0.010736 -0.001268 0.021739 -0.004712 -0.008607 0.009661 0.000554 0.008236 0.002469 0.015984 0.012613 0.000419 -0.057248 -0.007065 -0.007882 0.013417 -0.002950 0.013497 0.011335 0.007023 0.009633 0.016437 -0.038547 0.012702 0.011410 0.005770 -0.008286 0.010633 -0.004420 -0.002234 -0.009401 0.012416 -0.000193 -0.007306 0.011102 0.011687 -0.006498 -0.006657 -0.014918 0.008023 0.003639 0.007130 -0.008496 0.001112 -0.011441 0.013800 0.002602 0.007648 -0.008892 -0.000216 -0.010293 -0.011724 -0.019108 0.001902 -0.005655 0.001247 0.009509 0.005315 -0.010037 0.013694 0.000233 0.012334 -0.000951 -0.002958 -0.000969 -0.006485 0.008164 -0.000433 0.017901 -0.013451 -0.007636 0.023955 -0.046353 -0.016361 0.003823 0.002173 -0.005183 0.017057 0.008542 0.007175 0.000608 0.009322 -0.031619 0.015330 -0.006694 0.010244 -0.015431 -0.003249 -0.006042 -0.001050 0.000047 -0.019662 0.009901 0.014230 0.002247 0.011852 -0.019984 0.010556 -0.013783 -0.008563 -0.022039 -0.003211 -0.003825 0.011636 0.008777 -0.004229 -0.000281 -0.003638 -0.013676 0.008615 0.005533 0.036378 0.005403 -0.056388 -0.003692 0.000329 -0.000400 0.008795 0.015245 -0.025831 0.004253 0.022356 -0.026577 0.005584 -0.002683 -0.005881 -0.010250 0.004473 0.000785 -0.006117 0.003607 0.005737 -0.001861 0.002494 0.001581 0.016133 -0.002562 0.005266 -0.007272 0.006549 -0.004425 -0.000403 0.007339 0.012769 -0.003094 -0.016084 0.008853 -0.002742 -0.022225 0.024080 0.008850 0.008681 -0.071899 -0.002816 -0.015825 0.014136 0.021373 0.002989 -0.004432 0.013408 0.006629 -0.014476 -0.037025 0.014106 -0.002170 -0.003079 -0.000238 0.004885 0.004528 -0.008887 -0.004622 0.001108 -0.017309 0.016254 0.006250 0.001004 -0.001623 0.007051 -0.009489 -0.005869 0.003452 0.008580 0.004097 -0.001900 -0.011467 -0.005333 0.006169 -0.014665 0.021985 -0.019953 -0.000728 -0.035643 0.022303 0.023467 -0.000484 0.020456 0.006068 -0.013020 -0.041909 0.006401 0.001994 0.006772 0.000623 -0.005258 -0.000741 0.003435 0.004116 0.015708 -0.000478 0.001956 0.013428 -0.018804 0.008139 0.011992 -0.001537 0.004958 -0.005107 0.011928 0.029495 -0.012358 0.012175 0.008424 -0.001888 0.002551 0.008397 -0.000586 -0.009723 -0.001704 0.018496 -0.021543 0.001643 -0.000020 -0.012728 0.017157 0.020433 -0.000908 -0.013154 0.009505 -0.005813 0.004857 0.009932 0.002094 0.006772 0.001844 -0.014033 -0.023563 0.007420 0.004776 0.019439 -0.024939 0.008593 0.016650 -0.052878 0.010674 0.017292 0.009315 0.001474 0.006087 0.027426 -0.012040 0.010922 0.009305 -0.032533 0.024421 0.008123 -0.009689 -0.004512 -0.011964 0.007664 -0.004572 0.010307 0.008756 -0.003104 0.010297 0.002188 -0.003756 0.003393 0.013873 0.015204 -0.000033 -0.008846 -0.019565 -0.012130 -0.001126 0.006987 -0.009537 -0.013888 -0.000762 0.005054 -0.003032 -0.004558 -0.010562 -0.016651 0.000907 0.001287 0.013008 -0.003882 0.017495 0.001278 0.002874 0.006978 -0.002004 0.010989 -0.001269 0.018889 -0.003826 -0.000037 0.009282 0.038676 -0.007189 0.007294 0.007922 -0.027978 0.002585 0.008937 -0.016728 -0.004002 0.000281 0.004130 -0.024854 0.009919 0.018414 -0.019796 -0.006190 0.014794 -0.004383 0.005922 -0.005760 -0.010077 0.002214 -0.010003 0.003431 0.007037 -0.004342 0.008060 -0.001942 -0.010701 -0.011515 -0.007515 0.011634 -0.003489 0.003302 0.001343 0.011055 0.004464 0.009778 -0.013709 0.013210 -0.024122 0.010400 0.032944 0.029368 0.004812 -0.049967 0.028582 -0.001338 -0.003934 0.007393 0.013530 -0.023471 0.023173 -0.000052 -0.009070 -0.019682 0.014005 0.012681 -0.004006 -0.017395 -0.010128 0.002945 -0.006430 0.014049 -0.013884 0.008503 -0.017952 -0.006388 0.012066 0.010157 -0.005673 -0.008933 -0.007814 0.012953 -0.002533 0.001986 0.001599 -0.010290 0.017898 -0.001664 0.025869 -0.018829 0.000873 0.035526 -0.067348 0.024439 0.004063 0.021796 0.000925 0.000738 0.000963 -0.003231 0.006797 0.000236 -0.006536 0.004085 0.005382 0.001263 0.008173 -0.011889 -0.002015 -0.007740 0.008614 0.008053 -0.021731 0.014894 0.028336 -0.013677 -0.012877 -0.011935 -0.000058 0.000129 0.008358 0.003799 0.010426 0.001330 -0.007334 -0.008753 -0.014046 0.000346 0.008158 -0.001080 0.012810 -0.007236 -0.012067 0.017853 0.003522 -0.015501 -0.014584 0.013241 -0.019949 -0.009042 0.000546 -0.007611 0.004536 -0.003301 0.014986 -0.007907 -0.006525 -0.008591 0.006659 -0.017373 0.001291 -0.002942 0.009846 0.007717 -0.004873 -0.005459 -0.009253 -0.015668
0.009309 0.007812 0.011496 0.013682 -0.020171 0.001968 0.008840 0.003606 0.023502 -0.019213 0.000338 -0.002025 0.009085 0.005495 -0.023750 0.005336 -0.004958 0.000340 0.000680 -0.023606 0.012476 0.002089 0.009394 0.008220 0.003951 -0.002532 -0.002937 -0.009401 -0.008425 -0.002275 0.011258 -0.014116 0.001455 0.011684 -0.006469 -0.002767 -0.000340 -0.022308 -0.000064 -0.008872 -0.008242 0.014711 0.012526 -0.000937 0.003388 0.000304 0.011675 -0.003636 0.004254 0.001311 -0.005150 -0.007280 0.006392 0.015986 -0.019174 -0.013807 -0.011708 0.006447 0.004838 -0.002008 0.005429 -0.007224 0.018360 0.016216 0.008051 0.000518 -0.010097 -0.014648 -0.006843 0.005486 -0.011363 0.008409 -0.006633 -0.000877 -0.008693 -0.003396 0.002020 0.006215 0.005352 0.009398 0.007346 0.006180 -0.007647 0.006078 -0.000166 0.008919 -0.005286 0.000861 0.010965 0.009524 0.008619 -0.015137 0.006472 0.009691 -0.014134 0.000715 0.002975 0.003926 0.011701 0.007535 -0.009674 0.008398 -0.008837 0.001949 -0.002608 -0.002799 -0.010156 -0.001721 -0.000653 -0.002560 -0.000559 0.009415 0.011171 -0.008440 -0.008113 0.011927 0.009689 0.001982 0.005605 -0.022083 0.007386 -0.002935 0.001760 0.009058 -0.013359 0.011758 -0.004408 -0.003628 0.008192 -0.021466 -0.021715 0.000454 0.007675 0.010437 -0.009494 -0.017276 -0.012744 0.020349 -0.014960 0.001794 0.030992 -0.013988 0.029781 0.019115 -0.037535 0.000417 -0.010875 -0.010274 0.014496 -0.007341 -0.020101 0.004332 0.018077 -0.005993 -0.008820 0.008443 0.013275 -0.003977 0.019067 0.006014 -0.017477 0.005857 0.015163 0.022157 -0.004173 -0.009920 -0.000721 -0.012653 0.001966 0.001802 0.011800 -0.004100 -0.003336 0.009947 -0.007180 0.003539 -0.004997 0.005673 0.007412 -0.021124 0.012334 -0.008888 0.012193 0.003422 -0.008879 0.003938 -0.000069 -0.010305 -0.003390 -0.013241 -0.000362 0.002196 0.004310 0.013089 -0.009347 0.003857 -0.007517 -0.004008 0.002514 -0.008713 -0.008477 -0.003062 -0.000345 0.003486 -0.014953 0.005823 0.005978 0.000950 0.005231 0.000410 -0.013603 -0.009685 0.014647 -0.000512 -0.000639 0.014078 -0.006103 -0.017912 0.003815 -0.006047 -0.003855 -0.000291 0.006216 0.017891 -0.009183 0.007533 0.005787 0.000443 -0.015618 -0.004576 0.000653 0.007905 0.014982 0.005481 -0.004050 -0.004409 -0.023522 0.002514 0.012918 0.001936 0.004053 0.006987 -0.017257 -0.021183 -0.010077 -0.000853 0.008414 0.001895 0.010981 -0.003773 0.028974 -0.008093 -0.025051 0.002109 -0.033899 -0.008505 0.004358 -0.001813 0.016490 0.005584 0.003141 0.004601 -0.010471 0.014119 -0.000215 0.006230 -0.001105 0.001943 0.004091 0.007257 0.001934 0.002715 0.002170 -0.005519 -0.020312 -0.018187 0.001853 -0.014514 -0.017436 0.008931 0.007015 0.000629 -0.003129 0.010915 -0.016184 0.005714 -0.018545 0.005711 0.008920 -0.017302 0.002426 0.012788 -0.019298 -0.003627 -0.015155 -0.010072 0.004752 0.018930 0.013270 0.008778 0.009035 0.015510 -0.012299 0.004508 -0.018919 0.010174 -0.010970 -0.002604 0.008188 -0.008834 0.005520 0.001395 0.000820 -0.009554 0.005400 0.005654 -0.009321 -0.024863 -0.004247 -0.003980 -0.005909 0.005760 -0.006854 0.004774 0.015505 -0.000700 -0.003146 0.015309 0.001314 -0.004614 0.007288 0.004282 0.000426 0.006248 -0.033428 0.002259 -0.005755 0.000964 0.006063 0.001591 -0.005880 0.007744 0.004516 -0.000500 0.009502 -0.010842 -0.001764 0.000977 -0.002274 0.002806 -0.007915 0.020817 0.008065 -0.031189 0.013781 0.006765 0.002628 0.011893 0.001730 0.016426 0.002907 -0.000505 0.002382 0.002553 -0.006026 0.001520 0.001574 0.016070 0.002545 0.005056 0.001952 0.009919 0.003312 0.021119 -0.006610 -0.036495 -0.012077 0.003565 -0.006425 0.000476 0.008659 0.000962 0.012772 0.012675 -0.038343 -0.005912 0.020546 0.002595 0.016951 -0.020723 0.014767 0.005797 0.002220 -0.000164 -0.007151 -0.003106 0.011769 0.005059 -0.010369 0.007449 -0.007640 -0.003477 0.006477 0.007301 0.001126 -0.002823 -0.016423 0.001850 -0.002141 -0.012939 0.004383 0.011681 0.018584 0.012289 -0.016392 0.005069 -0.008683 0.003218 -0.013693 0.002857 0.011833 -0.004415 0.004209 -0.002211 -0.018444 0.010204 -0.001406 0.000845 0.005752 -0.007735 0.017670 -0.002144 -0.009010 0.008480 -0.027688 0.010078 -0.020913 0.012749 0.003789 -0.000044 0.001709 -0.009565 -0.005072 -0.001508 -0.005296 -0.001596 0.013108 -0.010402 -0.001095 -0.000054 -0.025283 0.007429 -0.002552 -0.037823 -0.002761 -0.007230 -0.000086 0.019822 0.011681 0.000975 -0.026878 0.012839 0.001158 0.006787 -0.022132 0.027923 0.013236 0.007172 0.002502 -0.008923 0.004972 -0.001779 0.012800 -0.047276 0.003970 -0.000308 0.023309 -0.003240 0.000136 -0.013124 -0.000999 0.007942 -0.010569 -0.011096 0.000471 0.012496 0.009102 -0.005029 0.004133 0.013258 -0.007337 0.009165 -0.012575 0.012927 -0.016791 0.005137 0.001591 -0.002033 0.014123 -0.004302 0.000374 0.008508 0.002523 -0.008533 0.010896 -0.002036 -0.006587 -0.005955 0.011107 -0.009352 0.006758 0.008132 0.011776 0.000533 -0.030921 -0.000567 0.001027 -0.008130 0.004091 -0.010886 0.006545 0.010878 -0.010327 0.028106 -0.034867 0.009020 -0.015730 -0.001019 0.005182 -0.009396 0.005339 0.007261 -0.023883 -0.007236 -0.013369 -0.005424 -0.001703 0.016696 0.003633 0.008837 -0.002265 0.018436 -0.004117 -0.004858 -0.010705 -0.001139 -0.004102 0.004192 0.013293 -0.000152 -0.013819 0.012510 0.003175 -0.013163 0.004078 -0.006202 -0.004328 -0.003224 0.001175 -0.005500 0.002763 -0.000649 0.006941 0.009091 0.012590 0.001378 -0.019398 0.005415 -0.008670 0.010031 0.003991 0.000971 -0.020144 0.001925 -0.036787 0.010519 0.007420 0.010572 0.004352 0.007629 0.002527 0.006243 -0.004509 -0.000613 -0.003157 -0.005221 -0.008090 0.000864 0.004924 -0.006428 -0.010999 0.004679 -0.004130 -0.039502 0.006695 0.015390 0.004875 -0.000041 -0.000279 -0.005074
-0.015452 -0.002801 -0.002875 0.018148 -0.018065 -0.005281 -0.006075 0.002925 -0.003942 -0.005862 -0.008389 0.012628 0.005591 0.027505 0.009691 -0.047558 -0.003304 0.013303 0.002231 0.006742 -0.007163 0.017570 -0.001864 -0.006451 -0.023019 -0.006939 0.024506 0.014675 0.010488 -0.001746 -0.015503 0.003101 0.004000 -0.002069 0.003571 0.007713 -0.007915 0.018317 0.009386 -0.003377 -0.010419 0.004855 0.000241 -0.013850 0.005262 0.007674 -0.006041 -0.011626 0.017419 -0.004454 0.004795 0.017918 0.005604 0.010481 -0.030532 -0.002996 0.000047 0.009648 0.008383 0.007627 0.001697 0.016028 0.000449 -0.006990 -0.031299 0.016970 -0.000224 -0.001257 -0.006298 0.001452 -0.010582 0.011895 -0.002741 -0.010810 -0.028954 0.010133 -0.009726 0.014635 -0.005230 -0.008820 -0.003430 0.011192 -0.005347 0.000066 -0.005245 0.004890 -0.004562 -0.015470 -0.000282 0.008764 -0.013578 -0.009070 -0.001991 -0.037166 0.039121 0.008127 -0.018669 0.011569 0.003471 0.020909 -0.039802 0.030912 0.002940 -0.002753 -0.002798 -0.007142 -0.004139 -0.000579 -0.007198 -0.013974 -0.021103 0.022227 0.012861 -0.039741 0.023988 0.002085 -0.000106 0.010342 0.008505 0.005255 0.024115 -0.006726 0.002634 -0.003978 0.013945 0.005524 -0.003932 -0.014544 -0.008690 -0.007011 -0.000540 0.000861 -0.012110 0.002068 -0.010679 -0.004366 0.001258 -0.006430 -0.001927 -0.006130 -0.007283 0.003207 -0.002608 0.011271 -0.005233 0.006742 0.007815 0.000437 -0.010234 0.010485 0.022279 0.004352 -0.019845 0.017476 -0.051140 0.001200 -0.007678 0.004261 -0.009597 0.008821 0.013954 0.012552 -0.019369 0.014701 -0.043225 0.005281 -0.008857 -0.003446 -0.003295 0.016154 0.017593 -0.010252 -0.005293 0.001202 0.019889 0.004488 0.002122 -0.000966 0.007468 -0.007431 -0.007303 -0.009970 -0.007150 0.009623 0.000672 0.007576 0.009525 0.008834 0.006694 -0.003754 0.022340 0.005992 -0.011550 0.006850 -0.010001 0.005845 0.011932 0.006019 -0.009190 0.002429 -0.000602 -0.008344 0.012866 -0.006128 -0.005756 0.002734 -0.016344 0.005065 -0.006416 -0.004519 0.008072 -0.003609 -0.008090 0.013269 -0.031559 0.021980 0.009345 -0.000119 -0.004833 0.011172 0.000329 0.003805 -0.008312 0.010702 -0.021521 0.006512 -0.006099 -0.004123 -0.003698 0.002831 -0.000448 -0.004147 0.014074 -0.020492 0.002180 -0.006084 0.000276 0.012814 0.018399 0.002302 0.001790 0.000964 -0.006367 0.002729 -0.009198 0.007036 -0.007897 0.001531 -0.006993 0.014747 -0.000653 -0.010806 0.003752 0.002382 0.002491 -0.046534 -0.018618 -0.000132 -0.005437 0.008216 0.010425 -0.007046 0.010942 0.015996 -0.023392 0.007603 0.023434 -0.007182 0.004023 0.001802 0.016656 0.011507 0.004438 -0.007647 0.016223 -0.005246 -0.001850 0.006068 0.003277 -0.003220 -0.011392 0.009775 -0.006516 0.002242 0.016191 -0.014424 0.005400 -0.006246 0.003774 0.003173 -0.001709 0.015471 0.003186 0.018422 -0.062967 0.020522 -0.001350 0.028412 0.002698 0.018024 -0.005831 -0.007518 0.013075 -0.008474 -0.010602 0.009466 0.017803 0.013259 0.016531 -0.010500 -0.013044 -0.007940 0.005365 0.004691 0.002707 0.015328 -0.002751 -0.015372 0.013456 0.005166 -0.011119 0.005327 -0.001666 0.005936 -0.003145 -0.003180 -0.008449 0.005713 0.024233 0.004468 0.000138 -0.027295 -0.009291 -0.020483 0.017375 0.003281 -0.000310 -0.011301 0.019081 0.001374 -0.013233 -0.005348 0.004704 0.024416 0.024908 0.006913 -0.002291 0.006326 -0.015958 0.011128 -0.013360 -0.006740 0.009913 -0.023229 0.003197 0.011185 0.022188 -0.000649 -0.000722 -0.015263 0.007881 -0.006274 0.011741 -0.002172 -0.007515 0.000056 -0.013247 -0.009650 -0.011349 0.002216 0.011125 -0.007617 0.008082 0.011326 -0.024284 0.000027 0.013299 -0.007473 -0.002587 -0.026798 0.002176 -0.005021 0.005423 0.003785 -0.006754 0.005338 -0.003860 -0.001217 -0.001687 -0.004961 0.017695 -0.007601 0.010961 0.018856 -0.053724 0.007723 0.003491 -0.008345 -0.009578 0.004774 0.000611 0.004500 -0.000544 -0.013791 -0.011888 0.001331 -0.004268 -0.008123 -0.006773 0.008061 0.003727 -0.012772 0.010382 -0.002557 0.000202 0.004983 0.001432 0.002032 0.017512 0.008016 0.010539 -0.014269 0.001669 0.017076 -0.018240 0.008570 0.008220 -0.009362 0.002493 -0.005170 -0.000337 -0.004540 -0.005648 0.007783 -0.013745 -0.000920 0.005253 -0.004804 -0.025180 -0.015940 -0.008960 -0.004787 0.003362 0.020981 0.000255 -0.003465 0.013226 -0.008127 0.012265 -0.014421 -0.000466 0.013826 0.016711 0.011311 -0.015996 -0.002504 0.000224 -0.005453 0.016679 -0.006038 -0.002164 0.000042 -0.002059 -0.008756 -0.013236 0.020106 0.001690 0.011366 0.016626 0.008291 -0.013874 -0.008606 0.016721 0.007059 0.005222 -0.003695 0.012898 0.007643 -0.008281 -0.014433 -0.004841 -0.010753 -0.009715 -0.013618 -0.005677 -0.002997 0.003788 -0.011128 0.008991 -0.008851 0.004632 0.000791 0.011819 0.004796 0.007419 -0.027982 0.019059 -0.001742 -0.008359 -0.013543 0.011109 -0.009898 0.038232 -0.008813 -0.018339 0.000207 0.005872 -0.007381 -0.010352 -0.012527 -0.015469 0.007264 -0.000687 0.016560 -0.003498 0.015019 0.008558 0.019875 0.008974 0.003875 -0.001672 -0.021033 -0.000322 0.000660 -0.007533 0.004820 0.006344 0.001314 0.008291 -0.002914 0.012879 -0.007051 -0.009699 0.037464 -0.066147 0.024931 0.011079 -0.001514 -0.012503 0.005961 0.008599 0.005252 -0.005443 0.002254 -0.021928 -0.000556 -0.000592 0.006086 -0.001585 -0.005816 -0.003673 -0.007787 0.010340 0.003188 -0.011136 0.011256 -0.008075 -0.006822 0.000361 0.008645 0.001576 0.002046 0.005454 0.005707 0.005377 -0.000867 0.002317 0.000013 -0.014580 -0.001910 0.003863 0.003239 0.012523 -0.013792 -0.005862 -0.003509 0.005911 -0.008639 0.011594 -0.006759 -0.005339 -0.005485 -0.001630 0.012685 -0.004999 -0.009672 0.014382 -0.005344 -0.005944 -0.007217 0.002194 0.004689 0.009575 0.012062 -0.019402 0.003565 0.009497 -0.013232 -0.016471 -0.002555
